{"learner":{"attributes":{"best_iteration":"99","best_score":"0.29029244418317596"},"feature_names":[],"feature_types":[],"gradient_booster":{"model":{"gbtree_model_param":{"num_parallel_tree":"1","num_trees":"100"},"iteration_indptr":[0,1,2,3,4,5,6,7,8,9,10,11,12,13,14,15,16,17,18,19,20,21,22,23,24,25,26,27,28,29,30,31,32,33,34,35,36,37,38,39,40,41,42,43,44,45,46,47,48,49,50,51,52,53,54,55,56,57,58,59,60,61,62,63,64,65,66,67,68,69,70,71,72,73,74,75,76,77,78,79,80,81,82,83,84,85,86,87,88,89,90,91,92,93,94,95,96,97,98,99,100],"tree_info":[0,0,0,0,0,0,0,0,0,0,0,0,0,0,0,0,0,0,0,0,0,0,0,0,0,0,0,0,0,0,0,0,0,0,0,0,0,0,0,0,0,0,0,0,0,0,0,0,0,0,0,0,0,0,0,0,0,0,0,0,0,0,0,0,0,0,0,0,0,0,0,0,0,0,0,0,0,0,0,0,0,0,0,0,0,0,0,0,0,0,0,0,0,0,0,0,0,0,0,0],"trees":[{"base_weights":[5.3573996E-3,-1.0702304E0,2.084506E0,-1.3487102E0,-2.3950997E-1,1.1127734E0,2.304078E0,-1.4792277E0,-1.0338058E0,1.6316966E0,-3.711984E-1,1.5419209E0,-6.233739E-1,1.6565946E0,2.3221895E-2,-1.7271228E-2,-1.414722E0,-2.2227241E-1,-1.1296849E0,1.822182E0,-9.118596E-3,-1.5850957E-1,-1.2787015E0,1.8450485E0,1.3121924E-1,-1.1944832E0,1.0601398E0,1.8855035E0,-9.118596E-3,-1.4402425E0,-1.0289431E0,1.4927303E0,-1.0199755E0,-1.1731275E0,-1.9900526E-1,2.9808357E-3,1.9285092E-2,-3.375361E-1,8.89835E-1,-1.371682E0,-1.8171686E-1,4.668227E-1,1.9043572E0,-1.2043211E0,1.4551976E0,-1.2352372E-1,-1.6145868E-2,1.914417E-2,-1.0611633E-2,1.9657947E-2,5.0473264E-3,-1.4658927E0,-9.9690485E-1,-8.2318985E-1,-1.4286707E-2,1.6939929E0,-4.2019854E-4,-1.2968303E0,1.015539E-2,-1.2395914E0,-4.3407774E-1,-1.11729335E-2,4.6152525E-2,-1.0444292E0,-2.1720405E-1,2.2125737E-1,1.2281227E0,-8.763097E-1,-1.5906717E0,-1.2056539E-2,8.2722884E-1,1.0375591E-2,-8.39385E-2,1.6140887E0,2.1508211E-2,-1.5422358E-2,7.5801974E-3,1.7909171E-2,2.8420976E-1,-7.358227E-1,1.322509E-2,-1.4932065E0,-1.0668468E0,-1.4899114E0,-5.529823E-1,-9.2537963E-1,-1.1834608E-2,6.0178447E-3,1.9030618E-2,-1.5895784E-2,-7.952757E-1,-1.6434617E-2,-1.1983196E0,-1.05451E0,1.0823003E-1,3.591476E-1,-1.0611633E-2,-1.28129395E-2,-2.6175317E-1,-1.1270667E0,-1.380819E-1,1.49064E-2,-2.4042602E-1,1.5735803E0,6.755624E-1,-1.1806384E0,6.630112E-1,-1.6340013E0,-6.4940333E-1,-4.2019854E-4,1.322509E-2,-9.118596E-3,7.5801974E-3,1.782566E0,8.242892E-1,-9.118596E-3,1.322509E-2,7.5801974E-3,-1.3237657E-2,-1.4165714E0,-1.5849475E-2,-8.2761127E-1,-1.5651664E-2,-1.6006915E-2,-3.5137418E-3,-1.7138459E-1,-1.0413549E-2,-9.551561E-3,-2.1220092E-3,5.0473264E-3,-4.6730665E-3,-2.6170504E-1,-1.10420175E-2,-1.58106E-2,-1.146094E0,-1.4398469E-2,-4.4844243E-1,5.9273803E-1,-6.8989635E-1,-4.6730665E-3,6.348298E-1,1.9384778E-1,-1.1648483E-2,-6.6272956E-1,-1.4977426E-2,-6.545754E-2,-8.3896416E-1,7.051585E-1,-7.7386886E-1,6.0178447E-3,1.6810184E-2,-4.402457E-2,1.1568804E0,-1.3431528E-2,-1.9535935E-1,-4.2019854E-4,1.0375591E-2,-1.6832976E-2,-7.222136E-1,-4.2019854E-4,-9.118596E-3,1.2362384E0,2.0491386E-2,1.711387E-2,-2.6170504E-1,-1.302725E0,-1.5910028E0,-6.485711E-1,-1.3991056E-2,2.8172147E-2,-9.939089E-3,1.5567333E-1,-9.118596E-3,-1.1001446E0,-1.5338348E0,7.5801974E-3,-9.367181E-1,9.779352E-3,-1.9535935E-3,-1.9535935E-3,-1.0611633E-2,1.1116245E-2,-1.9535935E-1,6.630112E-3,-2.9273129E-1,-1.0765365E0,4.248723E-2,-2.1543401E-1,4.81499E-1,-1.1472194E0,8.070136E-2,1.4892915E-2,-3.5137418E-3,-2.6170504E-1,-1.2410515E-2,8.011235E-3,-7.222136E-1,1.407302E-2,4.3144646E-1,-9.939089E-3,7.5801974E-3,-4.2019854E-4,-9.939089E-3,1.6939929E0,8.070136E-2,6.0178447E-3,-1.11729335E-2,-1.415771E-2,-2.7517362E-3,-1.6074602E-2,-3.5137418E-3,-3.1867083E-3,-8.621744E-3,1.015539E-2,-3.646423E-3,-2.1220092E-3,5.0473264E-3,-1.0067814E-2,-1.2079624E-2,-2.1220092E-3,-1.6293049E-2,-4.2019854E-4,-1.2056539E-2,-9.939089E-3,7.5801974E-3,-9.118596E-3,2.9808357E-3,-1.3237657E-2,-4.2019854E-4,1.0375591E-2,-9.939089E-3,6.9856487E-4,-5.829532E-3,7.0831073E-3,-7.7789966E-3,-1.2500331E-2,-4.2019854E-4,8.011235E-3,-5.6537134E-3,-9.118596E-3,1.5567333E-3,-9.939089E-3,-4.2019854E-4,7.5801974E-3,-4.2019854E-4,5.0473264E-3,1.8216716E-2,-1.0611633E-2,1.015539E-2],"categories":[],"categories_nodes":[],"categories_segments":[],"categories_sizes":[],"default_left":[0,0,0,0,0,0,0,0,0,0,0,0,0,0,0,0,0,0,0,0,0,0,0,0,0,0,0,0,0,0,0,0,0,0,0,0,0,0,0,0,0,0,0,0,0,0,0,0,0,0,0,0,0,0,0,0,0,0,0,0,0,0,0,0,0,0,0,0,0,0,0,0,0,0,0,0,0,0,0,0,0,0,0,0,0,0,0,0,0,0,0,0,0,0,0,0,0,0,0,0,0,0,0,0,0,0,0,0,0,0,0,0,0,0,0,0,0,0,0,0,0,0,0,0,0,0,0,0,0,0,0,0,0,0,0,0,0,0,0,0,0,0,0,0,0,0,0,0,0,0,0,0,0,0,0,0,0,0,0,0,0,0,0,0,0,0,0,0,0,0,0,0,0,0,0,0,0,0,0,0,0,0,0,0,0,0,0,0,0,0,0,0,0,0,0,0,0,0,0,0,0,0,0,0,0,0,0,0,0,0,0,0,0,0,0,0,0,0,0,0,0,0,0,0,0,0,0,0,0,0,0,0,0,0,0,0,0,0,0,0,0,0,0,0,0,0,0,0,0],"id":0,"left_children":[1,3,5,7,9,11,13,15,17,19,21,23,25,27,-1,-1,29,31,33,35,-1,37,39,41,43,45,47,49,-1,51,53,55,57,59,61,-1,-1,63,65,67,69,71,73,75,77,79,-1,-1,-1,-1,-1,81,83,85,-1,87,-1,89,-1,91,93,-1,95,97,99,101,103,105,107,-1,109,-1,111,113,-1,-1,-1,-1,115,117,-1,119,121,123,125,127,129,-1,-1,-1,131,-1,133,135,137,139,-1,-1,141,143,145,-1,147,149,151,153,155,157,159,-1,-1,-1,-1,161,163,-1,-1,-1,-1,165,-1,167,-1,-1,-1,169,-1,-1,-1,-1,-1,171,-1,-1,173,-1,175,177,179,-1,181,183,-1,185,-1,187,189,191,193,-1,-1,195,197,-1,199,-1,-1,-1,201,-1,-1,203,-1,-1,205,207,209,211,-1,213,-1,215,-1,217,219,-1,221,-1,-1,-1,-1,-1,223,-1,225,227,229,231,233,235,237,-1,-1,239,-1,-1,241,-1,243,-1,-1,-1,-1,245,247,-1,-1,-1,-1,-1,-1,-1,-1,-1,-1,-1,-1,-1,-1,-1,-1,-1,-1,-1,-1,-1,-1,-1,-1,-1,-1,-1,-1,-1,-1,-1,-1,-1,-1,-1,-1,-1,-1,-1,-1,-1,-1,-1,-1],"loss_changes":[4.6521777E3,3.166776E2,1.4842993E2,4.0407837E1,8.561828E1,9.995778E1,2.527832E0,8.805908E0,2.3292633E1,1.282473E1,6.2124165E1,4.521805E1,2.7215866E1,1.3195938E1,0E0,0E0,3.9782715E0,4.731949E1,1.06189575E1,2.707718E0,0E0,4.968685E1,5.8398438E0,6.0467834E0,3.717701E1,8.920622E0,1.5379254E1,7.709503E-1,0E0,4.444214E0,1.8649483E0,3.6355553E0,1.4591574E1,1.20354E1,3.1818361E0,0E0,0E0,1.8855297E1,8.317747E0,4.4561005E0,7.254836E0,1.7587653E0,2.1424866E0,8.19408E0,3.4285126E0,7.0857053E0,0E0,0E0,0E0,0E0,0E0,3.6990967E0,6.177788E0,2.278431E0,0E0,8.444977E-1,0E0,1.6063042E0,0E0,1.7020874E0,7.969294E0,0E0,4.287439E0,5.5289E0,1.3709244E1,8.860543E0,3.5461006E0,1.0014079E1,2.4427795E-1,0E0,1.7232852E0,0E0,3.0682733E0,3.9444504E0,0E0,0E0,0E0,0E0,5.7231555E0,5.9676485E0,0E0,7.8515625E-1,2.7985344E0,1.1220703E0,3.2452588E0,2.2007751E-1,1.2526746E0,0E0,0E0,0E0,1.2113929E0,0E0,2.2973938E0,1.7196321E0,5.475879E0,2.5377102E0,0E0,0E0,3.9836638E0,1.4261436E0,9.019032E0,0E0,6.2449903E0,2.9685593E-1,4.1818314E0,2.2697124E0,1.1520728E0,1.254425E-1,4.1085398E-1,0E0,0E0,0E0,0E0,2.1164932E0,9.708437E0,0E0,0E0,0E0,0E0,2.9620361E0,0E0,1.6315613E0,0E0,0E0,0E0,2.0926747E0,0E0,0E0,0E0,0E0,0E0,1.5935866E0,0E0,0E0,1.5549622E0,0E0,4.146998E0,2.9361794E0,6.4809275E-1,0E0,3.410264E0,1.760051E0,0E0,2.6906085E0,0E0,1.3559075E1,4.930792E0,4.386594E0,1.3815403E0,0E0,0E0,3.741219E0,4.9405575E-1,0E0,3.542411E0,0E0,0E0,0E0,5.3111637E-1,0E0,0E0,7.013569E0,0E0,0E0,4.4701877E0,1.8966583E1,1.3000183E0,1.1867609E0,0E0,4.5171103E0,0E0,6.3057554E-1,0E0,3.711548E-1,1.7514725E0,0E0,9.4057465E-1,0E0,0E0,0E0,0E0,0E0,3.542411E0,0E0,1.7512872E0,1.2440963E0,5.2568336E0,1.3703541E1,1.069405E1,1.2554035E0,2.823627E0,0E0,0E0,1.5935866E0,0E0,0E0,5.3111637E-1,0E0,6.2296855E-1,0E0,0E0,0E0,0E0,3.37574E-1,6.456007E0,0E0,0E0,0E0,0E0,0E0,0E0,0E0,0E0,0E0,0E0,0E0,0E0,0E0,0E0,0E0,0E0,0E0,0E0,0E0,0E0,0E0,0E0,0E0,0E0,0E0,0E0,0E0,0E0,0E0,0E0,0E0,0E0,0E0,0E0,0E0,0E0,0E0,0E0,0E0,0E0,0E0,0E0,0E0,0E0],"parents":[2147483647,0,0,1,1,2,2,3,3,4,4,5,5,6,6,7,7,8,8,9,9,10,10,11,11,12,12,13,13,16,16,17,17,18,18,19,19,21,21,22,22,23,23,24,24,25,25,26,26,27,27,29,29,30,30,31,31,32,32,33,33,34,34,37,37,38,38,39,39,40,40,41,41,42,42,43,43,44,44,45,45,51,51,52,52,53,53,55,55,57,57,59,59,60,60,62,62,63,63,64,64,65,65,66,66,67,67,68,68,70,70,72,72,73,73,78,78,79,79,81,81,82,82,83,83,84,84,85,85,86,86,90,90,92,92,93,93,94,94,95,95,98,98,99,99,100,100,102,102,103,103,104,104,105,105,106,106,107,107,108,108,113,113,114,114,119,119,121,121,125,125,131,131,134,134,136,136,137,137,138,138,140,140,141,141,143,143,145,145,146,146,147,147,148,148,151,151,152,152,154,154,158,158,161,161,164,164,165,165,166,166,167,167,169,169,171,171,173,173,174,174,176,176,182,182,184,184,185,185,186,186,187,187,188,188,189,189,190,190,193,193,196,196,198,198,203,203,204,204],"right_children":[2,4,6,8,10,12,14,16,18,20,22,24,26,28,-1,-1,30,32,34,36,-1,38,40,42,44,46,48,50,-1,52,54,56,58,60,62,-1,-1,64,66,68,70,72,74,76,78,80,-1,-1,-1,-1,-1,82,84,86,-1,88,-1,90,-1,92,94,-1,96,98,100,102,104,106,108,-1,110,-1,112,114,-1,-1,-1,-1,116,118,-1,120,122,124,126,128,130,-1,-1,-1,132,-1,134,136,138,140,-1,-1,142,144,146,-1,148,150,152,154,156,158,160,-1,-1,-1,-1,162,164,-1,-1,-1,-1,166,-1,168,-1,-1,-1,170,-1,-1,-1,-1,-1,172,-1,-1,174,-1,176,178,180,-1,182,184,-1,186,-1,188,190,192,194,-1,-1,196,198,-1,200,-1,-1,-1,202,-1,-1,204,-1,-1,206,208,210,212,-1,214,-1,216,-1,218,220,-1,222,-1,-1,-1,-1,-1,224,-1,226,228,230,232,234,236,238,-1,-1,240,-1,-1,242,-1,244,-1,-1,-1,-1,246,248,-1,-1,-1,-1,-1,-1,-1,-1,-1,-1,-1,-1,-1,-1,-1,-1,-1,-1,-1,-1,-1,-1,-1,-1,-1,-1,-1,-1,-1,-1,-1,-1,-1,-1,-1,-1,-1,-1,-1,-1,-1,-1,-1,-1],"split_conditions":[1.04E2,2.2E1,2.69E2,9E0,1E0,3.3E1,3.15E2,1E0,1E0,1E0,2E0,3E0,1E0,4.8E1,2.3221895E-2,-1.7271228E-2,4E0,1E0,1.1E1,1E1,-9.118596E-3,3E1,1E0,1.8E1,1E0,4E1,1.2E1,1.42E2,-9.118596E-3,1E0,2E0,2E1,1.1E1,1E0,2E0,2.9808357E-3,1.9285092E-2,2E0,1.3E1,9E0,1.7E1,3.7E1,1.72E2,4.7E1,4E0,1.8E2,-1.6145868E-2,1.914417E-2,-1.0611633E-2,1.9657947E-2,5.0473264E-3,3E0,1E0,1E0,-1.4286707E-2,1.1E1,-4.2019854E-4,1.2E1,1.015539E-2,1E0,3E0,-1.11729335E-2,1E0,1.9E1,4E0,2E0,3E0,2.1E1,2.4E1,-1.2056539E-2,1.9E1,1.0375591E-2,1.32E2,8E0,2.1508211E-2,-1.5422358E-2,7.5801974E-3,1.7909171E-2,1.91E2,2E1,1.322509E-2,1E0,8E0,1E0,1E0,3E0,1E0,6.0178447E-3,1.9030618E-2,-1.5895784E-2,1E0,-1.6434617E-2,1E0,1.4E1,7E0,1.8E1,-1.0611633E-2,-1.28129395E-2,2E0,1E0,5E0,1.49064E-2,3.2E1,4E0,8.9E1,4E0,7E0,3.7E1,3E0,-4.2019854E-4,1.322509E-2,-9.118596E-3,7.5801974E-3,4E0,4.5E1,-9.118596E-3,1.322509E-2,7.5801974E-3,-1.3237657E-2,1E0,-1.5849475E-2,3E0,-1.5651664E-2,-1.6006915E-2,-3.5137418E-3,2E0,-1.0413549E-2,-9.551561E-3,-2.1220092E-3,5.0473264E-3,-4.6730665E-3,1.5E1,-1.10420175E-2,-1.58106E-2,5E0,-1.4398469E-2,2E0,1.6E1,8E0,-4.6730665E-3,1E0,2.2E1,-1.1648483E-2,1E0,-1.4977426E-2,1.3E1,8E0,5.5E1,1E0,6.0178447E-3,1.6810184E-2,7.3E1,4.6E1,-1.3431528E-2,6E0,-4.2019854E-4,1.0375591E-2,-1.6832976E-2,8.9E1,-4.2019854E-4,-9.118596E-3,3E0,2.0491386E-2,1.711387E-2,1.32E2,3E0,7E0,1E0,-1.3991056E-2,3E0,-9.939089E-3,2E0,-9.118596E-3,1E0,2E0,7.5801974E-3,3E0,9.779352E-3,-1.9535935E-3,-1.9535935E-3,-1.0611633E-2,1.1116245E-2,2.1E1,6.630112E-3,3.9E1,1E0,3.2E1,7E0,2.2E1,9E0,1E1,1.4892915E-2,-3.5137418E-3,3.6E1,-1.2410515E-2,8.011235E-3,6E0,1.407302E-2,6E0,-9.939089E-3,7.5801974E-3,-4.2019854E-4,-9.939089E-3,2.2E1,5.5E1,6.0178447E-3,-1.11729335E-2,-1.415771E-2,-2.7517362E-3,-1.6074602E-2,-3.5137418E-3,-3.1867083E-3,-8.621744E-3,1.015539E-2,-3.646423E-3,-2.1220092E-3,5.0473264E-3,-1.0067814E-2,-1.2079624E-2,-2.1220092E-3,-1.6293049E-2,-4.2019854E-4,-1.2056539E-2,-9.939089E-3,7.5801974E-3,-9.118596E-3,2.9808357E-3,-1.3237657E-2,-4.2019854E-4,1.0375591E-2,-9.939089E-3,6.9856487E-4,-5.829532E-3,7.0831073E-3,-7.7789966E-3,-1.2500331E-2,-4.2019854E-4,8.011235E-3,-5.6537134E-3,-9.118596E-3,1.5567333E-3,-9.939089E-3,-4.2019854E-4,7.5801974E-3,-4.2019854E-4,5.0473264E-3,1.8216716E-2,-1.0611633E-2,1.015539E-2],"split_indices":[11,11,11,11,13,0,11,0,13,12,2,2,10,0,0,0,12,12,12,0,0,12,10,13,10,12,17,12,0,10,0,11,12,10,13,0,0,0,13,13,13,12,11,13,2,11,0,0,0,0,0,13,13,17,0,11,0,11,0,0,12,0,2,12,12,0,17,12,13,0,12,0,11,17,0,0,0,0,11,13,0,12,11,17,12,13,13,0,0,0,17,0,12,11,12,11,0,0,17,17,17,0,12,0,11,17,13,12,2,0,0,0,0,17,12,0,0,0,0,13,0,0,0,0,0,10,0,0,0,0,0,11,0,0,0,0,0,11,12,0,17,12,0,2,0,13,0,11,2,0,0,11,12,0,12,0,0,0,11,0,0,17,0,0,11,11,0,12,0,11,0,0,0,17,13,0,13,0,0,0,0,0,11,0,11,10,11,13,13,17,0,0,0,12,0,0,0,0,0,0,0,0,0,13,12,0,0,0,0,0,0,0,0,0,0,0,0,0,0,0,0,0,0,0,0,0,0,0,0,0,0,0,0,0,0,0,0,0,0,0,0,0,0,0,0,0,0,0,0],"split_type":[0,0,0,0,0,0,0,0,0,0,0,0,0,0,0,0,0,0,0,0,0,0,0,0,0,0,0,0,0,0,0,0,0,0,0,0,0,0,0,0,0,0,0,0,0,0,0,0,0,0,0,0,0,0,0,0,0,0,0,0,0,0,0,0,0,0,0,0,0,0,0,0,0,0,0,0,0,0,0,0,0,0,0,0,0,0,0,0,0,0,0,0,0,0,0,0,0,0,0,0,0,0,0,0,0,0,0,0,0,0,0,0,0,0,0,0,0,0,0,0,0,0,0,0,0,0,0,0,0,0,0,0,0,0,0,0,0,0,0,0,0,0,0,0,0,0,0,0,0,0,0,0,0,0,0,0,0,0,0,0,0,0,0,0,0,0,0,0,0,0,0,0,0,0,0,0,0,0,0,0,0,0,0,0,0,0,0,0,0,0,0,0,0,0,0,0,0,0,0,0,0,0,0,0,0,0,0,0,0,0,0,0,0,0,0,0,0,0,0,0,0,0,0,0,0,0,0,0,0,0,0,0,0,0,0,0,0,0,0,0,0,0,0,0,0,0,0,0,0],"sum_hessian":[2.078252E3,1.369973E3,7.0827893E2,1.0254655E3,3.445075E2,1.3174675E2,5.7653217E2,7.2214496E2,3.033205E2,2.1852188E1,3.226553E2,1.0577128E2,2.5975471E1,1.835439E1,5.581778E2,1.4346925E2,5.786757E2,3.2510307E1,2.7081018E2,2.0630133E1,1.2220551E0,2.6243423E2,6.0221073E1,8.6751564E1,1.9019718E1,1.9656986E1,6.3184853E0,1.7132334E1,1.2220551E0,5.399628E2,3.8712906E1,1.0004572E1,2.2505733E1,2.583814E2,1.2428761E1,1.6547546E0,1.8975378E1,2.2481572E2,3.761852E1,5.5200687E1,5.020386E0,4.0146813E0,8.273688E1,9.475907E0,9.543811E0,5.9699693E0,1.36870165E1,4.6076083E0,1.7108771E0,1.5721991E1,1.4103436E0,5.080373E2,3.1925518E1,2.774247E1,1.0970434E1,8.810578E0,1.1939938E0,2.0173868E1,2.3318653E0,2.3631653E2,2.2064896E1,1.955288E0,1.0473473E1,3.1464758E1,1.9335097E2,1.329416E1,2.4324358E1,1.8595158E1,3.660553E1,2.4441102E0,2.5762763E0,1.6266935E0,2.3879876E0,4.164498E1,4.1091896E1,8.309975E0,1.1659327E0,6.9394736E0,2.6043375E0,4.5876865E0,1.3822825E0,4.7269003E2,3.534727E1,1.3903366E1,1.8022152E1,2.44049E1,3.3375707E0,2.1155155E0,6.6950626E0,1.1242907E1,8.930963E0,1.8086414E1,2.1823012E2,9.936667E0,1.2128227E1,8.762595E0,1.7108771E0,2.3567562E1,7.8971963E0,1.4308004E1,1.7904295E2,3.008976E0,1.0285184E1,1.37187195E1,1.06056385E1,1.577447E1,2.8206873E0,3.418948E1,2.416049E0,1.1939938E0,1.3822825E0,1.2220551E0,1.1659327E0,3.318292E1,8.462062E0,1.2220551E0,1.3822825E0,1.1659327E0,3.4217541E0,2.6710052E2,2.055895E2,2.5815243E1,9.532029E0,1.2220551E1,1.6828159E0,1.09903555E1,7.031797E0,2.2966496E1,1.4384048E0,1.4103436E0,1.9272269E0,4.0708036E0,4.860159E0,2.2457752E1,1.9577235E2,5.1326313E0,4.8040366E0,7.784951E0,4.3432755E0,1.9272269E0,6.8353686E0,5.697497E0,2.1996992E0,7.7089076E0,6.5990973E0,1.6335266E2,1.5690288E1,3.525859E0,6.7593246E0,2.1155155E0,1.1603205E1,4.531564E0,6.0740743E0,1.3142072E1,2.6323986E0,1.1939938E0,1.6266935E0,3.152902E1,2.66046E0,1.1939938E0,1.2220551E0,1.285332E1,2.03296E1,4.3912587E0,4.0708036E0,1.6708846E2,1.00012085E2,2.1415846E1,4.3993983E0,9.52389E0,1.4664661E0,2.8487484E0,1.2220551E0,1.7869165E2,1.708071E1,1.1659327E0,3.638104E0,5.1525526E0,2.6323986E0,2.6323986E0,1.7108771E0,4.20297E0,2.6323986E0,2.8206873E0,2.8768096E0,4.615748E0,3.0931594E0,1.2881917E2,3.4533497E1,1.1647545E1,4.0427423E0,1.8430433E0,1.6828159E0,4.0708036E0,2.6885211E0,1.8711045E0,2.66046E0,3.7141478E0,2.3599265E0,1.4664661E0,1.1659327E0,1.1939938E0,1.4664661E0,8.810578E0,4.0427423E0,2.1155155E0,1.955288E0,1.5010007E2,1.6988386E1,9.832927E1,1.6828159E0,9.580012E0,1.1835834E1,2.3318653E0,7.192024E0,1.4384048E0,1.4103436E0,1.0180265E2,7.688901E1,1.4384048E0,1.5642304E1,1.1939938E0,2.4441102E0,1.4664661E0,1.1659327E0,1.2220551E0,1.6547546E0,3.4217541E0,1.1939938E0,1.6266935E0,1.4664661E0,7.2825485E1,5.5993683E1,2.97014E1,4.832098E0,1.0453551E1,1.1939938E0,1.8711045E0,2.1716378E0,1.2220551E0,2.8487484E0,1.4664661E0,1.1939938E0,1.1659327E0,1.1939938E0,1.4103436E0,7.4002347E0,1.7108771E0,2.3318653E0],"tree_param":{"num_deleted":"0","num_feature":"19","num_nodes":"249","size_leaf_vector":"1"}},{"base_weights":[-1.1784013E-2,-1.2705214E0,1.8190706E0,-1.517361E0,1.3647649E0,2.8625962E-1,2.1278877E0,-1.5693954E0,-9.456462E-1,1.6669224E-1,2.1443613E0,-2.6288086E-1,5.8369684E-1,1.634187E0,2.2867035E-2,-1.7021269E-2,-1.4803711E0,-1.0774801E0,8.687788E-1,1.1723922E0,-1.4086374E0,6.8777835E-1,2.2157032E-2,-4.1869238E-1,1.2618398E-2,6.9146574E-1,-3.9836794E-1,1.4984764E0,1.8340045E0,-1.580831E0,-1.3564209E0,-7.050137E-1,-1.472856E0,-3.5045545E-3,1.3294894E0,8.727264E-1,1.855535E-2,-1.603834E-2,-2.9373013E-3,1.2158098E-2,-2.219975E-3,-1.8765764E-1,-8.280259E-1,5.6086314E-1,1.3456033E0,1.9496845E-1,-1.0052997E-2,1.5670027E0,3.870606E-1,1.8786258E0,9.701732E-1,-1.6037037E0,-9.0015084E-1,-1.17156E0,-1.42413E0,-8.974041E-1,4.469068E-1,-1.6180232E0,-9.2966187E-1,1.7559439E-2,-5.170568E-4,1.5466316E0,1.2278463E-1,-2.519046E-1,7.6066414E-3,-8.797431E-1,-4.0296584E-4,3.1468794E-1,1.0331789E0,1.4939633E-2,-4.4498462E-4,-9.045231E-3,7.137061E-1,1.934164E-2,1.4675198E0,8.4342825E-1,-1.0223751E-1,1.9009894E-2,4.9472474E-3,-3.5489746E-3,1.6823325E-2,-1.608595E-2,-5.607004E-3,-3.124275E-1,-1.454256E-2,-5.825046E-1,-1.260665E0,-1.4439178E0,-5.463851E-1,-1.0109103E0,-4.0978843E-1,-1.062596E-2,1.0801558E0,-2.094386E-3,-1.6729023E-2,3.8305256E-1,-1.5106847E-2,5.8946437E-3,1.7013293E-2,-8.8132876E-1,1.3321563E-2,-2.9191858E-1,5.4694492E-2,-5.6858812E-3,-1.3737815E-2,-2.3279956E-1,6.688165E-1,1.185498E0,-4.589251E-3,1.0244856E-2,-3.7896194E-4,1.5040628E0,-0E0,-4.1614074E-4,1.2314081E-2,-9.873143E-3,5.9798304E-3,5.2598536E-1,-9.673602E-1,-9.9890083E-1,6.528619E-1,-1.0250163E0,-1.5051703E-2,-1.4516078E0,-3.4828676E-4,8.005222E-3,-1.3205431E-2,-4.4339773E-1,-1.1579111E0,5.140823E-1,-9.161372E-1,1.5985375E-2,2.7768302E-1,1.0274948E-2,-3.5392977E-3,-1.39160985E-2,7.473195E-3,-3.3720294E-3,-3.2421984E-4,-3.418319E-3,5.1481957E-3,1.5996754E-1,-5.046941E-1,8.0234337E-1,-1.8611164E-1,1.2825642E-2,2.9172498E-1,4.8359376E-1,1.5703117E0,-2.0411878E-3,1.0409415E-2,-2.0536701E-3,-1.196738E-2,-1.1099813E0,-4.254666E-4,-4.3902965E-4,1.0238771E-2,-1.0804953E-2,-7.777025E-4,-1.4645155E-2,-6.861167E-1,2.8013736E-1,-8.1632346E-1,-1.2489598E0,-2.9098114E-1,1.0296953E-2,-2.117671E-3,-1.3640944E-2,1.2354266E-3,1.3117377E-2,-9.122859E-3,-1.8860282E-2,7.6589235E-3,-0E0,-6.815618E-1,1.3639204E-2,4.520005E-1,-1.1634037E-2,1.0367121E-2,-2.0712044E-3,7.6479604E-3,1.1082581E0,-9.909627E-3,1.6889825E0,1.0907394E0,-1.25550805E-2,-4.0605632E-4,1.253513E-3,-1.1996692E-2,-4.3680865E-4,5.000836E-3,-1.9610997E-3,-1.2045393E-2,-1.3084311E-2,-4.0347732E-4,3.0000308E-3,-9.110083E-3,-3.8467562E-3,6.076691E-3,-3.4245008E-3,3.0845867E-3,-4.3372903E-3,-1.0546325E-2,8.02134E-3,-1.7042967E-3,-3.8041366E-4,1.4833847E-2,1.1629189E-2,1.8260492E-2,6.263813E-3,1.6492264E-2],"categories":[],"categories_nodes":[],"categories_segments":[],"categories_sizes":[],"default_left":[0,0,0,0,0,0,0,0,0,0,0,0,0,0,0,0,0,0,0,0,0,0,0,0,0,0,0,0,0,0,0,0,0,0,0,0,0,0,0,0,0,0,0,0,0,0,0,0,0,0,0,0,0,0,0,0,0,0,0,0,0,0,0,0,0,0,0,0,0,0,0,0,0,0,0,0,0,0,0,0,0,0,0,0,0,0,0,0,0,0,0,0,0,0,0,0,0,0,0,0,0,0,0,0,0,0,0,0,0,0,0,0,0,0,0,0,0,0,0,0,0,0,0,0,0,0,0,0,0,0,0,0,0,0,0,0,0,0,0,0,0,0,0,0,0,0,0,0,0,0,0,0,0,0,0,0,0,0,0,0,0,0,0,0,0,0,0,0,0,0,0,0,0,0,0,0,0,0,0,0,0,0,0,0,0,0,0,0,0,0,0,0,0,0,0,0,0,0,0,0,0,0,0,0,0,0,0,0,0,0,0],"id":1,"left_children":[1,3,5,7,9,11,13,15,17,19,21,23,25,27,-1,-1,29,31,33,35,37,39,-1,41,-1,43,45,47,49,51,53,55,57,-1,59,61,-1,-1,-1,-1,-1,63,65,67,69,71,-1,73,75,77,79,81,83,85,87,89,91,93,95,-1,-1,97,99,101,-1,103,-1,105,107,-1,-1,-1,109,-1,111,113,115,-1,-1,-1,-1,-1,-1,117,-1,119,121,123,125,127,129,-1,131,-1,-1,133,-1,-1,-1,135,-1,137,139,-1,-1,141,143,145,-1,-1,-1,147,-1,-1,-1,-1,-1,149,151,153,155,157,-1,159,-1,-1,-1,161,163,165,167,-1,169,-1,-1,-1,-1,-1,-1,-1,-1,171,173,175,177,-1,179,181,183,-1,-1,-1,-1,185,-1,-1,-1,-1,-1,-1,187,189,191,193,195,-1,-1,-1,-1,-1,-1,197,-1,199,201,-1,203,-1,-1,-1,-1,205,-1,207,209,-1,-1,-1,-1,-1,-1,-1,-1,-1,-1,-1,-1,-1,-1,-1,-1,-1,-1,-1,-1,-1,-1,-1,-1,-1,-1],"loss_changes":[4.8365845E3,8.111067E2,4.0387793E2,3.2109375E1,9.9359024E1,2.3801231E1,5.1652588E1,9.464111E0,2.4299568E1,7.02564E1,4.9081726E0,1.264789E1,1.02761E1,1.7132568E0,0E0,0E0,5.4227295E0,1.2214485E1,4.5589433E0,3.639885E0,3.102829E0,2.5484107E0,0E0,4.2273226E0,0E0,6.3467636E0,3.8274808E0,7.656662E0,4.654541E-1,3.633728E0,1.7029419E0,1.1338509E1,1.6572342E0,0E0,3.4595757E0,1.0141872E1,0E0,0E0,0E0,0E0,0E0,2.0757236E0,5.511894E-1,8.027065E0,2.9674358E0,3.9001007E0,0E0,6.273804E-1,1.9161074E0,7.4790955E-1,5.879059E0,5.6274414E-1,3.7804813E0,3.479927E0,2.6123657E0,1.7971611E0,8.440257E0,1.988472E0,9.563503E0,0E0,0E0,3.6499023E-1,1.4563048E1,4.150238E-1,0E0,1.4019384E0,0E0,9.808079E0,6.1695194E0,0E0,0E0,0E0,1.1934013E0,0E0,4.5347595E0,1.6406214E0,3.4681735E0,0E0,0E0,0E0,0E0,0E0,0E0,4.910061E0,0E0,7.3829007E0,2.34021E0,1.989624E0,7.6680937E0,2.1332817E0,5.131771E0,0E0,1.8293338E0,0E0,0E0,2.479836E0,0E0,0E0,0E0,6.556565E0,0E0,2.7536082E-1,9.386975E-1,0E0,0E0,2.2613573E0,3.6885386E0,1.4211693E0,0E0,0E0,0E0,4.7278137E0,0E0,0E0,0E0,0E0,0E0,1.8229117E0,4.659381E-1,9.201946E-1,1.1319522E0,1.8968506E0,0E0,7.642212E-1,0E0,0E0,0E0,2.6250489E0,1.531868E0,1.8221568E0,3.464086E0,0E0,5.675748E0,0E0,0E0,0E0,0E0,0E0,0E0,0E0,0E0,1.0459192E0,1.0269897E0,4.442747E0,6.9858294E0,0E0,1.063827E0,7.253994E0,2.3492126E0,0E0,0E0,0E0,0E0,1.2196188E0,0E0,0E0,0E0,0E0,0E0,0E0,2.4830604E0,3.243394E-1,1.086698E0,1.471756E0,1.7545518E0,0E0,0E0,0E0,0E0,0E0,0E0,1.9685206E0,0E0,5.663726E-1,2.2006178E-1,0E0,4.124719E0,0E0,0E0,0E0,0E0,2.4392E0,0E0,1.973465E0,3.5549679E0,0E0,0E0,0E0,0E0,0E0,0E0,0E0,0E0,0E0,0E0,0E0,0E0,0E0,0E0,0E0,0E0,0E0,0E0,0E0,0E0,0E0,0E0,0E0,0E0,0E0,0E0],"parents":[2147483647,0,0,1,1,2,2,3,3,4,4,5,5,6,6,7,7,8,8,9,9,10,10,11,11,12,12,13,13,16,16,17,17,18,18,19,19,20,20,21,21,23,23,25,25,26,26,27,27,28,28,29,29,30,30,31,31,32,32,34,34,35,35,41,41,42,42,43,43,44,44,45,45,47,47,48,48,49,49,50,50,51,51,52,52,53,53,54,54,55,55,56,56,57,57,58,58,61,61,62,62,63,63,65,65,67,67,68,68,72,72,74,74,75,75,76,76,83,83,85,85,86,86,87,87,88,88,89,89,90,90,92,92,95,95,99,99,101,101,102,102,105,105,106,106,107,107,111,111,117,117,118,118,119,119,120,120,121,121,123,123,127,127,128,128,129,129,130,130,132,132,141,141,142,142,143,143,144,144,146,146,147,147,148,148,153,153,160,160,161,161,162,162,163,163,164,164,171,171,173,173,174,174,176,176,181,181,183,183,184,184],"right_children":[2,4,6,8,10,12,14,16,18,20,22,24,26,28,-1,-1,30,32,34,36,38,40,-1,42,-1,44,46,48,50,52,54,56,58,-1,60,62,-1,-1,-1,-1,-1,64,66,68,70,72,-1,74,76,78,80,82,84,86,88,90,92,94,96,-1,-1,98,100,102,-1,104,-1,106,108,-1,-1,-1,110,-1,112,114,116,-1,-1,-1,-1,-1,-1,118,-1,120,122,124,126,128,130,-1,132,-1,-1,134,-1,-1,-1,136,-1,138,140,-1,-1,142,144,146,-1,-1,-1,148,-1,-1,-1,-1,-1,150,152,154,156,158,-1,160,-1,-1,-1,162,164,166,168,-1,170,-1,-1,-1,-1,-1,-1,-1,-1,172,174,176,178,-1,180,182,184,-1,-1,-1,-1,186,-1,-1,-1,-1,-1,-1,188,190,192,194,196,-1,-1,-1,-1,-1,-1,198,-1,200,202,-1,204,-1,-1,-1,-1,206,-1,208,210,-1,-1,-1,-1,-1,-1,-1,-1,-1,-1,-1,-1,-1,-1,-1,-1,-1,-1,-1,-1,-1,-1,-1,-1,-1,-1],"split_conditions":[1E0,1.42E2,2.2E1,5.3E1,2.93E2,5E0,1.91E2,1E0,2E0,2.9E1,5.7E1,3E0,3E0,1.6E1,2.2867035E-2,-1.7021269E-2,8E0,1E1,5E0,4.5E1,1E0,5.2E1,2.2157032E-2,3E0,1.2618398E-2,1E0,2E0,1.1E1,2.5E1,3E0,1E0,2.7E1,1.1E2,-3.5045545E-3,1.2E1,1.5E1,1.855535E-2,-1.603834E-2,-2.9373013E-3,1.2158098E-2,-2.219975E-3,1E0,3E0,3E0,1.7E1,1.2E1,-1.0052997E-2,1E0,5.2E1,3E1,3E0,4E0,4E0,1E0,1.3E1,8.5E1,6E0,9E0,1.5E1,1.7559439E-2,-5.170568E-4,5E0,7E0,1E0,7.6066414E-3,1E0,-4.0296584E-4,9E0,2E0,1.4939633E-2,-4.4498462E-4,-9.045231E-3,1.9E1,1.934164E-2,1.1E1,4.8E1,1.5E1,1.9009894E-2,4.9472474E-3,-3.5489746E-3,1.6823325E-2,-1.608595E-2,-5.607004E-3,1E0,-1.454256E-2,3E0,2E0,1.1E1,3.6E1,2E0,8.9E1,-1.062596E-2,8E0,-2.094386E-3,-1.6729023E-2,1.24E2,-1.5106847E-2,5.8946437E-3,1.7013293E-2,1E0,1.3321563E-2,2E0,2E0,-5.6858812E-3,-1.3737815E-2,1E0,1.9E1,7E0,-4.589251E-3,1.0244856E-2,-3.7896194E-4,1E0,-0E0,-4.1614074E-4,1.2314081E-2,-9.873143E-3,5.9798304E-3,2E0,4E0,1.3E1,1.6E1,1E1,-1.5051703E-2,2E0,-3.4828676E-4,8.005222E-3,-1.3205431E-2,5.5E1,9E0,1.6E1,9E0,1.5985375E-2,3E1,1.0274948E-2,-3.5392977E-3,-1.39160985E-2,7.473195E-3,-3.3720294E-3,-3.2421984E-4,-3.418319E-3,5.1481957E-3,2E0,6E0,1E0,1E0,1.2825642E-2,1.9E1,8E0,3E0,-2.0411878E-3,1.0409415E-2,-2.0536701E-3,-1.196738E-2,2E0,-4.254666E-4,-4.3902965E-4,1.0238771E-2,-1.0804953E-2,-7.777025E-4,-1.4645155E-2,2E0,1E1,1.5E1,1.2E1,1.3E1,1.0296953E-2,-2.117671E-3,-1.3640944E-2,1.2354266E-3,1.3117377E-2,-9.122859E-3,7E0,7.6589235E-3,2E0,8E0,1.3639204E-2,1.3E1,-1.1634037E-2,1.0367121E-2,-2.0712044E-3,7.6479604E-3,2.8E1,-9.909627E-3,2E0,9E0,-1.25550805E-2,-4.0605632E-4,1.253513E-3,-1.1996692E-2,-4.3680865E-4,5.000836E-3,-1.9610997E-3,-1.2045393E-2,-1.3084311E-2,-4.0347732E-4,3.0000308E-3,-9.110083E-3,-3.8467562E-3,6.076691E-3,-3.4245008E-3,3.0845867E-3,-4.3372903E-3,-1.0546325E-2,8.02134E-3,-1.7042967E-3,-3.8041366E-4,1.4833847E-2,1.1629189E-2,1.8260492E-2,6.263813E-3,1.6492264E-2],"split_indices":[9,11,11,11,11,11,11,1,10,0,13,0,14,13,0,0,11,0,0,13,10,13,0,11,0,10,1,14,0,1,14,13,11,0,14,0,0,0,0,0,0,10,13,13,11,11,0,13,11,14,9,13,1,13,13,11,0,13,0,0,0,14,1,13,0,14,0,11,1,0,0,0,11,0,0,11,13,0,0,0,0,0,0,13,0,0,0,14,11,14,11,0,0,0,0,11,0,0,0,10,0,0,11,0,0,13,11,13,0,0,0,14,0,0,0,0,0,11,11,11,11,13,0,10,0,0,0,11,0,13,14,0,13,0,0,0,0,0,0,0,0,1,11,13,14,0,11,13,1,0,0,0,0,0,0,0,0,0,0,0,14,13,13,14,13,0,0,0,0,0,0,11,0,13,11,0,11,0,0,0,0,11,0,14,13,0,0,0,0,0,0,0,0,0,0,0,0,0,0,0,0,0,0,0,0,0,0,0,0,0,0],"split_type":[0,0,0,0,0,0,0,0,0,0,0,0,0,0,0,0,0,0,0,0,0,0,0,0,0,0,0,0,0,0,0,0,0,0,0,0,0,0,0,0,0,0,0,0,0,0,0,0,0,0,0,0,0,0,0,0,0,0,0,0,0,0,0,0,0,0,0,0,0,0,0,0,0,0,0,0,0,0,0,0,0,0,0,0,0,0,0,0,0,0,0,0,0,0,0,0,0,0,0,0,0,0,0,0,0,0,0,0,0,0,0,0,0,0,0,0,0,0,0,0,0,0,0,0,0,0,0,0,0,0,0,0,0,0,0,0,0,0,0,0,0,0,0,0,0,0,0,0,0,0,0,0,0,0,0,0,0,0,0,0,0,0,0,0,0,0,0,0,0,0,0,0,0,0,0,0,0,0,0,0,0,0,0,0,0,0,0,0,0,0,0,0,0,0,0,0,0,0,0,0,0,0,0,0,0,0,0,0,0,0,0],"sum_hessian":[2.0967183E3,1.2427035E3,8.540149E2,1.1366947E3,1.0600874E2,1.4358467E2,7.104302E2,1.0401097E3,9.6585045E1,4.231765E1,6.369109E1,5.036984E1,9.3214836E1,1.7581241E2,5.346178E2,4.0982886E2,6.302808E2,9.047269E1,6.1123605E0,2.6023407E1,1.6294243E1,3.5361497E0,6.015494E1,4.6417416E1,3.952422E0,8.435562E1,8.859209E0,1.1006139E2,6.575101E1,3.411905E2,2.8909033E2,4.8149353E1,4.2323334E1,1.6823671E0,4.429993E0,1.9773504E1,6.2499022E0,1.3416985E1,2.8772585E0,2.0942094E0,1.4419403E0,3.0759169E1,1.5658247E1,7.199221E1,1.2363413E1,4.7396894E0,4.119519E0,1.0319861E2,6.8627825E0,6.1294327E1,4.456682E0,3.2864417E2,1.2546312E1,8.28021E1,2.0628824E2,4.1522198E1,6.6271553E0,3.1691149E1,1.0632185E1,3.2328918E0,1.1971016E0,9.784961E0,9.9885435E0,2.9594046E1,1.1651223E0,1.4464825E1,1.1934221E0,4.8560196E1,2.3432016E1,1.1168649E1,1.1947635E0,1.2191534E0,3.520536E0,1.7854761E1,8.534385E1,3.2821493E0,3.5806332E0,5.9880756E1,1.4135727E0,1.6842133E0,2.772469E0,3.26475E2,2.1691813E0,6.9349375E0,5.611375E0,1.2017352E1,7.0784744E1,2.0099799E2,5.2902536E0,3.2644928E1,8.87727E0,1.7114873E0,4.915668E0,1.4373431E0,3.0253805E1,3.3138242E0,7.3183603E0,2.120647E0,7.664314E0,5.560419E0,4.4281244E0,2.650849E1,3.0855567E0,1.0319019E1,4.1458054E0,1.909669E1,2.9463507E1,2.1508827E1,1.9231896E0,2.3279386E0,1.1925975E0,8.3203735E1,2.140112E0,1.1938311E0,2.0883183E0,1.4635354E0,2.1170976E0,3.0608218E0,3.8741155E0,9.191574E0,2.8257782E0,3.8897446E1,3.18873E1,1.9980641E2,1.1915693E0,1.8712897E0,3.4189637E0,7.682476E0,2.4962452E1,3.0675442E0,5.8097258E0,2.3080704E0,2.6075974E0,1.6299967E0,1.6838276E0,4.3914514E0,1.1689674E0,2.1986794E1,4.521696E0,1.6786702E0,1.4068866E0,7.8298674E0,1.1266822E1,2.5637753E1,3.8257535E0,1.8908434E1,2.600393E0,5.6702876E0,7.753345E1,1.435293E0,1.6255289E0,1.4357703E0,2.4383452E0,7.997467E0,1.194107E0,1.1945523E0,1.631226E0,3.65127E1,2.384746E0,1.9546664E2,4.3397665E0,2.606369E0,5.076107E0,2.2086786E1,2.8756666E0,1.6293118E0,1.4382324E0,3.9094489E0,1.900277E0,1.3854132E0,1.2221843E0,6.666273E0,1.163594E0,3.3296633E0,7.9371586E0,8.628418E0,1.7009335E1,2.1988122E0,1.6269411E0,1.4364624E0,1.1639307E0,4.2051115E0,1.4651761E0,5.996473E1,1.756872E1,6.8039737E0,1.1934935E0,1.8995172E0,2.4402494E0,1.1944996E0,1.4118694E0,2.6327581E0,2.4433486E0,2.0893372E1,1.1934153E0,1.6540022E0,1.2216644E0,4.553327E0,2.1129463E0,1.678943E0,1.6507204E0,6.2295046E0,1.7076538E0,1.0803836E1,6.205498E0,1.1926534E0,3.0124578E0,1.45056715E1,4.5459057E1,1.0848927E1,6.719794E0],"tree_param":{"num_deleted":"0","num_feature":"19","num_nodes":"211","size_leaf_vector":"1"}},{"base_weights":[1.1429507E-2,-1.2633176E0,1.7983369E0,-1.4784509E0,1.518186E0,2.9192162E-1,2.1087937E0,-1.6261082E0,-7.625573E-1,2.1193178E-1,2.1367126E0,-2.4175656E-1,5.762847E-1,1.5942814E0,2.2471627E-2,-1.6464099E0,-4.6576184E-1,-8.5203046E-1,8.795072E-1,1.2083594E0,-1.2730258E0,2.733073E-3,2.183285E-2,-3.8900173E-1,1.2498521E-2,-7.7065647E-1,6.8406266E-1,1.5258323E0,2.1433007E-2,-1.6638734E0,-1.2362165E0,5.4722476E-1,-1.5187245E-2,-6.896128E-1,-1.1471395E0,-3.5577537E-3,1.1623657E0,-1.8927698E-1,1.5964377E0,-1.5506387E-2,2.8971042E-3,-2.9778606E-1,-9.011181E-1,-1.337864E-2,3.8383123E-2,7.4932474E-1,-1.1955766E-2,1.7277696E0,1.1402093E0,-1.6658876E-2,-2.0467564E-3,-6.409327E-1,-1.51939485E-2,-7.20204E-1,1.1382536E0,-1.0386895E0,-4.6189036E-2,-1.5031463E-2,-4.3942833E-1,1.349041E-2,4.2080924E-1,5.802824E-3,-1.0457158E-2,1.800304E-2,1.2364045E-3,-3.9938676E-1,3.6234757E-1,-1.0330701E0,-1.9913109E-3,7.5419573E-3,-4.702565E-3,4.7152022E-1,9.273131E-1,8.826974E-1,1.7986015E0,1.2565241E0,-5.7555594E-2,-1.319137E0,2.5797775E-1,-4.1484676E-4,-9.914722E-3,1.4680196E-2,1.215564E-3,-1.0746773E-2,-3.0738637E-1,1.1389799E0,-2.901423E-1,1.256399E0,-1.0842574E0,-4.889744E-4,7.485416E-3,-9.234757E-1,-3.1503844E-1,7.209129E-3,-3.4028848E-3,-3.1113383E-4,-1.28775155E-2,1.7593625E-1,9.011289E-1,1.0859219E0,1.8160203E-1,1.2499369E0,-8.8929705E-2,1.5949384E0,2.0272437E-2,6.605381E-1,1.455146E0,5.8393227E-3,-6.5581465E-1,-1.4880023E-2,-2.118425E-3,8.594457E-1,-1.0637158E-2,-1.2233264E-2,1.0568756E-2,-0E0,1.5610658E0,-5.752384E-1,4.3784407E-1,1.5528705E-2,-3.4477955E-4,-1.2385384E0,-0E0,-1.1950358E-2,-2.9843557E-4,-2.4624588E-1,-7.698534E-1,-3.1149018E-1,4.0410784E-1,1.8195007E-2,4.2629224E-1,1.4778299E0,9.2345995E-1,-8.2673806E-1,7.2125465E-1,1.2944604E-3,1.6339071E-2,-9.044132E-3,7.394977E-3,1.6387107E0,-4.8685996E-4,1.643939E-2,1.034534E0,1.7679603E0,9.3067306E-1,-4.7428152E-4,-9.166029E-3,-2.1192445E-3,1.2945145E-2,1.7697657E-2,5.058084E-3,-0E0,-7.950392E-1,6.258286E-1,-3.5225018E-3,-7.602422E-1,-1.5147359E-2,-4.0459222E-1,1.2829836E-1,-2.9685284E-4,-1.0475721E-2,-0E0,-4.377088E-1,5.0766002E-2,9.808585E-1,4.8041176E-2,1.4823536E-2,1.7636908E-2,-2.1129302E-3,9.8294926E-1,-2.0701452E-3,-3.0879036E-4,-1.1036781E-2,1.2566108E-2,-1.820809E-1,1.0101471E0,1.7709597E0,5.550853E-1,-9.94681E-3,1.3242422E0,-2.1494469E-3,1.9964498E-2,5.645104E-1,-5.6240507E-3,1.2265499E0,-7.7261035E-3,5.404358E-3,-9.848098E-3,-1.6455796E-3,1.3590591E-3,1.3782438E-2,-1.0326185E-2,-7.4581493E-4,-1.8419136E-3,-6.4078625E-3,4.764302E-3,-1.6667977E-3,-5.1321504E-3,-3.370506E-4,-9.037769E-3,2.622772E-3,1.7032277E-2,-8.1861025E-4,5.7549276E-3,-3.9519165E-3,1.1140257E-2,2.6665549E-3,5.154917E-3,-9.019472E-3,1.3106578E-2,-3.555846E-3,8.424699E-3,1.8512918E-2,8.07456E-3,-6.291339E-4,1.5563533E-2,2.9511692E-3,-2.1781705E-3,9.971175E-3,1.3658158E-2,-4.725153E-4],"categories":[],"categories_nodes":[],"categories_segments":[],"categories_sizes":[],"default_left":[0,0,0,0,0,0,0,0,0,0,0,0,0,0,0,0,0,0,0,0,0,0,0,0,0,0,0,0,0,0,0,0,0,0,0,0,0,0,0,0,0,0,0,0,0,0,0,0,0,0,0,0,0,0,0,0,0,0,0,0,0,0,0,0,0,0,0,0,0,0,0,0,0,0,0,0,0,0,0,0,0,0,0,0,0,0,0,0,0,0,0,0,0,0,0,0,0,0,0,0,0,0,0,0,0,0,0,0,0,0,0,0,0,0,0,0,0,0,0,0,0,0,0,0,0,0,0,0,0,0,0,0,0,0,0,0,0,0,0,0,0,0,0,0,0,0,0,0,0,0,0,0,0,0,0,0,0,0,0,0,0,0,0,0,0,0,0,0,0,0,0,0,0,0,0,0,0,0,0,0,0,0,0,0,0,0,0,0,0,0,0,0,0,0,0,0,0,0,0,0,0,0,0,0,0,0,0,0,0,0,0,0,0,0,0,0,0,0,0,0,0],"id":2,"left_children":[1,3,5,7,9,11,13,15,17,19,21,23,25,27,-1,29,31,33,35,37,39,-1,-1,41,-1,43,45,47,-1,49,51,53,-1,55,57,-1,59,61,63,-1,-1,65,67,-1,69,71,-1,73,75,-1,-1,77,-1,79,81,83,85,-1,87,-1,89,-1,-1,-1,-1,91,93,95,-1,-1,-1,97,99,101,103,105,107,109,111,-1,-1,-1,-1,-1,113,115,117,119,121,-1,-1,123,125,-1,-1,-1,-1,127,129,131,133,135,137,139,-1,141,143,-1,145,-1,-1,147,-1,-1,-1,-1,149,151,153,-1,-1,155,-1,-1,-1,157,159,161,163,-1,165,167,169,171,173,-1,-1,-1,-1,175,-1,177,179,181,183,-1,-1,-1,-1,-1,-1,185,187,189,-1,191,-1,193,195,-1,-1,-1,197,199,201,203,-1,-1,-1,205,-1,-1,-1,-1,207,209,211,213,-1,215,-1,-1,217,-1,219,-1,-1,-1,-1,-1,-1,-1,-1,-1,-1,-1,-1,-1,-1,-1,-1,-1,-1,-1,-1,-1,-1,-1,-1,-1,-1,-1,-1,-1,-1,-1,-1,-1,-1,-1,-1],"loss_changes":[4.8112295E3,7.3988794E2,4.1043994E2,1.195293E2,7.118643E1,2.3162651E1,4.79292E1,2.1354248E1,2.979847E1,4.55496E1,4.382843E0,1.2093846E1,1.4926353E1,2.30365E0,0E0,4.3239746E0,1.989376E1,8.040405E0,4.216111E0,1.0399115E1,5.951681E0,0E0,0E0,1.913899E0,0E0,3.7398362E0,1.2197296E1,8.971863E0,0E0,2.0881348E0,5.915718E0,8.164491E0,0E0,2.7704216E1,1.5532814E1,0E0,4.9670315E-1,3.834888E0,3.9473724E0,0E0,0E0,3.0653553E0,3.0015182E-1,0E0,1.8741698E0,3.8757515E0,0E0,3.6827087E0,7.52993E0,0E0,0E0,9.854067E0,0E0,5.292647E-1,2.0396776E0,1.6439514E0,1.3191234E1,0E0,2.6797607E1,0E0,6.2449425E-1,0E0,0E0,0E0,0E0,1.2781749E0,1.843872E0,1.1953559E0,0E0,0E0,0E0,4.485652E0,6.0197525E0,3.5201626E0,3.298645E-1,4.5242996E0,2.517045E0,1.2018366E0,6.783561E0,0E0,0E0,0E0,0E0,0E0,7.9269834E0,3.6457386E0,8.152129E0,2.8203402E0,2.9619274E0,0E0,0E0,9.647081E-1,7.9356694E-1,0E0,0E0,0E0,0E0,2.7541652E0,5.485111E0,1.1913185E0,6.418192E0,2.5542412E0,2.9756045E0,3.800438E0,0E0,3.2472296E0,3.8498764E0,0E0,4.0263355E-1,0E0,0E0,3.0380359E0,0E0,0E0,0E0,0E0,1.1843014E-1,3.5785847E0,1.9057288E0,0E0,0E0,6.4198875E-1,0E0,0E0,0E0,1.9641135E0,6.615684E-1,3.4023845E-1,3.2330604E0,0E0,4.2420845E0,5.850788E0,2.5603886E0,7.6448226E-1,4.0022254E0,0E0,0E0,0E0,0E0,1.9487305E0,0E0,3.913499E0,3.5573301E0,4.331009E0,7.5414944E0,0E0,0E0,0E0,0E0,0E0,0E0,3.9922233E0,2.1439314E0,3.1556623E0,0E0,1.2578897E0,0E0,9.8442936E-1,1.1387129E0,0E0,0E0,0E0,1.0474551E-1,2.487674E0,5.0227833E0,2.4279814E0,0E0,0E0,0E0,2.612156E0,0E0,0E0,0E0,0E0,2.3237822E0,5.0172462E0,1.0390396E0,8.7165236E-1,0E0,1.0981417E0,0E0,0E0,1.9128395E0,0E0,2.5361423E0,0E0,0E0,0E0,0E0,0E0,0E0,0E0,0E0,0E0,0E0,0E0,0E0,0E0,0E0,0E0,0E0,0E0,0E0,0E0,0E0,0E0,0E0,0E0,0E0,0E0,0E0,0E0,0E0,0E0,0E0,0E0,0E0,0E0,0E0,0E0,0E0],"parents":[2147483647,0,0,1,1,2,2,3,3,4,4,5,5,6,6,7,7,8,8,9,9,10,10,11,11,12,12,13,13,15,15,16,16,17,17,18,18,19,19,20,20,23,23,25,25,26,26,27,27,29,29,30,30,31,31,33,33,34,34,36,36,37,37,38,38,41,41,42,42,44,44,45,45,47,47,48,48,51,51,53,53,54,54,55,55,56,56,58,58,60,60,65,65,66,66,67,67,71,71,72,72,73,73,74,74,75,75,76,76,77,77,78,78,84,84,85,85,86,86,87,87,88,88,91,91,92,92,97,97,98,98,99,99,100,100,101,101,102,102,103,103,105,105,106,106,108,108,111,111,116,116,117,117,118,118,121,121,125,125,126,126,127,127,128,128,130,130,131,131,132,132,133,133,134,134,139,139,141,141,142,142,143,143,144,144,151,151,152,152,153,153,155,155,157,157,158,158,162,162,163,163,164,164,165,165,169,169,174,174,175,175,176,176,177,177,179,179,182,182,184,184],"right_children":[2,4,6,8,10,12,14,16,18,20,22,24,26,28,-1,30,32,34,36,38,40,-1,-1,42,-1,44,46,48,-1,50,52,54,-1,56,58,-1,60,62,64,-1,-1,66,68,-1,70,72,-1,74,76,-1,-1,78,-1,80,82,84,86,-1,88,-1,90,-1,-1,-1,-1,92,94,96,-1,-1,-1,98,100,102,104,106,108,110,112,-1,-1,-1,-1,-1,114,116,118,120,122,-1,-1,124,126,-1,-1,-1,-1,128,130,132,134,136,138,140,-1,142,144,-1,146,-1,-1,148,-1,-1,-1,-1,150,152,154,-1,-1,156,-1,-1,-1,158,160,162,164,-1,166,168,170,172,174,-1,-1,-1,-1,176,-1,178,180,182,184,-1,-1,-1,-1,-1,-1,186,188,190,-1,192,-1,194,196,-1,-1,-1,198,200,202,204,-1,-1,-1,206,-1,-1,-1,-1,208,210,212,214,-1,216,-1,-1,218,-1,220,-1,-1,-1,-1,-1,-1,-1,-1,-1,-1,-1,-1,-1,-1,-1,-1,-1,-1,-1,-1,-1,-1,-1,-1,-1,-1,-1,-1,-1,-1,-1,-1,-1,-1,-1,-1],"split_conditions":[1E0,1.72E2,2.2E1,1E0,3.15E2,5E0,1.62E2,2.8E1,1.16E2,3.2E1,3.7E1,3E0,1E0,3E0,2.2471627E-2,6.8E1,1.3E1,2E0,2.3E1,2.3E1,3.1E1,2.733073E-3,2.183285E-2,1E0,1.2498521E-2,1E1,5E0,3E0,2.1433007E-2,1.1E1,8E0,1E0,-1.5187245E-2,1E1,7E0,-3.5577537E-3,1.7E1,1.7E1,2.9E1,-1.5506387E-2,2.8971042E-3,4E0,2E0,-1.337864E-2,2E0,2E0,-1.1955766E-2,1E0,1.7E1,-1.6658876E-2,-2.0467564E-3,2E0,-1.51939485E-2,3.6E1,8E0,3E0,1E0,-1.5031463E-2,5E0,1.349041E-2,5E0,5.802824E-3,-1.0457158E-2,1.800304E-2,1.2364045E-3,1E0,1E0,1E0,-1.9913109E-3,7.5419573E-3,-4.702565E-3,3E0,3E0,8E0,1.1E1,4E1,1.4E1,1.5E1,1.5E1,-4.1484676E-4,-9.914722E-3,1.4680196E-2,1.215564E-3,-1.0746773E-2,8E0,1.2E1,3.2E1,5E0,1.04E2,-4.889744E-4,7.485416E-3,2E0,1E0,7.209129E-3,-3.4028848E-3,-3.1113383E-4,-1.28775155E-2,1E0,7E0,1E0,1.3E1,2.8E1,3.9E1,1.2E1,2.0272437E-2,3E0,9E0,5.8393227E-3,2E0,-1.4880023E-2,-2.118425E-3,9E0,-1.0637158E-2,-1.2233264E-2,1.0568756E-2,-0E0,1.7E1,2E0,7.3E1,1.5528705E-2,-3.4477955E-4,1E1,-0E0,-1.1950358E-2,-2.9843557E-4,2E0,1E0,1E0,1E0,1.8195007E-2,4E0,2E1,4E0,1E1,2E0,1.2944604E-3,1.6339071E-2,-9.044132E-3,7.394977E-3,2E0,-4.8685996E-4,4E0,3.4E1,1.4E1,1.5E1,-4.7428152E-4,-9.166029E-3,-2.1192445E-3,1.2945145E-2,1.7697657E-2,5.058084E-3,1E0,6E0,5.3E1,-3.5225018E-3,8E0,-1.5147359E-2,1E0,3E0,-2.9685284E-4,-1.0475721E-2,-0E0,2E0,6E0,2E0,1E0,1.4823536E-2,1.7636908E-2,-2.1129302E-3,3E0,-2.0701452E-3,-3.0879036E-4,-1.1036781E-2,1.2566108E-2,3E0,8E0,2.5E1,1.6E1,-9.94681E-3,7E0,-2.1494469E-3,1.9964498E-2,9.3E1,-5.6240507E-3,1.8E1,-7.7261035E-3,5.404358E-3,-9.848098E-3,-1.6455796E-3,1.3590591E-3,1.3782438E-2,-1.0326185E-2,-7.4581493E-4,-1.8419136E-3,-6.4078625E-3,4.764302E-3,-1.6667977E-3,-5.1321504E-3,-3.370506E-4,-9.037769E-3,2.622772E-3,1.7032277E-2,-8.1861025E-4,5.7549276E-3,-3.9519165E-3,1.1140257E-2,2.6665549E-3,5.154917E-3,-9.019472E-3,1.3106578E-2,-3.555846E-3,8.424699E-3,1.8512918E-2,8.07456E-3,-6.291339E-4,1.5563533E-2,2.9511692E-3,-2.1781705E-3,9.971175E-3,1.3658158E-2,-4.725153E-4],"split_indices":[9,11,11,7,11,11,11,13,11,0,16,0,7,9,0,11,0,1,13,16,14,0,0,16,0,11,16,1,0,14,0,1,0,11,0,0,16,0,0,0,0,11,0,0,0,0,0,14,14,0,0,1,0,13,0,0,16,0,13,0,1,0,0,0,0,7,14,7,0,0,0,13,14,13,13,11,0,16,16,0,0,0,0,0,11,11,11,16,11,0,0,13,14,0,0,0,0,16,11,13,11,11,11,16,0,16,14,0,7,0,0,16,0,0,0,0,11,13,11,0,0,14,0,0,0,11,13,13,14,0,16,11,1,11,1,0,0,0,0,14,0,14,11,16,13,0,0,0,0,0,0,13,13,11,0,14,0,11,11,0,0,0,14,11,16,16,0,0,0,16,0,0,0,0,13,13,11,0,0,0,0,0,11,0,0,0,0,0,0,0,0,0,0,0,0,0,0,0,0,0,0,0,0,0,0,0,0,0,0,0,0,0,0,0,0,0,0,0,0,0,0],"split_type":[0,0,0,0,0,0,0,0,0,0,0,0,0,0,0,0,0,0,0,0,0,0,0,0,0,0,0,0,0,0,0,0,0,0,0,0,0,0,0,0,0,0,0,0,0,0,0,0,0,0,0,0,0,0,0,0,0,0,0,0,0,0,0,0,0,0,0,0,0,0,0,0,0,0,0,0,0,0,0,0,0,0,0,0,0,0,0,0,0,0,0,0,0,0,0,0,0,0,0,0,0,0,0,0,0,0,0,0,0,0,0,0,0,0,0,0,0,0,0,0,0,0,0,0,0,0,0,0,0,0,0,0,0,0,0,0,0,0,0,0,0,0,0,0,0,0,0,0,0,0,0,0,0,0,0,0,0,0,0,0,0,0,0,0,0,0,0,0,0,0,0,0,0,0,0,0,0,0,0,0,0,0,0,0,0,0,0,0,0,0,0,0,0,0,0,0,0,0,0,0,0,0,0,0,0,0,0,0,0,0,0,0,0,0,0,0,0,0,0,0,0],"sum_hessian":[2.1101548E3,1.2317113E3,8.7844336E2,1.143753E3,8.79583E1,1.5048999E2,7.2795337E2,9.470146E2,1.9673845E2,2.8748735E1,5.9209564E1,5.224236E1,9.8247635E1,1.5708662E2,5.708667E2,9.3023395E2,1.6780676E1,1.8708647E2,9.6519785E0,1.7356133E1,1.1392602E1,1.6635851E0,5.754598E1,4.8282383E1,3.9599798E0,6.754604E0,9.1493034E1,1.4319507E2,1.3891551E1,8.8908215E2,4.115175E1,8.7490835E0,8.031592E0,1.2304339E2,6.404308E1,1.6844466E0,7.9675317E0,3.8272307E0,1.3528902E1,9.734962E0,1.6576397E0,4.2490864E1,5.7915163E0,3.6591663E0,3.0954375E0,8.905553E1,2.4375072E0,9.15262E1,5.1668877E1,8.876467E2,1.4354503E0,1.443135E1,2.6720398E1,2.6590788E0,6.090005E0,7.926824E1,4.3775143E1,4.176725E1,2.2275837E1,5.6030083E0,2.3645234E0,2.1241999E0,1.7030307E0,1.1628941E1,1.8999612E0,3.7296986E1,5.193877E0,4.358216E0,1.4333009E0,1.1669756E0,1.9284618E0,3.642083E1,5.2634697E1,8.228483E0,8.3297714E1,4.7126827E1,4.54205E0,8.022412E0,6.408938E0,1.1937804E0,1.4652984E0,4.189025E0,1.9009798E0,7.497253E1,4.2957187E0,6.7762313E0,3.699891E1,5.8327813E0,1.6443056E1,1.1960359E0,1.1684874E0,3.6270142E0,3.366997E1,3.5159478E0,1.6779296E0,1.1902801E0,3.1679356E0,2.2548836E1,1.3871994E1,4.29163E1,9.718396E0,5.838302E0,2.3901815E0,4.8504963E1,3.479275E1,1.2987008E1,3.413982E1,2.1227312E0,2.419319E0,6.58418E0,1.4382324E0,4.6969013E0,1.7120365E0,2.6758246E0,1.6198939E0,2.1405866E0,4.635645E0,2.6836365E1,1.0162545E1,4.641331E0,1.19145E0,1.4298938E1,2.144117E0,2.437205E0,1.1898088E0,3.0776234E1,2.893739E0,6.9336205E0,1.5615214E1,3.690953E0,1.0181041E1,1.0023811E1,3.289249E1,3.137917E0,6.5804796E0,1.8977892E0,3.940513E0,1.2191088E0,1.1710727E0,4.730888E1,1.1960833E0,5.2524815E0,7.7345266E0,1.9780457E1,1.4359364E1,1.1955552E0,1.2237637E0,1.4382395E0,3.258662E0,3.2258134E0,1.4098316E0,7.6024256E0,1.923394E1,8.479515E0,1.6830301E0,6.7406397E0,7.558298E0,2.1762466E1,9.013768E0,1.1897682E0,1.7039707E0,2.1399314E0,4.7936893E0,1.0465198E1,5.150017E0,8.335636E0,1.8454046E0,8.585834E0,1.4379781E0,3.145612E1,1.436369E0,1.1901895E0,1.9477276E0,3.9557507E0,2.6247287E0,9.856493E0,3.7452385E1,3.7856843E0,1.4667971E0,6.2951174E0,1.4394091E0,1.600053E1,3.7799253E0,2.170023E0,1.2189341E1,2.8957243E0,4.7067013E0,1.4230152E1,5.0037875E0,5.931105E0,2.5484102E0,4.357696E0,2.3829439E0,1.2397314E1,9.365152E0,4.0077324E0,5.0060363E0,3.6025462E0,1.1911427E0,1.2188463E0,9.246351E0,2.7631767E0,2.3868403E0,3.7729745E0,4.562661E0,2.6002907E1,5.453213E0,1.4066415E0,1.2180872E0,8.171919E0,1.6845735E0,3.9961774E0,3.3456207E1,2.5852134E0,1.200471E0,4.639286E0,1.6558313E0,1.4404173E0,2.339508E0,1.0993662E1,1.1956787E0],"tree_param":{"num_deleted":"0","num_feature":"19","num_nodes":"221","size_leaf_vector":"1"}},{"base_weights":[2.8538616E-2,-1.2348251E0,1.794602E0,-1.4695675E0,1.7718784E0,2.1825558E-1,2.1081302E0,-1.6290739E0,-8.2466197E-1,2.910554E-1,2.0773516E0,-1.5380955E-2,3.4202278E-1,1.6678913E0,2.2271754E-2,-1.6496922E0,-9.0349156E-1,-9.6959513E-1,8.171739E-1,1.0982623E0,-9.314721E-1,9.9724877E-1,2.2140214E-2,-2.1258819E-1,6.150822E-1,1.4251856E0,1.7716349E0,-1.680219E-2,-1.4990798E0,3.267301E-1,-1.2791544E0,-1.1437502E0,-3.661385E-1,1.0715448E0,1.7911342E-1,-2.2569173E-3,1.3474097E0,-1.405086E-2,7.280694E-3,1.5612948E-2,-2.9532737E-1,-3.2295895E-1,9.8925817E-1,6.7817676E-1,-1.1918877E-2,1.7561142E0,1.0191616E0,1.8278068E-2,9.8821646E-1,-1.5196289E-2,-7.745337E-2,9.751107E-3,-6.4257675E-1,-1.4698814E0,-6.9227475E-1,-1.2571734E0,-8.7027615E-1,5.227516E-1,-7.418318E-1,1.4127358E-2,1.5921973E-1,-1.10797165E-2,9.601105E-1,6.2478566E-1,1.56366E-2,-8.962092E-3,2.7823066E-3,-4.9559917E-2,-6.180847E-1,2.8954372E-3,1.3122969E-2,5.318652E-1,1.2851998E0,4.9184854E-3,1.8014712E-2,4.5318753E-1,1.2477754E0,1.8125227E-2,-1.1655141E-2,7.5004795E-3,-8.971677E-3,-9.089761E-3,-3.3632765E-4,-1.582184E-2,-4.4460795E-4,7.54301E-3,-1.110363E0,-9.979594E-1,-1.4612141E0,-2.898554E-1,-1.2330843E0,-6.6389656E-1,1.0780545E0,-1.0144929E0,1.5709895E-1,1.0089291E-2,-5.6577385E-3,1.1967661E-2,2.854819E-3,1.2903146E-2,-2.3972795E-3,-4.2168033E-1,3.6093986E-1,-8.5814816E-1,5.179858E-2,3.7053835E-1,8.5532224E-1,1.5605344E0,3.4462206E-2,1.0690244E-2,-4.6235105E-1,1.3479828E0,-4.7123345E-4,-2.1604446E-3,-1.3196366E-2,-1.0659485E0,4.62638E-2,-1.4867476E-2,-2.0260476E-3,6.8892264E-1,-6.5747845E-1,-1.4347965E0,-7.89615E-1,-1.180814E-2,1.4387686E-3,1.7337948E0,-3.573252E-1,-1.1549716E0,-5.037487E-1,1.1021832E-2,-9.199453E-1,-5.272091E-3,-9.091333E-4,1.0791311E-2,-6.722953E-1,-9.056791E-3,-1.9500729E-3,7.190635E-3,-1.0455082E-2,4.2544737E-1,-5.712799E-3,1.6503964E-2,5.1672065E-1,1.7739542E-2,1.2730131E-3,-1.0612152E-2,1.3062964E-2,1.1240857E-3,-9.925073E-3,1.5937861E-2,6.4839715E-1,-8.78119E-1,-1.3766601E-2,1.0201584E-2,-9.749216E-3,1.0286875E0,1.0941794E-5,-8.883031E-1,4.381657E-1,-5.4271296E-3,-1.5071103E-2,5.272751E-3,-1.0217474E0,1.9316617E-2,4.7830166E-3,-1.0957907E-2,7.6615564E-3,-7.243963E-1,-1.5262938E-2,-8.036028E-2,-8.2500386E-1,-1.1904563E-2,-2.98842E-4,-1.7886227E-3,-1.0477623E-2,4.945935E-1,-2.5896E-1,6.765867E-1,-8.998588E-3,-9.153128E-3,1.23791015E-2,-9.57653E-3,5.1924298E-3,3.214106E-3,1.3410518E-2,-5.419327E-3,-1.15676075E-2,-2.993176E-4,7.552041E-3,-1.117775E-2,-1.9624801E-3,-1.2223018E-2,1.8965384E-3,-6.250591E-3,7.670516E-3,-1.1006999E-2,-3.1914594E-4,2.7793732E-3,6.8657524E-3,-7.7615213E-3,7.43354E-3,1.6066125E-2,4.1529266E-3],"categories":[],"categories_nodes":[],"categories_segments":[],"categories_sizes":[],"default_left":[0,0,0,0,0,0,0,0,0,0,0,0,0,0,0,0,0,0,0,0,0,0,0,0,0,0,0,0,0,0,0,0,0,0,0,0,0,0,0,0,0,0,0,0,0,0,0,0,0,0,0,0,0,0,0,0,0,0,0,0,0,0,0,0,0,0,0,0,0,0,0,0,0,0,0,0,0,0,0,0,0,0,0,0,0,0,0,0,0,0,0,0,0,0,0,0,0,0,0,0,0,0,0,0,0,0,0,0,0,0,0,0,0,0,0,0,0,0,0,0,0,0,0,0,0,0,0,0,0,0,0,0,0,0,0,0,0,0,0,0,0,0,0,0,0,0,0,0,0,0,0,0,0,0,0,0,0,0,0,0,0,0,0,0,0,0,0,0,0,0,0,0,0,0,0,0,0,0,0,0,0,0,0,0,0,0,0,0,0,0,0,0,0,0,0,0,0,0,0,0,0,0,0],"id":3,"left_children":[1,3,5,7,9,11,13,15,17,19,21,-1,23,25,-1,27,29,31,33,35,37,39,-1,41,43,45,47,-1,49,51,53,55,57,59,61,-1,63,-1,-1,-1,65,67,69,71,-1,73,75,-1,77,-1,79,-1,81,83,85,87,89,91,93,-1,95,-1,97,99,-1,-1,-1,101,103,-1,-1,105,107,-1,-1,109,111,-1,-1,-1,-1,-1,-1,-1,-1,-1,113,115,117,119,121,123,125,127,129,-1,-1,-1,-1,-1,-1,131,133,135,137,139,141,143,145,-1,147,149,-1,-1,-1,151,153,-1,-1,155,157,159,161,-1,-1,163,165,167,169,-1,171,-1,-1,-1,173,-1,-1,-1,-1,175,-1,-1,177,-1,-1,-1,-1,-1,-1,-1,179,181,-1,-1,-1,183,-1,185,187,-1,-1,-1,189,-1,-1,-1,-1,191,-1,193,195,-1,-1,-1,-1,197,199,201,-1,-1,-1,-1,-1,-1,-1,-1,-1,-1,-1,-1,-1,-1,-1,-1,-1,-1,-1,-1,-1,-1,-1,-1,-1],"loss_changes":[4.6856987E3,8.6665686E2,4.3216357E2,1.15285645E2,3.9455048E1,3.224508E1,3.4172363E1,1.1864258E1,5.4928696E1,1.727585E1,8.339935E0,0E0,2.1023878E1,1.17453E0,0E0,1.2241211E0,1.32138195E1,2.1448242E1,2.7563143E0,3.852703E0,6.620047E0,8.003769E0,0E0,6.3613257E0,1.1319477E1,5.080925E0,2.6392212E0,0E0,4.358124E0,5.1616635E0,1.1525116E0,3.7176666E0,1.6613174E1,3.7346773E0,7.7939143E0,0E0,2.0669174E-1,0E0,0E0,0E0,1.6474361E0,3.3726954E0,3.7374735E-1,7.146759E0,0E0,4.7829437E-1,2.6813622E0,0E0,1.9012524E1,0E0,2.983066E0,0E0,4.286642E-1,2.179512E0,5.2565913E0,4.218994E0,1.0229004E1,1.0590285E1,8.725246E0,0E0,3.5761793E0,0E0,2.7009153E-1,2.6232786E0,0E0,0E0,0E0,3.7615032E0,3.4086838E0,0E0,0E0,3.4495735E0,5.531473E0,0E0,0E0,5.795195E0,2.5440426E0,0E0,0E0,0E0,0E0,0E0,0E0,0E0,0E0,0E0,6.994114E-1,3.8924751E0,1.4674683E0,8.016311E0,1.4147186E0,2.4943316E0,1.073803E1,1.1727161E0,1.0022739E1,0E0,0E0,0E0,0E0,0E0,0E0,3.4268284E-1,9.393941E0,1.9237041E-1,5.273412E0,2.901978E0,5.3461685E0,3.7391243E0,7.121216E0,0E0,1.53129E0,1.6516571E0,0E0,0E0,0E0,1.4607048E0,5.0664907E0,0E0,0E0,1.3344827E0,4.448495E0,2.61261E-1,4.275006E0,0E0,0E0,6.9761276E-1,4.2795033E0,1.8772964E0,8.9060533E-1,0E0,9.556339E-1,0E0,0E0,0E0,6.768036E-1,0E0,0E0,0E0,0E0,2.495286E0,0E0,0E0,4.7211246E0,0E0,0E0,0E0,0E0,0E0,0E0,0E0,6.8718414E0,4.3062897E0,0E0,0E0,0E0,2.9129553E-1,0E0,4.6007824E-1,5.932353E-1,0E0,0E0,0E0,4.9411392E-1,0E0,0E0,0E0,0E0,5.486552E0,0E0,2.5721684E0,7.56027E-1,0E0,0E0,0E0,0E0,1.6033936E0,3.2073774E0,3.2715287E0,0E0,0E0,0E0,0E0,0E0,0E0,0E0,0E0,0E0,0E0,0E0,0E0,0E0,0E0,0E0,0E0,0E0,0E0,0E0,0E0,0E0,0E0,0E0,0E0,0E0],"parents":[2147483647,0,0,1,1,2,2,3,3,4,4,5,5,6,6,7,7,8,8,9,9,10,10,12,12,13,13,15,15,16,16,17,17,18,18,19,19,20,20,21,21,23,23,24,24,25,25,26,26,28,28,29,29,30,30,31,31,32,32,33,33,34,34,36,36,40,40,41,41,42,42,43,43,45,45,46,46,48,48,50,50,52,52,53,53,54,54,55,55,56,56,57,57,58,58,60,60,62,62,63,63,67,67,68,68,71,71,72,72,75,75,76,76,86,86,87,87,88,88,89,89,90,90,91,91,92,92,93,93,94,94,101,101,102,102,103,103,104,104,105,105,106,106,107,107,108,108,110,110,111,111,115,115,116,116,119,119,120,120,121,121,122,122,125,125,126,126,127,127,128,128,130,130,134,134,139,139,142,142,150,150,151,151,155,155,157,157,158,158,162,162,167,167,169,169,170,170,175,175,176,176,177,177],"right_children":[2,4,6,8,10,12,14,16,18,20,22,-1,24,26,-1,28,30,32,34,36,38,40,-1,42,44,46,48,-1,50,52,54,56,58,60,62,-1,64,-1,-1,-1,66,68,70,72,-1,74,76,-1,78,-1,80,-1,82,84,86,88,90,92,94,-1,96,-1,98,100,-1,-1,-1,102,104,-1,-1,106,108,-1,-1,110,112,-1,-1,-1,-1,-1,-1,-1,-1,-1,114,116,118,120,122,124,126,128,130,-1,-1,-1,-1,-1,-1,132,134,136,138,140,142,144,146,-1,148,150,-1,-1,-1,152,154,-1,-1,156,158,160,162,-1,-1,164,166,168,170,-1,172,-1,-1,-1,174,-1,-1,-1,-1,176,-1,-1,178,-1,-1,-1,-1,-1,-1,-1,180,182,-1,-1,-1,184,-1,186,188,-1,-1,-1,190,-1,-1,-1,-1,192,-1,194,196,-1,-1,-1,-1,198,200,202,-1,-1,-1,-1,-1,-1,-1,-1,-1,-1,-1,-1,-1,-1,-1,-1,-1,-1,-1,-1,-1,-1,-1,-1,-1],"split_conditions":[1E0,6.7E1,2.2E1,1E0,1E0,1E0,1.62E2,3.7E1,1.04E2,3E0,3.6E1,-1.5380955E-2,5E0,3.9E1,2.2271754E-2,8E0,4E0,1E0,4.6E1,6E0,1.05E2,1.4E1,2.2140214E-2,3E0,5E0,1E0,3E0,-1.680219E-2,2E0,4.3E1,5.1E1,4E0,1E0,2.4E1,5.3E1,-2.2569173E-3,1.5E1,-1.405086E-2,7.280694E-3,1.5612948E-2,2.69E2,1E0,4E0,1E0,-1.1918877E-2,2.3E1,3E0,1.8278068E-2,1E0,-1.5196289E-2,2E0,9.751107E-3,7E0,1.6E1,1.24E2,1E0,2E0,4E0,2.3E1,1.4127358E-2,2E1,-1.10797165E-2,7E0,1.91E2,1.56366E-2,-8.962092E-3,2.7823066E-3,1E0,4E0,2.8954372E-3,1.3122969E-2,1.5E1,2E0,4.9184854E-3,1.8014712E-2,1.4E1,2E0,1.8125227E-2,-1.1655141E-2,7.5004795E-3,-8.971677E-3,-9.089761E-3,-3.3632765E-4,-1.582184E-2,-4.4460795E-4,7.54301E-3,2.7E1,1.4E1,2E0,5E0,1.2E1,4E0,4E0,2E0,8E0,1.0089291E-2,-5.6577385E-3,1.1967661E-2,2.854819E-3,1.2903146E-2,-2.3972795E-3,2E0,3E0,1E0,1E0,8E0,1E0,6E0,6E0,1.0690244E-2,3.4E1,5E0,-4.7123345E-4,-2.1604446E-3,-1.3196366E-2,4E0,1E0,-1.4867476E-2,-2.0260476E-3,9E0,4E0,1E1,1.4E1,-1.180814E-2,1.4387686E-3,2.8E1,1.2E1,5E0,3.4E1,1.1021832E-2,1.1E1,-5.272091E-3,-9.091333E-4,1.0791311E-2,4E0,-9.056791E-3,-1.9500729E-3,7.190635E-3,-1.0455082E-2,4E0,-5.712799E-3,1.6503964E-2,5E0,1.7739542E-2,1.2730131E-3,-1.0612152E-2,1.3062964E-2,1.1240857E-3,-9.925073E-3,1.5937861E-2,2E0,3E0,-1.3766601E-2,1.0201584E-2,-9.749216E-3,8E0,1.0941794E-5,1.4E1,1.8E1,-5.4271296E-3,-1.5071103E-2,5.272751E-3,7E0,1.9316617E-2,4.7830166E-3,-1.0957907E-2,7.6615564E-3,2.2E1,-1.5262938E-2,3.1E1,6.3E1,-1.1904563E-2,-2.98842E-4,-1.7886227E-3,-1.0477623E-2,9E0,5E0,2E0,-8.998588E-3,-9.153128E-3,1.23791015E-2,-9.57653E-3,5.1924298E-3,3.214106E-3,1.3410518E-2,-5.419327E-3,-1.15676075E-2,-2.993176E-4,7.552041E-3,-1.117775E-2,-1.9624801E-3,-1.2223018E-2,1.8965384E-3,-6.250591E-3,7.670516E-3,-1.1006999E-2,-3.1914594E-4,2.7793732E-3,6.8657524E-3,-7.7615213E-3,7.43354E-3,1.6066125E-2,4.1529266E-3],"split_indices":[9,12,11,8,8,8,11,12,11,2,16,0,11,11,0,12,17,2,12,17,12,17,0,0,16,17,2,0,10,12,12,12,16,16,12,0,0,0,0,0,11,12,0,10,0,11,0,0,12,0,17,0,0,17,11,12,0,11,12,0,0,0,17,11,0,0,0,11,11,0,0,11,17,0,0,12,9,0,0,0,0,0,0,0,0,0,0,11,10,12,12,0,12,17,0,0,0,0,0,0,0,0,11,16,16,12,16,12,12,0,11,0,0,0,0,11,16,0,0,11,16,11,12,0,0,11,11,0,11,0,0,0,0,0,11,0,0,0,0,0,0,0,0,0,0,0,0,0,0,0,17,0,0,0,0,11,0,11,12,0,0,0,0,0,0,0,0,11,0,11,11,0,0,0,0,11,0,12,0,0,0,0,0,0,0,0,0,0,0,0,0,0,0,0,0,0,0,0,0,0,0,0,0],"split_type":[0,0,0,0,0,0,0,0,0,0,0,0,0,0,0,0,0,0,0,0,0,0,0,0,0,0,0,0,0,0,0,0,0,0,0,0,0,0,0,0,0,0,0,0,0,0,0,0,0,0,0,0,0,0,0,0,0,0,0,0,0,0,0,0,0,0,0,0,0,0,0,0,0,0,0,0,0,0,0,0,0,0,0,0,0,0,0,0,0,0,0,0,0,0,0,0,0,0,0,0,0,0,0,0,0,0,0,0,0,0,0,0,0,0,0,0,0,0,0,0,0,0,0,0,0,0,0,0,0,0,0,0,0,0,0,0,0,0,0,0,0,0,0,0,0,0,0,0,0,0,0,0,0,0,0,0,0,0,0,0,0,0,0,0,0,0,0,0,0,0,0,0,0,0,0,0,0,0,0,0,0,0,0,0,0,0,0,0,0,0,0,0,0,0,0,0,0,0,0,0,0,0,0],"sum_hessian":[2.09808E3,1.2232589E3,8.748212E2,1.1351768E3,8.8082214E1,1.4546619E2,7.2935504E2,9.0873553E2,2.2644121E2,1.5452808E1,7.26294E1,8.770519E0,1.3669566E2,1.5861925E2,5.707358E2,8.8225385E2,2.648173E1,2.085057E2,1.7935505E1,9.417857E0,6.034951E0,9.171937E0,6.3457466E1,4.504995E1,9.164572E1,5.220003E1,1.0641921E2,7.2457404E2,1.5767978E2,6.163043E0,2.0318687E1,1.6098505E2,4.7520653E1,1.2225536E1,5.709968E0,1.4429394E0,7.9749174E0,4.861206E0,1.1737453E0,6.2946076E0,2.8773296E0,4.2006775E1,3.0431776E0,8.921075E1,2.434972E0,2.679192E1,2.5408113E1,9.793632E1,8.482896E0,1.5529576E2,2.3840265E0,3.7510808E0,2.4119623E0,1.4070895E1,6.2477913E0,1.10989494E2,4.9995556E1,1.3922475E1,3.3598175E1,8.41892E0,3.806616E0,1.9498712E0,3.760097E0,2.8391607E0,5.135757E0,1.2156129E0,1.6617166E0,2.2588226E1,1.9418547E1,1.6579239E0,1.3852535E0,7.35289E1,1.5681848E1,1.4144593E0,2.537746E1,8.294171E0,1.7113941E1,6.2830253E0,2.1998706E0,1.1679631E0,1.2160633E0,1.2209126E0,1.1910498E0,1.2876297E1,1.1945986E0,1.1669209E0,5.0808706E0,5.169591E1,5.9293583E1,2.0028496E1,2.996706E1,4.318489E0,9.603986E0,2.576569E1,7.832486E0,1.6357602E0,2.1708558E0,2.1009157E0,1.6591814E0,1.3912632E0,1.4478974E0,1.1961462E1,1.0626765E1,1.4198519E1,5.2200284E0,5.069772E1,2.283118E1,1.2583991E1,3.097857E0,4.9237747E0,3.3703969E0,1.5918314E1,1.195628E0,1.4394901E0,3.6413805E0,4.8606136E1,3.089775E0,5.7859077E1,1.4345078E0,5.1556983E0,1.4872798E1,1.8906534E1,1.1060526E1,2.427223E0,1.8912662E0,6.497452E0,3.106534E0,1.9064821E1,6.7008686E0,4.20883E0,3.6236563E0,8.388839E0,3.5726235E0,6.300037E0,4.3267283E0,1.2766906E1,1.431613E0,3.5171232E0,1.7029052E0,4.8523212E1,2.1745076E0,5.573798E0,1.7257381E1,1.0685355E1,1.8986354E0,1.7109017E0,1.3869551E0,1.9047465E0,1.4656504E0,1.0727884E1,5.1904287E0,3.287857E1,1.5727564E1,1.6321452E0,1.4576298E0,3.0219903E0,2.133708E0,1.2516417E1,2.356382E0,2.1591036E0,1.674743E1,1.4024092E0,9.658116E0,5.078808E0,1.418644E0,1.9430321E0,1.163502E0,1.0319164E1,8.745657E0,3.5645294E0,3.136339E0,2.4340413E0,1.189615E0,2.6227102E0,1.7040179E0,4.4455315E1,4.067898E0,1.6040165E1,1.2172172E0,1.2232945E0,3.9671345E0,3.1473423E1,1.4051485E0,1.6454188E0,1.3765715E0,6.9458737E0,5.5705423E0,1.18982E0,1.1665618E0,8.226012E0,1.4321043E0,6.53277E0,3.7863946E0,2.4013734E0,1.1631562E0,1.9459345E0,1.1904043E0,2.2280182E1,2.217513E1,2.8979633E0,1.1699345E0,2.3049066E0,1.3735258E1],"tree_param":{"num_deleted":"0","num_feature":"19","num_nodes":"203","size_leaf_vector":"1"}},{"base_weights":[6.1665126E-3,-1.6064554E0,1.2955449E0,-1.6218928E0,1.2892021E0,4.8335854E-2,2.0866468E0,-1.6668363E-2,-1.1199816E0,2.7233276E-3,1.6369684E-2,-1.8580402E-1,7.0077425E-1,1.4298515E0,2.1849152E-2,-1.2364119E0,8.3779293E-1,-5.420705E-1,4.2616102E-1,1.4866223E0,3.6828357E-1,1.6427836E0,2.3186604E-2,-9.294291E-1,-1.641063E-2,1.3477541E-2,-2.1001168E-3,-6.44922E-1,2.7493063E-1,8.836407E-1,-2.1413341E-1,6.1833758E-2,1.9211739E0,8.1378573E-1,-1.1599933E-1,1.3963827E0,1.8618127E-2,-8.562548E-1,1.2470988E-2,-1.2481245E0,-1.1168222E-1,-6.6264033E-1,5.857449E-3,-5.5530746E-2,1.27344765E-2,4.6123615E-1,1.0385041E0,-7.106222E-1,5.158786E-1,-2.7412423E-3,2.6907477E-1,4.8338207E-3,1.9782454E-2,9.078546E-2,1.1868215E0,-5.5046594E-1,5.2353144E-1,1.7883226E-2,1.0882602E0,-1.4481428E-2,7.599054E-3,-1.4711668E-2,-9.783144E-1,4.8089287E-1,-1.3265517E-2,-6.333684E-1,-1.2392796E0,-4.4184658E-1,4.837884E-1,5.536378E-3,1.1506365E-3,6.8861246E-1,1.2430749E-2,-1.1986359E-2,3.3619758E-1,9.3401635E-1,-7.6107687E-1,5.128899E-3,-7.4161787E-4,2.647342E-1,-3.0619982E-1,1.3038045E0,-6.968778E-4,-7.619745E-1,1.0696583E-1,-3.5659897E-3,6.47512E-1,-1.2818415E-3,1.285604E0,-5.3821176E-1,-1.4657282E-2,-8.3510846E-1,1.2200732E-2,-6.6706544E-1,4.428962E-1,-3.4018036E-3,-1.4143882E-2,-2.970731E-3,-8.868707E-3,6.7493486E-1,-2.142718E-3,5.5214155E-1,1.1535977E-2,1.0897301E-2,-3.035799E-1,-5.0543904E-1,1.3732015E0,-1.2482014E-2,1.2454842E-3,3.2292792E-1,4.6821637E-4,5.3292266E-3,-7.7057E-3,1.018343E0,1.956933E-2,-9.090752E-3,-1.5399835E-2,-6.5895203E-3,6.8264365E-1,1.2287422E-2,3.3567885E-1,5.4695314E-1,1.4742267E0,-7.3157656E-1,3.1484899E-3,-2.0380712E-3,-1.0574479E-2,-6.342083E-1,-9.305237E-1,1.31731E-2,-8.827626E-4,2.6805594E-3,9.983899E-3,6.57428E-3,-8.8994193E-4,6.875385E-2,-9.8478785E-3,-1.1362268E-2,4.9390197E-3,1.595906E-2,7.13596E-1,1.1708599E-2,1.0415027E-2,1.1405362E0,1.5223761E-1,7.464473E-3,-5.6336354E-3,1.4534216E-2,-3.542843E-3,5.7338655E-1,-8.92782E-3,9.635058E-1,-3.5785784E-3,1.6199905E0,6.6826403E-1,-1.837005E-3,-1.0553339E-2,-6.645547E-3,3.5626113E-3,-2.729894E-3,-1.2146193E-2,-2.9268917E-3,7.2752354E-3,9.830674E-3,1.2217333E-3,-3.339785E-3,1.8803937E-3,6.173499E-3,1.2596473E-2,-2.1519118E-3,5.023689E-3,-3.231467E-3,1.270982E-2,1.2014864E-2,2.8609165E-3,5.676193E-3,1.7488182E-2,-3.6104198E-3,1.43634975E-2],"categories":[],"categories_nodes":[],"categories_segments":[],"categories_sizes":[],"default_left":[0,0,0,0,0,0,0,0,0,0,0,0,0,0,0,0,0,0,0,0,0,0,0,0,0,0,0,0,0,0,0,0,0,0,0,0,0,0,0,0,0,0,0,0,0,0,0,0,0,0,0,0,0,0,0,0,0,0,0,0,0,0,0,0,0,0,0,0,0,0,0,0,0,0,0,0,0,0,0,0,0,0,0,0,0,0,0,0,0,0,0,0,0,0,0,0,0,0,0,0,0,0,0,0,0,0,0,0,0,0,0,0,0,0,0,0,0,0,0,0,0,0,0,0,0,0,0,0,0,0,0,0,0,0,0,0,0,0,0,0,0,0,0,0,0,0,0,0,0,0,0,0,0,0,0,0,0,0,0,0,0,0,0,0,0,0,0,0,0,0,0,0,0,0,0,0,0,0,0],"id":4,"left_children":[1,3,5,7,9,11,13,-1,15,-1,-1,17,19,21,-1,23,25,27,29,31,33,35,37,39,-1,-1,-1,41,43,45,47,49,51,53,55,57,-1,59,-1,61,63,65,-1,67,-1,69,71,73,75,-1,77,-1,-1,79,81,83,85,-1,87,-1,-1,-1,89,91,-1,93,95,97,99,-1,-1,101,-1,-1,103,105,107,-1,-1,109,111,113,-1,115,117,-1,119,-1,121,123,-1,125,-1,127,129,-1,-1,-1,-1,131,-1,133,-1,-1,135,137,139,-1,-1,141,-1,-1,-1,143,-1,-1,145,-1,147,-1,149,151,153,155,-1,-1,-1,157,159,-1,-1,-1,-1,-1,-1,161,-1,-1,-1,-1,163,165,-1,167,169,-1,-1,-1,-1,171,-1,173,-1,175,177,-1,-1,-1,-1,-1,-1,-1,-1,-1,-1,-1,-1,-1,-1,-1,-1,-1,-1,-1,-1,-1,-1,-1,-1],"loss_changes":[4.35097E3,4.3683105E1,1.147033E3,1.8726318E1,1.2916222E0,6.929016E1,4.2433105E1,0E0,1.9145508E1,0E0,0E0,7.297425E1,3.0568356E1,2.8435516E1,0E0,7.568466E0,3.0672684E0,1.797747E1,3.6345726E1,2.1475388E1,1.863207E1,1.5523071E0,1.5796331E1,1.1517265E1,0E0,0E0,0E0,4.4987717E0,8.187283E0,4.0905724E0,1.9254023E1,7.2168E-1,1.0036392E0,1.1851847E1,1.1900216E1,2.9906387E0,0E0,9.287389E0,0E0,2.6402283E-1,1.0711683E1,2.1680756E0,0E0,4.1862965E0,0E0,5.5161905E-1,2.6600227E0,1.6574673E1,1.2245783E1,0E0,6.215837E-1,0E0,0E0,1.211318E0,4.5342216E0,3.6873403E0,2.1501112E0,0E0,6.7423477E0,0E0,0E0,0E0,2.8373928E0,1.0790051E1,0E0,6.8192215E0,5.67873E-1,3.7527466E-1,1.3028811E0,0E0,0E0,5.594444E-1,0E0,0E0,5.581004E0,1.1374954E1,2.7756226E0,0E0,0E0,1.01777196E-1,2.49713E0,2.7454414E0,0E0,2.0352173E0,3.5206332E0,0E0,2.2653594E0,0E0,2.2408867E0,2.0967891E0,0E0,2.3995829E-1,0E0,7.6229095E-1,3.0042026E0,0E0,0E0,0E0,0E0,5.1341987E-1,0E0,1.3802271E0,0E0,0E0,1.8109722E0,3.5221953E0,5.6375504E-1,0E0,0E0,1.9052045E0,0E0,0E0,0E0,1.918148E0,0E0,0E0,2.2136252E0,0E0,4.2523403E0,0E0,3.8863845E0,2.833262E0,7.8915024E-1,1.3522091E0,0E0,0E0,0E0,5.030445E0,2.6674309E0,0E0,0E0,0E0,0E0,0E0,0E0,1.4589493E0,0E0,0E0,0E0,0E0,6.051917E-1,5.004817E-1,0E0,1.6488075E-1,6.3212E-1,0E0,0E0,0E0,0E0,7.041788E0,0E0,2.744732E-1,0E0,7.1907043E-1,4.2199183E0,0E0,0E0,0E0,0E0,0E0,0E0,0E0,0E0,0E0,0E0,0E0,0E0,0E0,0E0,0E0,0E0,0E0,0E0,0E0,0E0,0E0,0E0,0E0,0E0],"parents":[2147483647,0,0,1,1,2,2,3,3,4,4,5,5,6,6,8,8,11,11,12,12,13,13,15,15,16,16,17,17,18,18,19,19,20,20,21,21,22,22,23,23,27,27,28,28,29,29,30,30,31,31,32,32,33,33,34,34,35,35,37,37,39,39,40,40,41,41,43,43,45,45,46,46,47,47,48,48,50,50,53,53,54,54,55,55,56,56,58,58,62,62,63,63,65,65,66,66,67,67,68,68,71,71,74,74,75,75,76,76,79,79,80,80,81,81,83,83,84,84,86,86,88,88,89,89,91,91,93,93,94,94,99,99,101,101,104,104,105,105,106,106,109,109,113,113,116,116,118,118,120,120,121,121,122,122,123,123,127,127,128,128,135,135,140,140,141,141,143,143,144,144,149,149,151,151,153,153,154,154],"right_children":[2,4,6,8,10,12,14,-1,16,-1,-1,18,20,22,-1,24,26,28,30,32,34,36,38,40,-1,-1,-1,42,44,46,48,50,52,54,56,58,-1,60,-1,62,64,66,-1,68,-1,70,72,74,76,-1,78,-1,-1,80,82,84,86,-1,88,-1,-1,-1,90,92,-1,94,96,98,100,-1,-1,102,-1,-1,104,106,108,-1,-1,110,112,114,-1,116,118,-1,120,-1,122,124,-1,126,-1,128,130,-1,-1,-1,-1,132,-1,134,-1,-1,136,138,140,-1,-1,142,-1,-1,-1,144,-1,-1,146,-1,148,-1,150,152,154,156,-1,-1,-1,158,160,-1,-1,-1,-1,-1,-1,162,-1,-1,-1,-1,164,166,-1,168,170,-1,-1,-1,-1,172,-1,174,-1,176,178,-1,-1,-1,-1,-1,-1,-1,-1,-1,-1,-1,-1,-1,-1,-1,-1,-1,-1,-1,-1,-1,-1,-1,-1],"split_conditions":[1E0,7.1E1,1.6E1,1.4E1,7.9E1,1E0,3.9E1,-1.6668363E-2,2E0,2.7233276E-3,1.6369684E-2,3E0,1E0,3E0,2.1849152E-2,3E0,7E0,1E0,2E0,7E0,2E0,2E0,2E0,2.8E1,-1.641063E-2,1.3477541E-2,-2.1001168E-3,5E0,3E0,4E0,2E0,3E0,3E0,4E0,2E0,2E0,1.8618127E-2,8E0,1.2470988E-2,7E0,2.6E1,4E0,5.857449E-3,2E0,1.27344765E-2,2E0,2E0,1E1,4E0,-2.7412423E-3,2E0,4.8338207E-3,1.9782454E-2,4E0,2E0,1E0,5E0,1.7883226E-2,6E0,-1.4481428E-2,7.599054E-3,-1.4711668E-2,1.5E1,1E0,-1.3265517E-2,2E0,2E0,2E0,2E0,5.536378E-3,1.1506365E-3,1E1,1.2430749E-2,-1.1986359E-2,3E0,4E0,1.2E1,5.128899E-3,-7.4161787E-4,3E0,2E0,1.1E1,-6.968778E-4,1.2E1,5E0,-3.5659897E-3,6E0,-1.2818415E-3,2.1E1,1.1E1,-1.4657282E-2,3.2E1,1.2200732E-2,2E0,1E0,-3.4018036E-3,-1.4143882E-2,-2.970731E-3,-8.868707E-3,2E0,-2.142718E-3,7E0,1.1535977E-2,1.0897301E-2,4E0,1E0,5E0,-1.2482014E-2,1.2454842E-3,3E0,4.6821637E-4,5.3292266E-3,-7.7057E-3,9E0,1.956933E-2,-9.090752E-3,1.3E1,-6.5895203E-3,5E0,1.2287422E-2,1.1E1,1.9E1,1.5E1,8E0,3.1484899E-3,-2.0380712E-3,-1.0574479E-2,3E0,1E0,1.31731E-2,-8.827626E-4,2.6805594E-3,9.983899E-3,6.57428E-3,-8.8994193E-4,1.5E1,-9.8478785E-3,-1.1362268E-2,4.9390197E-3,1.595906E-2,3E0,2E0,1.0415027E-2,5E0,3E0,7.464473E-3,-5.6336354E-3,1.4534216E-2,-3.542843E-3,9E0,-8.92782E-3,4E0,-3.5785784E-3,2.3E1,6E0,-1.837005E-3,-1.0553339E-2,-6.645547E-3,3.5626113E-3,-2.729894E-3,-1.2146193E-2,-2.9268917E-3,7.2752354E-3,9.830674E-3,1.2217333E-3,-3.339785E-3,1.8803937E-3,6.173499E-3,1.2596473E-2,-2.1519118E-3,5.023689E-3,-3.231467E-3,1.270982E-2,1.2014864E-2,2.8609165E-3,5.676193E-3,1.7488182E-2,-3.6104198E-3,1.43634975E-2],"split_indices":[8,13,13,13,13,2,13,0,10,0,0,13,13,2,0,2,0,10,1,0,1,8,10,13,0,0,0,0,0,13,8,0,1,13,8,1,0,1,0,0,0,0,0,13,0,0,0,13,1,0,1,0,0,0,2,10,0,0,0,0,0,0,0,1,0,8,1,1,1,0,0,13,0,0,1,13,13,0,0,0,13,13,0,13,13,0,13,0,13,0,0,13,0,1,13,0,0,0,0,0,0,13,0,0,1,10,0,0,0,13,0,0,0,13,0,0,13,0,0,0,0,13,0,0,0,0,0,0,13,0,0,0,0,0,0,13,0,0,0,0,1,13,0,13,0,0,0,0,0,13,0,1,0,13,1,0,0,0,0,0,0,0,0,0,0,0,0,0,0,0,0,0,0,0,0,0,0,0,0],"split_type":[0,0,0,0,0,0,0,0,0,0,0,0,0,0,0,0,0,0,0,0,0,0,0,0,0,0,0,0,0,0,0,0,0,0,0,0,0,0,0,0,0,0,0,0,0,0,0,0,0,0,0,0,0,0,0,0,0,0,0,0,0,0,0,0,0,0,0,0,0,0,0,0,0,0,0,0,0,0,0,0,0,0,0,0,0,0,0,0,0,0,0,0,0,0,0,0,0,0,0,0,0,0,0,0,0,0,0,0,0,0,0,0,0,0,0,0,0,0,0,0,0,0,0,0,0,0,0,0,0,0,0,0,0,0,0,0,0,0,0,0,0,0,0,0,0,0,0,0,0,0,0,0,0,0,0,0,0,0,0,0,0,0,0,0,0,0,0,0,0,0,0,0,0,0,0,0,0,0,0],"sum_hessian":[2.090551E3,9.287023E2,1.1618488E3,9.2424927E2,4.452981E0,4.513935E2,7.104553E2,8.459764E2,7.82729E1,1.6624922E0,2.7904892E0,3.3259677E2,1.1879671E2,9.461903E1,6.158363E2,7.4275246E1,3.9976635E0,2.103913E2,1.22205475E2,3.4197746E1,8.459896E1,8.197172E1,1.2647315E1,4.4249775E1,3.0025467E1,2.5606036E0,1.4370599E0,1.871626E2,2.3228703E1,7.114773E1,5.1057743E1,8.313203E0,2.5884544E1,4.3816933E1,4.0782032E1,4.2261147E1,3.9710567E1,7.4865494E0,5.1607656E0,3.1374002E1,1.2875774E1,1.8504132E2,2.1212842E0,1.8087006E1,5.141696E0,2.0327261E1,5.082047E1,3.0486856E1,2.0570885E1,2.8644261E0,5.4487767E0,1.4166656E0,2.446788E1,1.5427507E1,2.8389423E1,2.446042E1,1.632161E1,1.6343416E1,2.5917732E1,5.6010914E0,1.8854578E0,1.4535111E1,1.683889E1,9.005179E0,3.8705957E0,1.782639E2,6.777415E0,1.0751691E1,7.3353148E0,1.5343524E1,4.983737E0,2.0541641E1,3.0278828E1,2.0759535E1,9.727322E0,1.5757861E1,4.813024E0,3.067134E0,2.381643E0,1.1133939E1,4.2935696E0,2.6009813E1,2.379611E0,1.8501287E1,5.959133E0,1.6840214E0,1.46375885E1,3.595917E0,2.2321815E1,1.00625E1,6.7763906E0,3.143529E0,5.86165E0,1.7331078E2,4.9531174E0,1.6775832E0,5.0998316E0,9.540322E0,1.2113687E0,5.8969607E0,1.4383541E0,1.7738096E1,2.8035452E0,4.215407E0,5.511915E0,3.595347E0,1.2162514E1,2.9138303E0,1.8991938E0,8.0447645E0,3.089174E0,1.4002789E0,2.8932905E0,1.9986597E1,6.023216E0,1.5162208E1,3.33908E0,2.420451E0,3.5386822E0,3.972368E0,1.0665221E1,5.441735E0,1.6880081E1,8.414749E0,1.6477511E0,1.4351203E0,1.7084087E0,1.5745999E2,1.5850788E1,1.3836374E0,3.5694797E0,3.5585268E0,2.338434E0,1.5348196E1,2.3898997E0,4.0503516E0,1.4615632E0,2.1814795E0,1.4138677E0,7.918034E0,4.2444797E0,6.419777E0,1.6249875E0,1.7136591E1,2.8500066E0,1.1690323E0,2.1700478E0,1.8547621E0,1.68392E0,9.451083E0,1.2141378E0,3.7575173E0,1.6842175E0,1.3334386E1,3.5456948E0,3.822472E0,4.592277E0,1.5319632E2,4.2636786E0,5.480098E0,1.037069E1,2.876194E0,1.1741579E0,2.3448145E0,1.8996651E0,1.6749551E0,4.744822E0,4.4801974E0,1.2656393E1,1.4393451E0,1.4106613E0,4.3079844E0,5.1430984E0,2.098901E0,1.6586163E0,2.1285877E0,1.1205798E1,1.6860217E0,1.8596733E0],"tree_param":{"num_deleted":"0","num_feature":"19","num_nodes":"179","size_leaf_vector":"1"}},{"base_weights":[1.1420383E-2,-1.235093E0,1.7499387E0,-1.4702466E0,1.4732856E0,7.853347E-1,2.1278281E0,-1.6049986E0,-8.015346E-1,-4.9711563E-2,1.8967636E0,1.268602E-1,1.1411778E0,1.7942884E0,2.1814533E-2,-1.6324699E0,-8.241345E-1,-9.550745E-1,2.1877619E-2,5.859522E-1,-1.4462935E-2,8.609244E-1,2.1260759E-2,-2.6924548E-1,7.1258867E-1,-1.0566319E0,1.2133073E0,1.9136448E0,-2.178392E-1,-1.6362839E0,-7.4440527E-1,1.2961197E-1,-1.5092896E0,-1.0813682E0,-4.5001608E-1,-3.8697955E-1,4.0905362E-1,-5.895087E-1,1.2773795E0,1.6440291E0,-9.533263E-2,-1.2623077E-2,-1.7961226E-1,-6.249543E-1,8.3001214E-1,-1.296856E-2,-4.878058E-4,1.0616009E0,1.8228335E0,1.3410364E0,1.987152E-2,-1.2343147E-2,9.304319E-3,-1.6382327E-2,-5.338771E-3,1.440851E-3,-1.2371885E-2,-1.0733315E0,8.146532E-1,-1.5950583E-2,-1.9849597E-3,-9.215183E-1,-1.298653E0,7.088706E-1,-1.1819477E0,-1.0210497E-1,-1.2351293E-2,6.1322045E-1,-9.636747E-3,-2.8882328E-2,-1.1386681E-2,1.5106388E0,1.1877955E-3,1.7968964E-2,4.6386663E-3,9.5207995E-1,-1.2928564E-2,-2.360279E-1,7.936994E-3,-8.883744E-3,-2.7535637E-4,1.1853588E0,3.583382E-1,1.1164372E0,-2.0819448E-1,1.9002349E0,5.3464025E-3,7.5046504E-1,1.768822E-2,-1.3110008E-2,-3.5673942E-4,-1.633799E-1,1.4398503E0,-1.014279E0,-4.6544442E-1,-1.3791107E-2,-3.6543494E-1,1.3534429E-2,-1.0119743E-1,-0E0,-1.3185634E-2,2.6372615E-1,-8.777827E-1,9.200399E-1,-5.7073276E-2,-9.940104E-3,7.7243224E-3,5.713696E-3,1.7189106E-2,1.071569E-3,1.4429169E-2,-1.7282942E-1,-1.1116085E-2,1.3731395E-2,5.0792533E-1,-0E0,1.0767655E0,7.9637444E-1,1.391287E0,-1.2530285E-2,9.780951E-3,1.2892817E-2,2.110276E-2,1.2098719E-2,-1.1371711E-1,-5.336147E-3,3.0052357E-3,-4.2385934E-4,1.80862E-2,-7.8890735E-1,-1.24646695E-2,-7.5055376E-2,-1.3084911E-2,4.5511186E-1,-1.1442323E-2,-1.2935609E-2,1.3752491E-2,-1.0481274E-2,7.094541E-1,-3.5363305E-4,-1.1498554E-2,1.6833557E-1,1.310416E-2,6.3934606E-1,-1.058018E-2,6.2786737E-3,-3.2169378E-1,-3.5178217E-3,9.7683907E-1,5.626408E-1,-3.266287E-1,1.3437574E-2,2.7744162E-3,1.2022499E0,5.5614346E-1,5.50908E-1,1.5117791E0,-9.215225E-3,7.187254E-3,-6.374585E-1,-1.225311E0,6.8732137E-3,-4.1393572E-1,7.758326E-3,-2.3944219E-4,1.2477708E0,-1.9383319E-3,-9.817768E-3,9.952713E-3,-4.2525868E-4,1.0019715E-2,7.572127E-2,-1.7048359E-1,-7.5954175E-1,4.289344E-2,2.7211173E-3,1.3124364E-2,-4.266424E-4,8.039277E-3,-6.4198864E-3,1.4982788E-1,5.9279674E-3,1.6411327E-2,-3.616834E-1,7.7719367E-1,9.538139E-1,-9.86697E-3,1.2747599E0,1.8612556E-2,-4.567697E-3,-9.279084E-3,-1.4138151E-2,-1.8869141E-3,-7.146534E-3,7.7136275E-3,3.0959556E-3,1.5917096E-2,1.2084692E-3,-1.965406E-3,1.3234924E-3,-3.6661564E-3,-9.3867695E-3,3.4819448E-5,-3.6260678E-4,5.053884E-3,3.0029751E-3,-5.452744E-4,-6.307432E-3,5.0320537E-3,8.972005E-3,-9.830321E-3,-4.0204238E-4,1.1409193E-2,7.8684855E-3,1.4853569E-2],"categories":[],"categories_nodes":[],"categories_segments":[],"categories_sizes":[],"default_left":[0,0,0,0,0,0,0,0,0,0,0,0,0,0,0,0,0,0,0,0,0,0,0,0,0,0,0,0,0,0,0,0,0,0,0,0,0,0,0,0,0,0,0,0,0,0,0,0,0,0,0,0,0,0,0,0,0,0,0,0,0,0,0,0,0,0,0,0,0,0,0,0,0,0,0,0,0,0,0,0,0,0,0,0,0,0,0,0,0,0,0,0,0,0,0,0,0,0,0,0,0,0,0,0,0,0,0,0,0,0,0,0,0,0,0,0,0,0,0,0,0,0,0,0,0,0,0,0,0,0,0,0,0,0,0,0,0,0,0,0,0,0,0,0,0,0,0,0,0,0,0,0,0,0,0,0,0,0,0,0,0,0,0,0,0,0,0,0,0,0,0,0,0,0,0,0,0,0,0,0,0,0,0,0,0,0,0,0,0,0,0,0,0,0,0,0,0,0,0,0,0,0,0,0,0,0,0,0,0,0,0,0,0,0,0],"id":5,"left_children":[1,3,5,7,9,11,13,15,17,19,21,23,25,27,-1,29,31,33,35,37,-1,39,-1,41,43,45,47,49,51,53,55,57,59,61,63,65,67,69,71,73,75,-1,77,79,81,-1,-1,83,85,87,-1,-1,-1,-1,-1,-1,-1,89,91,-1,-1,93,95,97,99,101,-1,103,-1,105,-1,107,-1,-1,-1,109,-1,111,-1,-1,-1,113,115,117,119,121,-1,123,-1,-1,-1,125,127,129,131,-1,133,-1,135,-1,-1,137,139,141,143,-1,-1,-1,-1,-1,-1,145,-1,-1,147,149,151,153,155,-1,-1,-1,-1,-1,157,-1,-1,-1,-1,159,-1,161,-1,163,-1,-1,-1,-1,165,-1,-1,167,-1,169,-1,171,173,-1,175,177,179,-1,-1,181,183,185,187,-1,-1,189,191,-1,193,-1,-1,195,-1,-1,-1,-1,-1,197,199,201,203,-1,-1,-1,-1,-1,205,-1,-1,207,209,211,-1,213,-1,-1,-1,-1,-1,-1,-1,-1,-1,-1,-1,-1,-1,-1,-1,-1,-1,-1,-1,-1,-1,-1,-1,-1,-1,-1,-1],"loss_changes":[4.5355376E3,7.7846484E2,3.1662207E2,9.958179E1,6.3382263E1,5.776216E1,6.9084473E0,1.841748E1,2.4174065E1,2.0650187E1,1.6073303E1,2.0679373E1,2.6751114E1,2.2868896E1,0E0,1.592041E0,2.244866E1,9.599274E0,5.0336432E0,1.37648945E1,0E0,1.2030536E1,0E0,4.3635263E0,6.181408E0,1.1561713E0,1.2198807E1,6.951904E-1,8.236083E0,8.3154297E-1,2.8248432E0,1.3216224E1,1.7339554E0,3.0111084E0,2.9709227E1,3.451668E0,5.1587353E0,1.8603857E0,2.4672909E0,5.128155E-1,1.1215842E1,0E0,2.8794894E0,4.1916823E-1,5.039583E0,0E0,0E0,9.195099E0,1.6876678E0,1.7584229E0,0E0,0E0,0E0,0E0,0E0,0E0,0E0,1.2549047E0,6.590048E0,0E0,0E0,2.645546E0,3.1771698E0,7.429401E0,3.5477772E0,3.8902986E0,0E0,3.2177892E0,0E0,4.1516376E0,0E0,4.5102692E-1,0E0,0E0,0E0,1.6658015E0,0E0,2.3449552E0,0E0,0E0,0E0,1.4760666E0,4.008754E0,9.438065E0,8.741824E0,4.5763397E-1,0E0,3.1791487E0,0E0,0E0,0E0,1.0093061E0,3.7389412E0,2.115799E0,4.7253857E0,0E0,4.126699E0,0E0,1.3995546E1,0E0,0E0,6.1452823E0,8.450432E-1,2.6924763E0,4.580341E0,0E0,0E0,0E0,0E0,0E0,0E0,1.2658643E0,0E0,0E0,2.7168126E0,2.3618374E0,5.801263E-1,4.912361E0,5.4747467E0,0E0,0E0,0E0,0E0,0E0,2.9701636E0,0E0,0E0,0E0,0E0,1.3439007E0,0E0,3.2144732E0,0E0,6.081829E-1,0E0,0E0,0E0,0E0,4.0387173E0,0E0,0E0,5.5439744E0,0E0,1.0859649E0,0E0,2.692321E-1,4.18513E0,0E0,4.4200683E-1,8.086699E-1,1.3402897E0,0E0,0E0,4.403963E0,8.256484E0,6.974433E0,1.9179535E0,0E0,0E0,9.184513E-1,1.0883226E0,0E0,3.6249557E0,0E0,0E0,9.177513E-1,0E0,0E0,0E0,0E0,0E0,2.2068295E-1,4.2885047E-1,1.7087245E0,6.059781E-1,0E0,0E0,0E0,0E0,0E0,1.5938875E-1,0E0,0E0,2.2347782E0,7.6161976E0,1.6960907E0,0E0,2.3509293E0,0E0,0E0,0E0,0E0,0E0,0E0,0E0,0E0,0E0,0E0,0E0,0E0,0E0,0E0,0E0,0E0,0E0,0E0,0E0,0E0,0E0,0E0,0E0,0E0,0E0,0E0,0E0],"parents":[2147483647,0,0,1,1,2,2,3,3,4,4,5,5,6,6,7,7,8,8,9,9,10,10,11,11,12,12,13,13,15,15,16,16,17,17,18,18,19,19,21,21,23,23,24,24,25,25,26,26,27,27,28,28,29,29,30,30,31,31,32,32,33,33,34,34,35,35,36,36,37,37,38,38,39,39,40,40,42,42,43,43,44,44,47,47,48,48,49,49,57,57,58,58,61,61,62,62,63,63,64,64,65,65,67,67,69,69,71,71,75,75,77,77,81,81,82,82,83,83,84,84,85,85,87,87,91,91,92,92,93,93,94,94,96,96,98,98,101,101,102,102,103,103,104,104,111,111,114,114,115,115,116,116,117,117,118,118,124,124,129,129,131,131,133,133,138,138,141,141,143,143,145,145,146,146,148,148,149,149,150,150,153,153,154,154,155,155,156,156,159,159,160,160,162,162,165,165,171,171,172,172,173,173,174,174,180,180,183,183,184,184,185,185,187,187],"right_children":[2,4,6,8,10,12,14,16,18,20,22,24,26,28,-1,30,32,34,36,38,-1,40,-1,42,44,46,48,50,52,54,56,58,60,62,64,66,68,70,72,74,76,-1,78,80,82,-1,-1,84,86,88,-1,-1,-1,-1,-1,-1,-1,90,92,-1,-1,94,96,98,100,102,-1,104,-1,106,-1,108,-1,-1,-1,110,-1,112,-1,-1,-1,114,116,118,120,122,-1,124,-1,-1,-1,126,128,130,132,-1,134,-1,136,-1,-1,138,140,142,144,-1,-1,-1,-1,-1,-1,146,-1,-1,148,150,152,154,156,-1,-1,-1,-1,-1,158,-1,-1,-1,-1,160,-1,162,-1,164,-1,-1,-1,-1,166,-1,-1,168,-1,170,-1,172,174,-1,176,178,180,-1,-1,182,184,186,188,-1,-1,190,192,-1,194,-1,-1,196,-1,-1,-1,-1,-1,198,200,202,204,-1,-1,-1,-1,-1,206,-1,-1,208,210,212,-1,214,-1,-1,-1,-1,-1,-1,-1,-1,-1,-1,-1,-1,-1,-1,-1,-1,-1,-1,-1,-1,-1,-1,-1,-1,-1,-1,-1],"split_conditions":[1E0,5.3E1,2E1,1E0,1E0,2E0,3.3E1,3.2E1,1.8E1,6.1E1,3.7E1,2E0,1E0,3E0,2.1814533E-2,2.8E1,8E0,1E0,9E0,3.8E1,-1.4462935E-2,3E0,2.1260759E-2,1E0,1E0,7E0,1.2E1,2E0,3.6E1,2E0,3.2E1,8E0,4.5E1,1E0,1E0,2E1,4E0,1.4E1,4E0,3E1,2E0,-1.2623077E-2,1.2E1,1E0,4E0,-1.296856E-2,-4.878058E-4,1.2E1,2.5E1,2.6E1,1.987152E-2,-1.2343147E-2,9.304319E-3,-1.6382327E-2,-5.338771E-3,1.440851E-3,-1.2371885E-2,1.7E1,5E0,-1.5950583E-2,-1.9849597E-3,4E0,1.1E1,1E0,3E0,5E0,-1.2351293E-2,3.7E1,-9.636747E-3,9E0,-1.1386681E-2,1.6E1,1.1877955E-3,1.7968964E-2,4.6386663E-3,2.6E1,-1.2928564E-2,7E0,7.936994E-3,-8.883744E-3,-2.7535637E-4,2E0,1E0,6E0,1.7E1,3E0,5.3464025E-3,8E0,1.768822E-2,-1.3110008E-2,-3.5673942E-4,1.5E1,1E0,1E0,2E0,-1.3791107E-2,4E0,1.3534429E-2,3E0,-0E0,-1.3185634E-2,4E0,5E0,2.3E1,2E0,-9.940104E-3,7.7243224E-3,5.713696E-3,1.7189106E-2,1.071569E-3,1.4429169E-2,1E0,-1.1116085E-2,1.3731395E-2,3E0,1E0,1.1E1,1E0,1E0,-1.2530285E-2,9.780951E-3,1.2892817E-2,2.110276E-2,1.2098719E-2,1E1,-5.336147E-3,3.0052357E-3,-4.2385934E-4,1.80862E-2,2E0,-1.24646695E-2,5E0,-1.3084911E-2,1.3E1,-1.1442323E-2,-1.2935609E-2,1.3752491E-2,-1.0481274E-2,2.6E1,-3.5363305E-4,-1.1498554E-2,2E0,1.310416E-2,1E1,-1.058018E-2,1E0,2E0,-3.5178217E-3,2E0,6E0,3E0,1.3437574E-2,2.7744162E-3,3E0,1E0,7E0,1.2E1,-9.215225E-3,7.187254E-3,1E0,2E0,6.8732137E-3,4E0,7.758326E-3,-2.3944219E-4,7E0,-1.9383319E-3,-9.817768E-3,9.952713E-3,-4.2525868E-4,1.0019715E-2,1E0,1E0,1E0,6E0,2.7211173E-3,1.3124364E-2,-4.266424E-4,8.039277E-3,-6.4198864E-3,1E1,5.9279674E-3,1.6411327E-2,5E0,9E0,1E0,-9.86697E-3,5E0,1.8612556E-2,-4.567697E-3,-9.279084E-3,-1.4138151E-2,-1.8869141E-3,-7.146534E-3,7.7136275E-3,3.0959556E-3,1.5917096E-2,1.2084692E-3,-1.965406E-3,1.3234924E-3,-3.6661564E-3,-9.3867695E-3,3.4819448E-5,-3.6260678E-4,5.053884E-3,3.0029751E-3,-5.452744E-4,-6.307432E-3,5.0320537E-3,8.972005E-3,-9.830321E-3,-4.0204238E-4,1.1409193E-2,7.8684855E-3,1.4853569E-2],"split_indices":[9,12,12,7,7,0,16,12,12,0,16,13,8,2,0,13,0,2,14,13,0,2,0,8,8,12,0,14,13,8,13,16,13,14,16,13,2,0,2,16,8,0,12,12,12,0,0,16,14,12,0,0,0,0,0,0,0,13,14,0,0,12,12,12,0,14,0,12,0,0,0,0,0,0,0,16,0,12,0,0,0,16,14,12,16,8,0,13,0,0,0,16,2,12,0,0,0,0,13,0,0,16,0,13,2,0,0,0,0,0,0,12,0,0,16,16,12,14,14,0,0,0,0,0,13,0,0,0,0,0,0,12,0,12,0,0,0,0,12,0,0,7,0,16,0,13,12,0,12,12,16,0,0,0,12,13,12,0,0,13,13,0,16,0,0,13,0,0,0,0,0,16,14,16,12,0,0,0,0,0,12,0,0,0,0,13,0,13,0,0,0,0,0,0,0,0,0,0,0,0,0,0,0,0,0,0,0,0,0,0,0,0,0,0,0],"split_type":[0,0,0,0,0,0,0,0,0,0,0,0,0,0,0,0,0,0,0,0,0,0,0,0,0,0,0,0,0,0,0,0,0,0,0,0,0,0,0,0,0,0,0,0,0,0,0,0,0,0,0,0,0,0,0,0,0,0,0,0,0,0,0,0,0,0,0,0,0,0,0,0,0,0,0,0,0,0,0,0,0,0,0,0,0,0,0,0,0,0,0,0,0,0,0,0,0,0,0,0,0,0,0,0,0,0,0,0,0,0,0,0,0,0,0,0,0,0,0,0,0,0,0,0,0,0,0,0,0,0,0,0,0,0,0,0,0,0,0,0,0,0,0,0,0,0,0,0,0,0,0,0,0,0,0,0,0,0,0,0,0,0,0,0,0,0,0,0,0,0,0,0,0,0,0,0,0,0,0,0,0,0,0,0,0,0,0,0,0,0,0,0,0,0,0,0,0,0,0,0,0,0,0,0,0,0,0,0,0,0,0,0,0,0,0],"sum_hessian":[2.0908984E3,1.2178995E3,8.729989E2,1.1210582E3,9.6841255E1,2.4667546E2,6.263234E2,9.317515E2,1.8930676E2,2.1209572E1,7.563168E1,8.7113205E1,1.5956226E2,9.178157E1,5.345419E2,8.989087E2,3.284282E1,1.5952249E2,2.9784271E1,1.4925132E1,6.2844405E0,1.4649254E1,6.098243E1,5.2189228E1,3.4923977E1,4.592478E0,1.5496979E2,8.6735214E1,5.046361E0,8.9411365E2,4.7950664E0,1.4008143E1,1.8834677E1,1.26540886E2,3.29816E1,1.436115E1,1.5423121E1,5.528752E0,9.39638E0,7.7158647E0,6.933389E0,3.1451252E0,4.90441E1,2.4009936E0,3.2522984E1,3.396854E0,1.195624E0,1.2641245E2,2.8557331E1,1.2211757E1,7.452345E1,2.6832454E0,2.3631153E0,8.9195996E2,2.1536558E0,1.8907379E0,2.9043286E0,4.8241205E0,9.184023E0,1.740281E1,1.4318671E0,7.619085E1,5.0350037E1,1.2726414E1,2.0255186E1,1.1677296E1,2.6838536E0,1.39712925E1,1.451829E0,3.346779E0,2.1819725E0,7.4968834E0,1.8994968E0,6.2933636E0,1.4225007E0,3.763288E0,3.170101E0,4.717024E1,1.8738652E0,1.2121233E0,1.1888703E0,1.756493E1,1.4958052E1,1.2137058E2,5.041869E0,2.6417295E1,2.1400344E0,6.3850536E0,5.8267026E0,3.6323566E0,1.191764E0,3.80709E0,5.376933E0,6.2114258E1,1.40765915E1,4.5815117E1,4.534919E0,6.782354E0,5.9440603E0,2.1357243E0,1.8119461E1,8.2958355E0,3.3814602E0,9.430968E0,4.5403237E0,1.4657295E0,1.8810496E0,2.1271846E0,5.3696985E0,1.9053982E0,1.8578899E0,4.5218044E1,1.9521925E0,1.2833082E1,4.7318482E0,1.0733158E1,4.224894E0,5.8041985E1,6.3328598E1,2.6956725E0,2.346197E0,8.706562E0,1.7710735E1,3.9832296E0,2.4018242E0,2.153613E0,1.653477E0,1.1935316E0,4.183401E0,3.3969955E1,2.8144304E1,1.0446694E1,3.6298976E0,2.3481305E0,2.1867883E0,3.3943865E0,2.5496738E0,1.7042091E0,6.5916266E0,1.1910707E0,2.1903894E0,3.8003783E0,5.6305904E0,2.831574E0,1.7087497E0,2.0653994E1,2.456405E1,1.6829176E0,3.0489306E0,3.7807877E0,6.9523697E0,2.5626793E0,1.6622148E0,1.9937061E1,3.8104923E1,8.744145E0,5.458445E1,1.2256076E0,1.1762166E0,2.721512E1,6.754834E0,2.8074625E0,7.6392317E0,1.1604608E0,1.1876698E0,3.9606223E0,2.631004E0,1.4606764E0,2.339702E0,1.1937802E0,1.6377938E0,1.5645052E1,5.0089426E0,1.0793127E1,1.3770924E1,1.6638291E0,1.3851017E0,1.194055E0,2.5867329E0,4.10066E0,2.8517098E0,9.426093E0,1.0510968E1,7.1846805E0,3.0920242E1,7.2809863E0,1.4631592E0,3.5465263E1,1.9119188E1,1.8575949E1,8.639172E0,5.3259916E0,1.4288427E0,6.4773283E0,1.1619033E0,1.6502012E0,2.310421E0,1.4212802E1,1.4322498E0,1.8963199E0,3.1126225E0,8.660703E0,2.132424E0,1.2360802E1,1.4101216E0,1.653829E0,1.1978807E0,5.7745957E0,1.4100845E0,2.9458925E1,1.461317E0,1.1931127E0,6.0878735E0,1.2263737E1,2.3201527E1],"tree_param":{"num_deleted":"0","num_feature":"19","num_nodes":"215","size_leaf_vector":"1"}},{"base_weights":[1.1851639E-3,-1.5321985E0,1.3277569E0,-1.5502683E0,1.804549E-2,-3.1226898E-2,1.9385803E0,-1.6064146E0,-8.999885E-1,-4.774732E-1,4.237043E-1,1.2903194E0,2.1420517E0,-1.6288348E0,-1.107092E0,-4.494155E-1,-1.5642362E-2,-5.743159E-1,4.5800683E-1,1.2432824E0,2.6326683E-1,1.4174794E0,4.6573508E-1,3.596045E-1,2.151383E-2,-1.6309438E-2,-1.7836448E-3,-1.1719862E0,1.2896742E-3,-5.792384E-1,1.3296486E-2,-6.606863E-1,3.5274178E-1,6.456193E-1,-5.410246E-3,-8.922683E-3,1.3769374E0,-1.4077456E-1,6.770237E-1,1.0677602E0,1.8758481E-2,1.7786715E-2,-6.639655E-2,1.4118588E-2,-9.743036E-3,-1.2036388E0,-3.5750328E-4,-8.382467E-1,1.6584282E-1,-7.040657E-1,1.1351036E-2,1.3446128E0,-4.326332E-1,1.1849712E0,2.0778301E-1,8.3229184E-1,1.7562926E-2,6.883491E-2,-1.0459396E0,9.0359193E-1,3.2202844E-2,1.51006E0,6.096551E-1,-4.614257E-1,1.1850835E-2,-1.2366785E0,-4.9144815E-4,-9.8151916E-1,3.6832377E-1,8.3584446E-1,-1.27147585E-2,-7.400276E-1,3.7456557E-1,-3.1037288E-4,1.6710976E-2,-8.0960935E-1,2.957952E-1,-1.8319441E-4,1.4832954E-2,-4.3482825E-1,9.674508E-1,1.655074E-2,2.0455368E-1,2.3761201E-1,-4.6947828E-1,1.8894923E-1,-1.3779714E-2,1.6035302E-2,7.3567665E-1,-3.1300378E-1,3.866581E-1,1.6957327E0,1.1752081E0,7.947019E-1,-3.771512E-1,-1.4189656E-2,1.4595045E-1,-1.2707481E0,-1.8272374E-3,-1.0517738E0,-6.0220587E-4,-2.1343445E-3,7.6717488E-3,-6.3104444E-4,9.895774E-1,-8.147951E-1,-3.5848606E-1,1.0102067E-2,-1.649881E-1,-2.815384E-3,-1.1639661E-2,7.4836356E-3,-1.890021E-3,6.0302656E-2,-1.0573576E-2,1.3393996E-2,-3.3705367E-4,-1.6555026E-1,5.5462235E-1,6.60943E-2,1.2361715E0,-7.012214E-1,5.9942263E-3,7.734425E-3,-3.1790547E-3,5.2224135E-1,1.433542E0,-5.330397E-1,7.3697167E-3,6.6177374E-1,-8.938805E-3,1.7419968E-2,4.49806E-3,3.7423924E-1,1.303663E0,5.394968E-1,1.4256021E0,-6.7790425E-1,7.223647E-3,-1.4762254E-1,1.2491743E-2,-9.1542643E-1,-1.4378773E-2,-8.490664E-1,-1.4617004E-2,1.1612257E0,3.7826395E-1,-8.378397E-1,-6.60064E-4,-3.124377E-2,-7.308086E-1,-8.731216E-3,5.1036696E-3,-3.2576316E-3,5.0474578E-3,-5.403376E-3,3.054815E-3,8.075568E-3,-6.3976675E-4,-1.6457729E-1,4.0057918E-1,2.911322E-3,1.4624528E-2,-9.301489E-1,-3.4361622E-1,1.1961113E-1,7.955564E-1,-6.050559E-4,1.65795E-2,-1.7672326E-1,-1.1408275E-2,9.5129067E-1,-9.097844E-2,7.8085833E-3,-2.1789728E-3,9.573574E-1,1.7149728E-2,7.058536E-1,-7.704274E-1,1.1317898E-3,1.6744767E0,1.3242118E-1,-1.2895944E-2,4.7082925E-1,-9.415764E-1,-1.0968662E-2,1.5391507E-3,-1.1196146E-2,-3.956353E-3,1.5604573E-2,3.9456855E-3,-8.304541E-4,7.179793E-3,-8.800232E-3,-3.6718254E-3,2.9887715E-3,-3.3490246E-3,2.8113343E-3,-5.0609014E-3,-1.5086898E-3,-1.134815E-2,-3.3913024E-3,6.8686944E-3,7.3822495E-3,7.91731E-4,-1.0888284E-2,-3.7262417E-4,2.858291E-3,-8.323985E-3,-2.400545E-3,1.1104321E-2,-2.4413211E-4,1.1778249E-2,-6.819411E-3,7.868163E-3,-3.3423859E-3,1.4484476E-2,-9.003344E-3,7.3082666E-3,1.5029873E-2,5.240597E-3,8.623501E-3,-3.855971E-3,-3.6058808E-4,-1.0437975E-2,3.0074918E-3,1.922805E-2,-3.544661E-3,7.1802735E-3,-3.1433268E-3,1.4059047E-2,-6.4586464E-4,-1.2169438E-2],"categories":[],"categories_nodes":[],"categories_segments":[],"categories_sizes":[],"default_left":[0,0,0,0,0,0,0,0,0,0,0,0,0,0,0,0,0,0,0,0,0,0,0,0,0,0,0,0,0,0,0,0,0,0,0,0,0,0,0,0,0,0,0,0,0,0,0,0,0,0,0,0,0,0,0,0,0,0,0,0,0,0,0,0,0,0,0,0,0,0,0,0,0,0,0,0,0,0,0,0,0,0,0,0,0,0,0,0,0,0,0,0,0,0,0,0,0,0,0,0,0,0,0,0,0,0,0,0,0,0,0,0,0,0,0,0,0,0,0,0,0,0,0,0,0,0,0,0,0,0,0,0,0,0,0,0,0,0,0,0,0,0,0,0,0,0,0,0,0,0,0,0,0,0,0,0,0,0,0,0,0,0,0,0,0,0,0,0,0,0,0,0,0,0,0,0,0,0,0,0,0,0,0,0,0,0,0,0,0,0,0,0,0,0,0,0,0,0,0,0,0,0,0,0,0,0,0,0,0,0,0,0,0,0,0,0,0,0,0,0,0,0,0,0,0,0,0,0,0,0,0,0,0],"id":6,"left_children":[1,3,5,7,-1,9,11,13,15,17,19,21,23,25,27,29,-1,31,33,35,37,39,41,43,-1,-1,-1,45,-1,47,-1,49,51,53,-1,-1,55,57,59,61,-1,-1,63,-1,-1,65,-1,67,69,71,-1,73,75,77,79,81,-1,83,85,87,89,91,93,95,-1,97,-1,99,101,103,-1,105,107,-1,-1,109,111,-1,-1,113,115,-1,117,119,121,123,-1,-1,125,127,129,131,133,135,137,-1,139,141,-1,143,-1,-1,-1,-1,145,147,149,-1,151,-1,-1,-1,-1,153,-1,-1,-1,155,157,159,161,163,-1,-1,-1,165,167,169,-1,171,-1,-1,-1,173,175,177,179,181,-1,183,-1,185,-1,187,-1,189,191,193,195,197,199,-1,-1,-1,-1,-1,-1,-1,-1,201,203,-1,-1,205,207,209,211,-1,-1,213,-1,215,217,-1,-1,219,-1,221,223,-1,225,227,-1,229,231,-1,-1,-1,-1,-1,-1,-1,-1,-1,-1,-1,-1,-1,-1,-1,-1,-1,-1,-1,-1,-1,-1,-1,-1,-1,-1,-1,-1,-1,-1,-1,-1,-1,-1,-1,-1,-1,-1,-1,-1,-1,-1,-1,-1,-1,-1,-1,-1],"loss_changes":[4.2640977E3,6.139673E1,9.3325354E2,3.363257E1,0E0,7.1153435E1,9.918262E1,7.8791504E0,2.2836296E1,1.6309761E1,2.2331568E1,1.8852753E1,8.765137E0,2.1247559E0,3.586647E0,1.1955974E1,0E0,1.3149948E1,3.5580337E0,9.276924E0,2.4630142E1,2.3702423E1,1.894214E1,7.4855638E0,0E0,0E0,0E0,1.2584457E0,0E0,9.119918E0,0E0,1.2259277E1,1.1788404E1,3.134562E0,0E0,0E0,3.8195724E0,1.43608E1,1.0490448E1,1.8003975E1,0E0,0E0,1.0316419E1,0E0,0E0,1.2770348E0,0E0,6.3935623E0,1.3201078E1,5.9325867E0,0E0,3.1824942E0,2.66994E0,2.4581022E0,5.132216E0,6.199027E0,0E0,5.683268E0,6.207819E0,4.8866005E0,2.5804882E0,6.585922E-1,9.139782E0,9.58873E0,0E0,9.5996094E-1,0E0,1.846201E0,1.2212844E0,1.4374027E0,0E0,3.6016388E0,2.0510244E0,0E0,0E0,6.6308355E-1,9.864779E-1,0E0,0E0,1.9475323E0,1.9461069E0,0E0,1.244183E0,7.9554787E0,4.119768E0,1.4254354E0,0E0,0E0,5.787697E0,2.8126395E0,4.2596335E0,6.0861206E-1,1.433876E0,5.6326637E0,3.1972547E0,0E0,3.7209136E0,5.7567596E-1,0E0,9.2484665E-1,0E0,0E0,0E0,0E0,2.5450087E-1,2.1024857E0,2.9522562E0,0E0,2.2097762E0,0E0,0E0,0E0,0E0,8.8246995E-1,0E0,0E0,0E0,1.0374682E0,8.747529E-1,3.3176477E0,8.633566E-1,5.990505E-1,0E0,0E0,0E0,3.807252E0,3.5801544E0,1.700444E0,0E0,2.191462E0,0E0,0E0,0E0,1.2658958E0,5.1122093E-1,7.2708607E0,3.2511253E0,3.7695682E0,0E0,4.997203E0,0E0,3.0575752E0,0E0,2.0860825E0,0E0,9.324107E-1,6.531117E-1,1.800293E0,5.3708893E-1,2.317991E0,2.4010487E0,0E0,0E0,0E0,0E0,0E0,0E0,0E0,0E0,3.9574118E0,1.7638075E0,0E0,0E0,8.434224E-1,2.3672957E0,6.0554423E0,6.8185425E0,0E0,0E0,4.0346274E0,0E0,4.9886084E0,2.929741E0,0E0,0E0,1.7569609E0,0E0,5.1640863E0,6.35787E-1,0E0,2.3303757E0,1.391249E0,0E0,4.776537E0,8.6140776E-1,0E0,0E0,0E0,0E0,0E0,0E0,0E0,0E0,0E0,0E0,0E0,0E0,0E0,0E0,0E0,0E0,0E0,0E0,0E0,0E0,0E0,0E0,0E0,0E0,0E0,0E0,0E0,0E0,0E0,0E0,0E0,0E0,0E0,0E0,0E0,0E0,0E0,0E0,0E0,0E0,0E0,0E0,0E0,0E0,0E0,0E0,0E0,0E0],"parents":[2147483647,0,0,1,1,2,2,3,3,5,5,6,6,7,7,8,8,9,9,10,10,11,11,12,12,13,13,14,14,15,15,17,17,18,18,19,19,20,20,21,21,22,22,23,23,27,27,29,29,31,31,32,32,33,33,36,36,37,37,38,38,39,39,42,42,45,45,47,47,48,48,49,49,51,51,52,52,53,53,54,54,55,55,57,57,58,58,59,59,60,60,61,61,62,62,63,63,65,65,67,67,68,68,69,69,71,71,72,72,75,75,76,76,79,79,80,80,82,82,83,83,84,84,85,85,88,88,89,89,90,90,91,91,92,92,93,93,94,94,96,96,97,97,99,99,104,104,105,105,106,106,108,108,113,113,117,117,118,118,119,119,120,120,121,121,125,125,126,126,127,127,129,129,133,133,134,134,135,135,136,136,137,137,139,139,141,141,143,143,145,145,146,146,147,147,148,148,149,149,150,150,159,159,160,160,163,163,164,164,165,165,166,166,169,169,171,171,172,172,175,175,177,177,178,178,180,180,181,181,183,183,184,184],"right_children":[2,4,6,8,-1,10,12,14,16,18,20,22,24,26,28,30,-1,32,34,36,38,40,42,44,-1,-1,-1,46,-1,48,-1,50,52,54,-1,-1,56,58,60,62,-1,-1,64,-1,-1,66,-1,68,70,72,-1,74,76,78,80,82,-1,84,86,88,90,92,94,96,-1,98,-1,100,102,104,-1,106,108,-1,-1,110,112,-1,-1,114,116,-1,118,120,122,124,-1,-1,126,128,130,132,134,136,138,-1,140,142,-1,144,-1,-1,-1,-1,146,148,150,-1,152,-1,-1,-1,-1,154,-1,-1,-1,156,158,160,162,164,-1,-1,-1,166,168,170,-1,172,-1,-1,-1,174,176,178,180,182,-1,184,-1,186,-1,188,-1,190,192,194,196,198,200,-1,-1,-1,-1,-1,-1,-1,-1,202,204,-1,-1,206,208,210,212,-1,-1,214,-1,216,218,-1,-1,220,-1,222,224,-1,226,228,-1,230,232,-1,-1,-1,-1,-1,-1,-1,-1,-1,-1,-1,-1,-1,-1,-1,-1,-1,-1,-1,-1,-1,-1,-1,-1,-1,-1,-1,-1,-1,-1,-1,-1,-1,-1,-1,-1,-1,-1,-1,-1,-1,-1,-1,-1,-1,-1,-1,-1],"split_conditions":[1E0,7.1E1,3.9E1,6.5E1,1.804549E-2,1E1,3.7E1,1E0,3E0,1E0,1E0,3E0,1.91E2,2.5E1,3.7E1,2E0,-1.5642362E-2,3E0,2E0,1E0,2.1E1,1.04E2,1E0,1.5E1,2.151383E-2,-1.6309438E-2,-1.7836448E-3,7E0,1.2896742E-3,1.42E2,1.3296486E-2,7E0,7E0,2E0,-5.410246E-3,-8.922683E-3,1.8E1,4E0,5E0,7E0,1.8758481E-2,1.7786715E-2,2E0,1.4118588E-2,-9.743036E-3,2.9E1,-3.5750328E-4,1E0,2.7E1,2E0,1.1351036E-2,5E0,2E0,1E0,3E0,1E0,1.7562926E-2,1.8E1,2E0,2E0,2E0,5E0,1.4E1,2.4E1,1.1850835E-2,2E0,-4.9144815E-4,1E0,1.1E1,1.6E1,-1.27147585E-2,7E0,1E0,-3.1037288E-4,1.6710976E-2,4E0,8E0,-1.8319441E-4,1.4832954E-2,6E0,2E0,1.655074E-2,3E0,1E0,2E0,1.2E1,-1.3779714E-2,1.6035302E-2,1E0,3.7E1,3.4E1,1.9E1,4.7E1,2E0,1E0,-1.4189656E-2,6E1,2E0,-1.8272374E-3,2.1E1,-6.0220587E-4,-2.1343445E-3,7.6717488E-3,-6.3104444E-4,2.21E2,4E0,2E0,1.0102067E-2,8E0,-2.815384E-3,-1.1639661E-2,7.4836356E-3,-1.890021E-3,5E0,-1.0573576E-2,1.3393996E-2,-3.3705367E-4,1.5E1,5E0,3E0,1.2E1,3E0,5.9942263E-3,7.734425E-3,-3.1790547E-3,3E0,2.4E1,3.2E1,7.3697167E-3,7E0,-8.938805E-3,1.7419968E-2,4.49806E-3,7E0,2E0,2E0,9E0,8E0,7.223647E-3,2.32E2,1.2491743E-2,1E1,-1.4378773E-2,8.5E1,-1.4617004E-2,1E1,4.4E1,2E0,5E0,2E0,1E0,-8.731216E-3,5.1036696E-3,-3.2576316E-3,5.0474578E-3,-5.403376E-3,3.054815E-3,8.075568E-3,-6.3976675E-4,1E0,1.4E1,2.911322E-3,1.4624528E-2,8E0,2E0,1E0,5E0,-6.050559E-4,1.65795E-2,3E1,-1.1408275E-2,1E0,3E1,7.8085833E-3,-2.1789728E-3,3E0,1.7149728E-2,2E0,4.5E1,1.1317898E-3,1.3E1,1.3E1,-1.2895944E-2,1.91E2,3.1E1,-1.0968662E-2,1.5391507E-3,-1.1196146E-2,-3.956353E-3,1.5604573E-2,3.9456855E-3,-8.304541E-4,7.179793E-3,-8.800232E-3,-3.6718254E-3,2.9887715E-3,-3.3490246E-3,2.8113343E-3,-5.0609014E-3,-1.5086898E-3,-1.134815E-2,-3.3913024E-3,6.8686944E-3,7.3822495E-3,7.91731E-4,-1.0888284E-2,-3.7262417E-4,2.858291E-3,-8.323985E-3,-2.400545E-3,1.1104321E-2,-2.4413211E-4,1.1778249E-2,-6.819411E-3,7.868163E-3,-3.3423859E-3,1.4484476E-2,-9.003344E-3,7.3082666E-3,1.5029873E-2,5.240597E-3,8.623501E-3,-3.855971E-3,-3.6058808E-4,-1.0437975E-2,3.0074918E-3,1.922805E-2,-3.544661E-3,7.1802735E-3,-3.1433268E-3,1.4059047E-2,-6.4586464E-4,-1.2169438E-2],"split_indices":[7,13,11,11,0,11,16,8,2,10,16,2,11,13,11,10,0,13,10,8,11,11,13,0,0,0,0,0,0,11,0,0,11,0,0,0,11,0,0,16,0,0,10,0,0,11,0,8,0,8,0,11,0,13,0,13,0,11,13,16,8,16,16,16,0,8,0,10,16,16,0,11,13,0,0,13,11,0,0,11,13,0,13,10,8,11,0,0,10,11,11,13,11,7,10,0,13,0,0,16,0,0,0,0,11,0,0,0,11,0,0,0,0,11,0,0,0,11,13,13,11,16,0,0,0,0,11,11,0,13,0,0,0,13,8,8,16,0,0,11,0,11,0,11,0,0,13,13,0,13,16,0,0,0,0,0,0,0,0,2,11,0,0,13,0,2,13,0,0,11,0,2,11,0,0,0,0,2,11,0,13,13,0,11,0,0,0,0,0,0,0,0,0,0,0,0,0,0,0,0,0,0,0,0,0,0,0,0,0,0,0,0,0,0,0,0,0,0,0,0,0,0,0,0,0,0,0,0,0,0,0,0,0],"split_type":[0,0,0,0,0,0,0,0,0,0,0,0,0,0,0,0,0,0,0,0,0,0,0,0,0,0,0,0,0,0,0,0,0,0,0,0,0,0,0,0,0,0,0,0,0,0,0,0,0,0,0,0,0,0,0,0,0,0,0,0,0,0,0,0,0,0,0,0,0,0,0,0,0,0,0,0,0,0,0,0,0,0,0,0,0,0,0,0,0,0,0,0,0,0,0,0,0,0,0,0,0,0,0,0,0,0,0,0,0,0,0,0,0,0,0,0,0,0,0,0,0,0,0,0,0,0,0,0,0,0,0,0,0,0,0,0,0,0,0,0,0,0,0,0,0,0,0,0,0,0,0,0,0,0,0,0,0,0,0,0,0,0,0,0,0,0,0,0,0,0,0,0,0,0,0,0,0,0,0,0,0,0,0,0,0,0,0,0,0,0,0,0,0,0,0,0,0,0,0,0,0,0,0,0,0,0,0,0,0,0,0,0,0,0,0,0,0,0,0,0,0,0,0,0,0,0,0,0,0,0,0,0,0],"sum_hessian":[2.094272E3,9.7130756E2,1.1229645E3,9.6663824E2,4.669346E0,3.4846692E2,7.7449756E2,8.8831555E2,7.8322685E1,1.7599855E2,1.7246837E2,1.8689201E2,5.876055E2,8.477862E2,4.052935E1,4.775595E1,3.056673E1,1.5993475E2,1.606379E1,2.7027676E1,1.4544069E2,1.6119385E2,2.5698174E1,3.3218749E0,5.842837E2,8.463622E2,1.424011E0,3.863378E1,1.8955684E0,4.518902E1,2.5669358E0,1.4666568E2,1.326908E1,1.3906146E1,2.1576433E0,1.213539E0,2.5814137E1,7.379579E1,7.16449E1,9.34457E1,6.774814E1,6.79014E0,1.8908033E1,1.8662288E0,1.455646E0,3.744338E1,1.1904037E0,3.353916E1,1.1649855E1,1.4385432E2,2.8113456E0,5.6052823E0,7.663798E0,5.3638387E0,8.542307E0,1.201771E1,1.3796427E1,6.0580593E1,1.3215199E1,5.2604923E1,1.9039974E1,4.6263638E1,4.7182068E1,1.4912205E1,3.9958293E0,3.624821E1,1.1951702E0,3.022012E1,3.3190424E0,8.278773E0,3.371081E0,1.3960643E2,4.247892E0,1.1899685E0,4.415314E0,5.0672374E0,2.5965605E0,1.1855023E0,4.1783366E0,4.7880306E0,3.7542768E0,4.4236813E0,7.5940285E0,4.6687153E1,1.3893438E1,2.827807E0,1.0387392E1,8.408739E0,4.4196182E1,9.562147E0,9.477826E0,2.69547E1,1.9308935E1,3.9980835E1,7.2012334E0,5.3330197E0,9.579185E0,3.4821995E1,1.4262152E0,2.7846489E1,2.37363E0,1.4370866E0,1.8819559E0,1.2001239E0,7.0786495E0,1.1556292E2,2.404352E1,1.6348885E0,2.6130033E0,2.8687963E0,2.198441E0,1.1684228E0,1.4281378E0,3.0804677E0,1.707563E0,2.563805E0,1.1904716E0,3.8087397E0,3.7852888E0,4.0838802E1,5.848349E0,1.1777541E1,2.1158972E0,1.1606742E0,1.6671329E0,3.5293613E1,8.902572E0,8.391229E0,1.1709187E0,8.263718E0,1.2141083E0,2.5528357E1,1.4263439E0,3.3171306E0,1.5991805E1,2.9899733E1,1.00811E1,6.027044E0,1.1741898E0,8.178417E0,1.400768E0,1.3402841E1,2.1419153E1,2.0850964E1,6.995527E0,4.696732E0,2.3819177E0,1.1223411E2,3.3288078E0,1.3516275E1,1.0527245E1,1.2048806E0,1.4081227E0,1.6709906E0,1.4094771E0,2.1573544E0,1.6513853E0,2.5846605E0,1.2006282E0,2.4293926E1,1.6544876E1,1.6569204E0,4.1914287E0,6.034047E0,5.7434945E0,1.5000033E1,2.029358E1,1.1997465E0,7.702825E0,6.2074175E0,2.1838112E0,5.873716E0,2.3900015E0,1.8778092E0,1.4393214E0,1.0620501E1,5.371305E0,2.7007362E1,2.8923714E0,1.9028941E0,8.178206E0,2.859288E0,3.1677556E0,4.7552986E0,3.4231184E0,1.1516552E1,1.886288E0,1.2000747E1,8.850216E0,2.3218193E0,2.3749127E0,1.2057605E0,1.1761571E0,1.0200912E2,1.0224991E1,1.6535622E0,1.6752456E0,8.271942E0,5.2443337E0,4.988027E0,5.539218E0,2.075761E1,3.5363173E0,7.2844114E0,9.260466E0,4.8420897E0,1.1919576E0,2.6025753E0,3.140919E0,1.1487056E1,3.512978E0,6.667109E0,1.3626469E1,4.332023E0,1.8753946E0,1.6733608E0,4.200355E0,1.217284E0,1.1727176E0,3.5060298E0,7.1144705E0,2.3884264E1,3.1230967E0,1.1909007E0,1.7014706E0,1.6521986E0,6.5260077E0,1.6835132E0,1.1757749E0,2.88757E0,1.8677285E0,1.1997747E0,2.2233436E0],"tree_param":{"num_deleted":"0","num_feature":"19","num_nodes":"233","size_leaf_vector":"1"}},{"base_weights":[-1.1524072E-2,-1.0038892E0,1.9010001E0,-1.2540755E0,-2.6261508E-1,1.0418763E0,2.113422E0,-1.3819991E0,-9.493603E-1,3.010943E-1,-5.502724E-1,1.4469062E0,-6.981382E-1,8.6228913E-1,2.1249529E-2,-1.6457515E-2,-1.3140494E0,-9.7209644E-1,9.546697E-3,1.4948508E0,2.2043966E-2,-3.3974057E-1,-1.2085199E0,1.6920863E0,3.6877832E-1,6.8674874E-1,-1.3101244E0,1.5325091E-2,-5.290239E-3,-1.3701588E0,-1.1916398E0,-6.199265E-1,-1.0410885E0,5.803707E-1,1.8030783E-2,-9.2025906E-1,2.1981098E-1,-1.1064261E0,-1.4222752E-1,-5.115144E-1,-1.3494165E0,9.071821E-1,1.8355517E0,-3.4054396E-1,1.5107776E-2,1.580317E-2,1.4799469E-2,-1.4825056E0,6.920424E-3,-1.3929364E-2,-1.1074253E0,-1.0627306E0,-1.3123302E0,-1.0037603E0,-2.631958E-1,-1.0529226E0,7.588455E-3,-1.931323E-3,1.0949816E0,-6.750918E-1,-1.3312486E-2,3.7196183E-1,-9.2760843E-1,-1.1802943E0,7.99941E-5,-4.0308318E-1,2.7399775E-1,-1.0013025E0,6.415102E-1,-1.441983E0,-5.606188E-1,1.3508354E0,4.0555304E-1,1.2990204E0,1.924991E-2,3.0972242E-1,-9.9111056E-1,1.1462578E-2,-8.1907636E-1,-1.5663065E-2,-4.7107115E-3,-1.52445305E-2,-8.460267E-1,-1.0931807E0,7.2117415E-3,-9.4090354E-1,-1.410952E0,-1.196264E-2,-2.6085007E-1,-3.902652E-1,9.266449E-2,-1.2138275E0,-9.217515E-1,3.0131363E-3,1.4119457E-2,-1.2216351E-2,-3.7955633E-1,6.909388E-2,9.7285247E-1,-5.5271648E-2,-1.1908051E0,-7.1988136E-1,-1.3543506E-2,-2.6065454E-1,-7.6357996E-1,5.013255E-1,-6.829001E-1,-2.4882944E-1,-1.3379537E-2,9.888947E-3,-2.556687E-4,-5.8905834E-1,-1.5196278E-2,4.7472194E-3,-9.6349066E-1,4.7723845E-1,1.757497E-2,-4.7276434E-1,9.980736E-1,1.4832232E0,4.4753456E-1,8.315656E-1,-1.016911E-2,-1.3378898E-2,-2.0409557E-3,-1.0865692E-2,-4.082142E-4,-1.0436154E-2,-4.9652374E-1,-1.1558195E0,-8.148758E-1,-1.077094E0,-2.2975542E-1,-1.1664365E-2,-1.620069E-2,4.0273008E-1,-1.1114493E-2,-1.3387229E-1,-6.3334656E-1,3.6114568E-1,-2.7098106E-3,-9.443436E-1,-1.3125329E0,-8.2299685E-1,-1.568936E-2,3.1739837E-1,-6.863406E-1,3.0608946E-1,-1.0543368E0,-2.9398176E-1,1.3725898E-2,-8.616913E-3,7.4162106E-3,-3.2866145E-3,-1.3716151E-2,-1.1951044E-2,1.13335945E-1,-1.3544586E-1,-5.998586E-1,-8.6962306E-1,-1.0299732E-1,1.6702136E-1,1.3421108E0,2.879207E-1,-1.0365773E0,-9.506987E-3,5.277502E-3,3.145444E-3,-1.1482771E-2,-2.9854052E-4,-1.21553885E-2,7.612037E-3,-6.609555E-4,-1.0549888E-2,2.57654E-3,1.2066426E-2,2.5117528E-3,1.5800143E0,4.3599275E-3,-3.9292932E-3,1.2469701E-2,-0E0,1.2455462E-2,4.7114524E-3,-8.246314E-1,-1.0541809E0,-1.5378698E-2,-4.3229392E-1,-1.0662981E0,-1.1382235E-2,-1.5166117E-3,-1.06930155E-2,6.005169E-3,9.142748E-5,7.380953E-3,-5.7694167E-1,3.5095826E-1,2.0071866E-2,-1.0966003E0,5.5259984E-4,7.232658E-3,-7.561705E-1,-1.4473238E-2,-1.3303045E0,-1.7752469E-3,-7.278412E-1,-1.0143367E0,5.268431E-3,-1.2776228E-4,-1.0137631E0,1.1743339E-3,1.0958174E0,9.530267E-2,3.0619147E-5,-1.4139824E-2,9.485411E-3,-1.255383E-2,4.5467776E-1,-3.200894E-3,-3.503668E-1,4.2199612E-1,-9.1529375E-1,7.855323E-3,-5.872354E-1,-1.2230183E-2,7.670831E-3,-1.0324642E-2,1.2658717E-2,-4.3470595E-2,1.574644E0,-2.2323302E-3,7.5758314E-3,-2.0716807E-3,-2.7738826E-4,-1.1887285E0,4.636793E-3,1.7002326E-2,-1.0923519E-2,-5.2066357E-4,-8.75467E-3,-1.258921E-2,-2.4320392E-3,-6.8381727E-3,-1.435108E-2,-3.5444137E-3,-9.128164E-3,1.4887314E-3,7.817083E-3,-0E0,-1.746774E-3,3.1655666E-3,-1.3239398E-2,-1.991315E-4,-1.34184975E-2,-5.6677274E-3,-1.4304796E-2,-1.0436735E-2,-7.854304E-3,8.175054E-3,-7.049632E-3,-1.3598639E-2,-1.21266125E-2,-3.2278718E-3,1.3969954E-2,-1.9194748E-3,-2.8054197E-3,8.69376E-3,-1.2553169E-4,7.6194867E-3,-1.8897768E-3,-1.3125824E-2,-1.2785513E-2,1.1068246E-2,-1.4616594E-2,-2.0692134E-3,-7.0242607E-3,-0E0,2.6667474E-3,-6.340691E-3,5.571986E-3,1.7433807E-2,-1.38096595E-2,-2.1887792E-3],"categories":[],"categories_nodes":[],"categories_segments":[],"categories_sizes":[],"default_left":[0,0,0,0,0,0,0,0,0,0,0,0,0,0,0,0,0,0,0,0,0,0,0,0,0,0,0,0,0,0,0,0,0,0,0,0,0,0,0,0,0,0,0,0,0,0,0,0,0,0,0,0,0,0,0,0,0,0,0,0,0,0,0,0,0,0,0,0,0,0,0,0,0,0,0,0,0,0,0,0,0,0,0,0,0,0,0,0,0,0,0,0,0,0,0,0,0,0,0,0,0,0,0,0,0,0,0,0,0,0,0,0,0,0,0,0,0,0,0,0,0,0,0,0,0,0,0,0,0,0,0,0,0,0,0,0,0,0,0,0,0,0,0,0,0,0,0,0,0,0,0,0,0,0,0,0,0,0,0,0,0,0,0,0,0,0,0,0,0,0,0,0,0,0,0,0,0,0,0,0,0,0,0,0,0,0,0,0,0,0,0,0,0,0,0,0,0,0,0,0,0,0,0,0,0,0,0,0,0,0,0,0,0,0,0,0,0,0,0,0,0,0,0,0,0,0,0,0,0,0,0,0,0,0,0,0,0,0,0,0,0,0,0,0,0,0,0,0,0,0,0,0,0,0,0,0,0,0,0,0,0,0,0,0,0,0,0,0,0,0,0,0,0,0,0,0,0,0,0,0,0,0,0],"id":7,"left_children":[1,3,5,7,9,11,13,15,17,19,21,23,25,27,-1,-1,29,31,-1,33,35,37,39,41,43,45,47,-1,-1,49,51,53,55,57,-1,59,61,63,65,67,69,71,73,75,-1,-1,77,79,-1,-1,81,83,85,87,89,91,-1,-1,93,95,-1,97,99,101,-1,103,105,107,109,111,113,115,117,119,-1,121,123,-1,125,-1,-1,-1,127,129,-1,131,133,-1,135,137,139,141,143,-1,-1,-1,145,147,149,151,153,155,-1,157,159,161,163,165,-1,-1,-1,167,-1,-1,169,171,-1,173,175,177,179,181,-1,-1,-1,-1,-1,-1,183,185,187,189,191,-1,-1,193,-1,195,197,199,-1,201,203,205,-1,207,209,211,213,215,-1,-1,-1,-1,-1,-1,217,219,221,223,225,227,229,231,233,-1,-1,-1,-1,-1,-1,-1,-1,-1,-1,-1,-1,235,-1,-1,-1,-1,-1,-1,237,239,-1,241,243,-1,-1,-1,-1,-1,-1,245,247,249,251,-1,-1,253,-1,255,-1,257,259,-1,-1,261,-1,263,265,-1,-1,-1,-1,267,-1,269,271,273,-1,275,-1,-1,-1,-1,277,279,-1,-1,-1,-1,281,-1,-1,-1,-1,-1,-1,-1,-1,-1,-1,-1,-1,-1,-1,-1,-1,-1,-1,-1,-1,-1,-1,-1,-1,-1,-1,-1,-1,-1,-1,-1,-1,-1,-1,-1,-1,-1,-1,-1,-1,-1,-1,-1,-1,-1,-1,-1,-1],"loss_changes":[3.9356404E3,2.5272571E2,1.2676001E2,3.8231323E1,5.627859E1,1.0150935E2,6.047119E0,1.037854E1,1.4139648E1,3.8922596E1,3.1238266E1,2.9822464E1,2.4297966E1,7.3816853E0,0E0,0E0,2.059021E0,6.5284424E0,0E0,4.9614754E0,1.8066675E1,2.6276592E1,4.535492E0,8.659271E0,1.9132355E1,5.247653E0,7.831547E0,0E0,0E0,5.228882E-1,1.3067932E0,6.756115E0,6.1726685E0,3.1448507E0,0E0,5.933695E-1,1.4332397E1,3.0635414E0,1.5400925E1,6.8883524E0,2.2851639E0,2.9775133E0,9.436035E-1,6.6575212E0,0E0,0E0,6.854953E0,6.1026E-1,0E0,0E0,2.4080734E0,6.0945435E0,1.8403168E0,3.0678806E0,1.3566406E0,3.938446E0,0E0,0E0,5.394831E-1,1.4281316E0,0E0,1.2897548E1,2.019845E0,1.506176E0,0E0,4.168229E0,1.2213999E1,1.577837E0,1.0084716E0,1.5180588E0,3.2122097E0,1.8829203E0,5.385026E0,1.4095421E0,0E0,6.4430118E0,1.684752E0,0E0,7.0107675E-1,0E0,0E0,0E0,1.0254307E0,5.3154755E-1,0E0,1.8209972E0,1.4720306E0,0E0,4.1642923E0,1.1742382E0,8.988249E-1,1.4250183E0,7.5499954E0,0E0,0E0,0E0,2.3532584E0,1.3276188E1,1.2603369E1,2.815469E0,5.106945E-1,4.7956004E0,0E0,2.5683036E0,1.489891E0,1.2224831E1,4.0923195E0,2.6399982E0,0E0,0E0,0E0,2.9946485E0,0E0,0E0,1.0321889E0,7.499593E-1,0E0,2.21129E0,4.8063612E-1,2.6011848E-1,3.329254E0,2.1994104E0,0E0,0E0,0E0,0E0,0E0,0E0,3.906418E0,1.0527039E0,1.4368944E0,7.544422E-1,4.201252E0,0E0,0E0,4.8563993E-1,0E0,2.781091E0,3.3181248E0,4.6406543E-1,0E0,1.8053112E0,1.1599731E0,1.3725662E0,0E0,3.0597815E-1,2.111624E0,6.6442623E0,3.4447842E0,8.97532E0,0E0,0E0,0E0,0E0,0E0,0E0,9.0054023E-1,5.931723E0,8.064439E0,1.132617E0,4.5189652E0,7.879841E0,5.04595E0,1.0489306E0,1.1089449E0,0E0,0E0,0E0,0E0,0E0,0E0,0E0,0E0,0E0,0E0,0E0,0E0,3.2686806E-1,0E0,0E0,0E0,0E0,0E0,0E0,1.614059E0,9.9137115E-1,0E0,2.2999394E-1,2.4645786E0,0E0,0E0,0E0,0E0,0E0,0E0,1.8463945E0,9.949695E-1,3.733294E-1,1.3742642E0,0E0,0E0,1.9580965E0,0E0,4.2082214E-1,0E0,8.444569E0,2.9819183E0,0E0,0E0,1.875515E-1,0E0,3.6840868E0,1.0124685E1,0E0,0E0,0E0,0E0,5.649069E-1,0E0,5.1242933E0,1.7439571E1,5.0218315E0,0E0,9.345174E-1,0E0,0E0,0E0,0E0,5.488161E0,7.0168877E-1,0E0,0E0,0E0,0E0,8.508749E-1,0E0,0E0,0E0,0E0,0E0,0E0,0E0,0E0,0E0,0E0,0E0,0E0,0E0,0E0,0E0,0E0,0E0,0E0,0E0,0E0,0E0,0E0,0E0,0E0,0E0,0E0,0E0,0E0,0E0,0E0,0E0,0E0,0E0,0E0,0E0,0E0,0E0,0E0,0E0,0E0,0E0,0E0,0E0,0E0,0E0,0E0,0E0,0E0],"parents":[2147483647,0,0,1,1,2,2,3,3,4,4,5,5,6,6,7,7,8,8,9,9,10,10,11,11,12,12,13,13,16,16,17,17,19,19,20,20,21,21,22,22,23,23,24,24,25,25,26,26,29,29,30,30,31,31,32,32,33,33,35,35,36,36,37,37,38,38,39,39,40,40,41,41,42,42,43,43,46,46,47,47,50,50,51,51,52,52,53,53,54,54,55,55,58,58,59,59,61,61,62,62,63,63,65,65,66,66,67,67,68,68,69,69,70,70,71,71,72,72,73,73,75,75,76,76,78,78,82,82,83,83,85,85,86,86,88,88,89,89,90,90,91,91,92,92,96,96,97,97,98,98,99,99,100,100,101,101,103,103,104,104,105,105,106,106,107,107,111,111,114,114,115,115,117,117,118,118,119,119,120,120,121,121,128,128,129,129,130,130,131,131,132,132,135,135,137,137,138,138,139,139,141,141,142,142,143,143,145,145,146,146,147,147,148,148,149,149,156,156,157,157,158,158,159,159,160,160,161,161,162,162,163,163,164,164,177,177,184,184,185,185,187,187,188,188,195,195,196,196,197,197,198,198,201,201,203,203,205,205,206,206,209,209,211,211,212,212,217,217,219,219,220,220,221,221,223,223,228,228,229,229,234,234],"right_children":[2,4,6,8,10,12,14,16,18,20,22,24,26,28,-1,-1,30,32,-1,34,36,38,40,42,44,46,48,-1,-1,50,52,54,56,58,-1,60,62,64,66,68,70,72,74,76,-1,-1,78,80,-1,-1,82,84,86,88,90,92,-1,-1,94,96,-1,98,100,102,-1,104,106,108,110,112,114,116,118,120,-1,122,124,-1,126,-1,-1,-1,128,130,-1,132,134,-1,136,138,140,142,144,-1,-1,-1,146,148,150,152,154,156,-1,158,160,162,164,166,-1,-1,-1,168,-1,-1,170,172,-1,174,176,178,180,182,-1,-1,-1,-1,-1,-1,184,186,188,190,192,-1,-1,194,-1,196,198,200,-1,202,204,206,-1,208,210,212,214,216,-1,-1,-1,-1,-1,-1,218,220,222,224,226,228,230,232,234,-1,-1,-1,-1,-1,-1,-1,-1,-1,-1,-1,-1,236,-1,-1,-1,-1,-1,-1,238,240,-1,242,244,-1,-1,-1,-1,-1,-1,246,248,250,252,-1,-1,254,-1,256,-1,258,260,-1,-1,262,-1,264,266,-1,-1,-1,-1,268,-1,270,272,274,-1,276,-1,-1,-1,-1,278,280,-1,-1,-1,-1,282,-1,-1,-1,-1,-1,-1,-1,-1,-1,-1,-1,-1,-1,-1,-1,-1,-1,-1,-1,-1,-1,-1,-1,-1,-1,-1,-1,-1,-1,-1,-1,-1,-1,-1,-1,-1,-1,-1,-1,-1,-1,-1,-1,-1,-1,-1,-1,-1],"split_conditions":[1.04E2,2.2E1,2.93E2,9E0,1E0,3.3E1,3.7E1,1E0,1.6E1,1E0,2E0,3E0,7E0,3.4E1,