{"learner":{"attributes":{"best_iteration":"63","best_score":"0.14894011772336757"},"feature_names":[],"feature_types":[],"gradient_booster":{"model":{"gbtree_model_param":{"num_parallel_tree":"1","num_trees":"79"},"iteration_indptr":[0,1,2,3,4,5,6,7,8,9,10,11,12,13,14,15,16,17,18,19,20,21,22,23,24,25,26,27,28,29,30,31,32,33,34,35,36,37,38,39,40,41,42,43,44,45,46,47,48,49,50,51,52,53,54,55,56,57,58,59,60,61,62,63,64,65,66,67,68,69,70,71,72,73,74,75,76,77,78,79],"tree_info":[0,0,0,0,0,0,0,0,0,0,0,0,0,0,0,0,0,0,0,0,0,0,0,0,0,0,0,0,0,0,0,0,0,0,0,0,0,0,0,0,0,0,0,0,0,0,0,0,0,0,0,0,0,0,0,0,0,0,0,0,0,0,0,0,0,0,0,0,0,0,0,0,0,0,0,0,0,0,0],"trees":[{"base_weights":[-2.2719873E-3,-1.0632704E0,2.0773907E0,-1.3360525E0,-2.5628048E-1,1.1433576E0,2.3113396E0,-1.4622326E0,-1.0392785E0,1.7491722E0,-3.721908E-1,1.5477443E0,-5.274277E-1,1.9523638E0,2.3344438E-1,-1.7383441E-1,-1.392806E0,-1.0254012E-1,-1.1521204E0,1.9380596E0,-1.5326157E-1,-1.5016139E-1,-1.289952E0,1.8524094E0,3.7286952E-1,-1.1974331E0,1.1830293E0,2.0753567E0,-1.14302255E-1,-1.422853E0,-9.2948955E-1,1.6928498E0,-8.872229E-1,-1.1981963E0,-2.0166469E-1,4.5096833E-2,2.0487598E-1,-3.1941813E-1,8.4800524E-1,-1.331009E0,1.296925E-1,1.3956544E0,2.0193243E0,-8.3047915E-1,1.5840776E0,2.1254992E-1,-1.4066241E0,2.300446E-1,-1.0753499E0,2.1663477E0,-3.36343E-2,1.296925E-1,-1.5326157E-1,-1.4475926E0,-1.0759426E0,-1.516786E-1,-5.205287E-1,1.9650391E0,-3.36343E-2,-1.1553744E0,1.54433E-1,-1.2618477E0,-4.9403948E-1,-1.8908834E-2,-1.588558E-1,-6.723138E-1,-1.3989887E-1,1.4762297E0,5.8311284E-1,-1.0786953E0,-1.6274282E0,1.5683353E0,-7.893658E-2,1.4220423E0,2.0881786E0,-1.556934E-1,1.9221571E-1,9.089074E-1,2.3038085E-1,-4.0483108E-1,-1.7243765E-1,-7.1245553E-3,-1.6065504E-1,2.3391159E-1,1.7816298E0,-1.4626304E0,-9.7823817E-1,-9.236407E-1,-1.7081994E-1,-7.6459116E-1,5.0827056E-1,1.2233115E0,2.3067561E-1,-1.2784092E0,1.296925E-1,-1.66642E-1,-1.2171208E0,-1.016107E0,-0E0,-8.2963705E-1,3.2953733E-1,-1.7114128E-1,-5.541051E-1,-8.257255E-1,-2.4203848E-2,1.6277975E0,-7.1245553E-3,-3.5005484E-2,8.441718E-1,-1.3334339E0,-2.2562495E-1,-6.747704E-2,-1.676437E0,4.3947837E-1,1.760616E0,1.7757617E-1,-3.36343E-2,8.462449E-2,2.122447E-1,1.3967774E0,-1.5326157E-1,-1.6671088E-1,1.7412387E-1,2.229588E-1,-6.747704E-2,-1.4730714E-1,-1.113868E-1,-3.1225367E-2,-1.5404151E-1,-9.9386774E-2,-3.1817727E-2,4.394784E-2,-1.06960975E-1,-3.8123485E-2,1.7412387E-1,1.8312555E-2,2.1791176E-1,-8.891778E-2,-1.7162128E-1,-1.7274588E-1,-1.1709424E-1,-1.6821016E-1,-6.3236944E-2,5.8822997E-2,-7.719406E-2,-1.1430225E-2,-1.6065504E-1,9.035235E-2,-6.497459E-2,-8.975909E-3,-7.835714E-2,-6.486378E-2,-1.6789642E-1,6.608806E-3,-7.6522745E-2,1.9304292E-1,3.787944E-2,8.998397E-2,-1.2569658E-1,-2.2968015E-2,1.0528733E-1,-1.4490551E-1,-8.0907576E-2,6.222714E-2,-9.937923E-2,-1.731262E-1,-7.893658E-2,1.1669139E-1,-1.1430225E-2,2.0475844E-1,1.5048197E-1,1.0295247E-1,2.1791176E-1],"categories":[],"categories_nodes":[],"categories_segments":[],"categories_sizes":[],"default_left":[0,0,0,0,0,0,0,0,0,0,0,0,0,0,0,0,0,0,0,0,0,0,0,0,0,0,0,0,0,0,0,0,0,0,0,0,0,0,0,0,0,0,0,0,0,0,0,0,0,0,0,0,0,0,0,0,0,0,0,0,0,0,0,0,0,0,0,0,0,0,0,0,0,0,0,0,0,0,0,0,0,0,0,0,0,0,0,0,0,0,0,0,0,0,0,0,0,0,0,0,0,0,0,0,0,0,0,0,0,0,0,0,0,0,0,0,0,0,0,0,0,0,0,0,0,0,0,0,0,0,0,0,0,0,0,0,0,0,0,0,0,0,0,0,0,0,0,0,0,0,0,0,0,0,0,0,0,0,0,0,0,0,0,0,0,0,0,0,0,0,0,0,0],"id":0,"left_children":[1,3,5,7,9,11,13,15,17,19,21,23,25,27,-1,-1,29,31,33,35,-1,37,39,41,43,45,47,49,51,53,55,57,59,61,63,-1,-1,65,67,69,-1,71,73,75,77,-1,79,-1,81,83,-1,-1,-1,85,87,-1,89,91,-1,93,-1,95,97,99,-1,101,103,105,107,109,111,113,-1,115,117,-1,-1,119,-1,121,-1,-1,-1,-1,123,125,127,129,-1,131,133,135,-1,137,-1,-1,139,141,143,145,147,-1,149,151,153,155,-1,157,159,161,163,-1,165,167,169,-1,-1,-1,-1,171,-1,-1,-1,-1,-1,-1,-1,-1,-1,-1,-1,-1,-1,-1,-1,-1,-1,-1,-1,-1,-1,-1,-1,-1,-1,-1,-1,-1,-1,-1,-1,-1,-1,-1,-1,-1,-1,-1,-1,-1,-1,-1,-1,-1,-1,-1,-1,-1,-1,-1,-1,-1,-1],"loss_changes":[5.748355E3,3.7956482E2,1.9170166E2,4.787451E1,1.01285194E2,1.1947861E2,4.951172E0,1.6776001E1,4.0578552E1,1.5087959E1,8.385936E1,5.0619232E1,3.9604347E1,1.1256454E1,0E0,0E0,9.700928E0,5.8700577E1,1.4886353E1,3.3736649E0,0E0,5.610137E1,8.696396E0,7.9803467E0,4.317556E1,1.7489525E1,2.4848164E1,9.2599945E0,5.2022014E0,5.4177246E0,1.0414612E1,7.217407E0,1.9090322E1,1.4448059E1,3.9197237E0,0E0,0E0,1.7914572E1,7.7136955E0,5.466522E0,0E0,1.178014E1,2.7351685E0,2.9883081E1,6.645851E0,0E0,7.182316E0,0E0,1.5538783E0,1.8028107E0,0E0,0E0,0E0,4.0811768E0,3.993599E0,0E0,6.720463E0,2.2072144E0,0E0,8.090664E0,0E0,4.942871E0,7.135766E0,4.1452417E0,0E0,1.1423176E1,1.488533E1,3.4723072E0,5.5891123E0,9.198376E0,1.3312607E0,5.892021E0,0E0,5.780733E0,2.6472473E0,0E0,0E0,9.559193E0,0E0,1.613995E1,0E0,0E0,0E0,0E0,1.4466667E1,1.8094482E0,7.3151684E0,1.4227562E0,0E0,8.022314E0,5.7565217E0,3.5438576E0,0E0,3.8650856E0,0E0,0E0,5.89447E0,3.087369E0,6.4633675E0,2.2789154E0,5.7368426E0,0E0,9.078012E0,3.754488E0,1.08931055E1,4.570938E0,0E0,1.1701012E1,5.5085335E0,1.6663284E0,6.703944E0,0E0,1.2670059E0,1.8746145E0,1.1171494E0,0E0,0E0,0E0,0E0,1.3610878E0,0E0,0E0,0E0,0E0,0E0,0E0,0E0,0E0,0E0,0E0,0E0,0E0,0E0,0E0,0E0,0E0,0E0,0E0,0E0,0E0,0E0,0E0,0E0,0E0,0E0,0E0,0E0,0E0,0E0,0E0,0E0,0E0,0E0,0E0,0E0,0E0,0E0,0E0,0E0,0E0,0E0,0E0,0E0,0E0,0E0,0E0,0E0,0E0,0E0,0E0,0E0,0E0,0E0],"parents":[2147483647,0,0,1,1,2,2,3,3,4,4,5,5,6,6,7,7,8,8,9,9,10,10,11,11,12,12,13,13,16,16,17,17,18,18,19,19,21,21,22,22,23,23,24,24,25,25,26,26,27,27,28,28,29,29,30,30,31,31,32,32,33,33,34,34,37,37,38,38,39,39,41,41,42,42,43,43,44,44,46,46,48,48,49,49,53,53,54,54,56,56,57,57,59,59,61,61,62,62,63,63,65,65,66,66,67,67,68,68,69,69,70,70,71,71,73,73,74,74,77,77,79,79,84,84,85,85,86,86,87,87,89,89,90,90,91,91,93,93,96,96,97,97,98,98,99,99,100,100,102,102,103,103,104,104,105,105,107,107,108,108,109,109,110,110,112,112,113,113,114,114,119,119],"right_children":[2,4,6,8,10,12,14,16,18,20,22,24,26,28,-1,-1,30,32,34,36,-1,38,40,42,44,46,48,50,52,54,56,58,60,62,64,-1,-1,66,68,70,-1,72,74,76,78,-1,80,-1,82,84,-1,-1,-1,86,88,-1,90,92,-1,94,-1,96,98,100,-1,102,104,106,108,110,112,114,-1,116,118,-1,-1,120,-1,122,-1,-1,-1,-1,124,126,128,130,-1,132,134,136,-1,138,-1,-1,140,142,144,146,148,-1,150,152,154,156,-1,158,160,162,164,-1,166,168,170,-1,-1,-1,-1,172,-1,-1,-1,-1,-1,-1,-1,-1,-1,-1,-1,-1,-1,-1,-1,-1,-1,-1,-1,-1,-1,-1,-1,-1,-1,-1,-1,-1,-1,-1,-1,-1,-1,-1,-1,-1,-1,-1,-1,-1,-1,-1,-1,-1,-1,-1,-1,-1,-1,-1,-1,-1,-1],"split_conditions":[1.04E2,2.2E1,2.93E2,9E0,1E0,3.3E1,6.4E1,1E0,1E0,1E0,2E0,3E0,1E0,2.7E1,2.3344438E-1,-1.7383441E-1,1E0,1E0,1.1E1,1E1,-1.5326157E-1,3E1,2E0,1.32E2,1E0,1E0,1.2E1,5.2E1,3E0,4E0,1E0,2E1,1.1E1,1E0,1E0,4.5096833E-2,2.0487598E-1,3E0,1E0,1.2E1,1.296925E-1,3.6E1,2.6E1,4.9E1,1.91E2,2.1254992E-1,3.9E1,2.300446E-1,4E0,3.1E1,-3.36343E-2,1.296925E-1,-1.5326157E-1,4E0,1E0,-1.516786E-1,3E0,1.3E1,-3.36343E-2,1E0,1.54433E-1,1E0,4E0,1.8E1,-1.588558E-1,7E0,5E0,2E1,1.3E1,2.1E1,5E0,1.8E1,-7.893658E-2,2E0,1.9E1,-1.556934E-1,1.9221571E-1,4E0,2.3038085E-1,3.9E1,-1.7243765E-1,-7.1245553E-3,-1.6065504E-1,2.3391159E-1,1.34E2,7E0,7E0,1E0,-1.7081994E-1,3E0,2E0,1E0,2.3067561E-1,1E0,1.296925E-1,-1.66642E-1,1E0,1.2E1,1.6E1,1.2E1,1E0,-1.7114128E-1,1E0,3E0,5E0,5E0,-7.1245553E-3,6.5E1,4E0,1.1E1,2.7E1,-6.747704E-2,2.4E1,1.1E2,2.9E1,1.7757617E-1,-3.36343E-2,8.462449E-2,2.122447E-1,1.4E1,-1.5326157E-1,-1.6671088E-1,1.7412387E-1,2.229588E-1,-6.747704E-2,-1.4730714E-1,-1.113868E-1,-3.1225367E-2,-1.5404151E-1,-9.9386774E-2,-3.1817727E-2,4.394784E-2,-1.06960975E-1,-3.8123485E-2,1.7412387E-1,1.8312555E-2,2.1791176E-1,-8.891778E-2,-1.7162128E-1,-1.7274588E-1,-1.1709424E-1,-1.6821016E-1,-6.3236944E-2,5.8822997E-2,-7.719406E-2,-1.1430225E-2,-1.6065504E-1,9.035235E-2,-6.497459E-2,-8.975909E-3,-7.835714E-2,-6.486378E-2,-1.6789642E-1,6.608806E-3,-7.6522745E-2,1.9304292E-1,3.787944E-2,8.998397E-2,-1.2569658E-1,-2.2968015E-2,1.0528733E-1,-1.4490551E-1,-8.0907576E-2,6.222714E-2,-9.937923E-2,-1.731262E-1,-7.893658E-2,1.1669139E-1,-1.1430225E-2,2.0475844E-1,1.5048197E-1,1.0295247E-1,2.1791176E-1],"split_indices":[11,11,11,11,13,0,13,0,13,12,2,2,10,17,0,0,10,12,12,0,0,12,10,11,10,12,17,0,2,12,13,11,12,10,2,0,0,0,17,0,0,13,13,13,11,0,0,0,2,0,0,0,0,13,2,0,0,11,0,10,0,12,12,11,0,12,12,13,13,12,13,13,0,2,12,0,0,2,0,13,0,0,0,0,12,0,11,17,0,11,12,2,0,17,0,0,0,11,11,12,17,0,17,17,17,0,0,11,0,0,12,0,13,11,12,0,0,0,0,17,0,0,0,0,0,0,0,0,0,0,0,0,0,0,0,0,0,0,0,0,0,0,0,0,0,0,0,0,0,0,0,0,0,0,0,0,0,0,0,0,0,0,0,0,0,0,0,0,0,0,0,0,0],"split_type":[0,0,0,0,0,0,0,0,0,0,0,0,0,0,0,0,0,0,0,0,0,0,0,0,0,0,0,0,0,0,0,0,0,0,0,0,0,0,0,0,0,0,0,0,0,0,0,0,0,0,0,0,0,0,0,0,0,0,0,0,0,0,0,0,0,0,0,0,0,0,0,0,0,0,0,0,0,0,0,0,0,0,0,0,0,0,0,0,0,0,0,0,0,0,0,0,0,0,0,0,0,0,0,0,0,0,0,0,0,0,0,0,0,0,0,0,0,0,0,0,0,0,0,0,0,0,0,0,0,0,0,0,0,0,0,0,0,0,0,0,0,0,0,0,0,0,0,0,0,0,0,0,0,0,0,0,0,0,0,0,0,0,0,0,0,0,0,0,0,0,0,0,0],"sum_hessian":[2.6050151E3,1.7250363E3,8.799789E2,1.2891E3,4.3593628E2,1.7646497E2,7.035139E2,9.040103E2,3.8508957E2,2.369523E1,4.1224106E2,1.4213155E2,3.4333427E1,4.3319656E1,6.601942E2,1.8086415E2,7.231462E2,4.151731E1,3.4357227E2,2.2473175E1,1.2220551E0,3.321186E2,8.012247E1,1.12750595E2,2.9380945E1,2.4733494E1,9.599934E0,4.093167E1,2.3879876E0,6.7870776E2,4.443846E1,1.2552787E1,2.8964525E1,3.2756152E2,1.6010742E1,1.6547546E0,2.081842E1,2.8411078E2,4.800781E1,7.8956535E1,1.1659327E0,3.0586721E1,8.216387E1,1.4712643E1,1.4668303E1,1.3822825E0,2.3351212E1,6.4506516E0,3.149282E0,3.9493267E1,1.4384048E0,1.1659327E0,1.2220551E0,6.32963E2,4.57447E1,1.8030293E1,2.640817E1,1.1114383E1,1.4384048E0,2.61719E1,2.7926261E0,3.0020377E2,2.7357754E1,1.4299865E1,1.7108771E0,9.551587E1,1.8859491E2,1.3991192E1,3.4016617E1,4.308424E1,3.5872295E1,2.8415083E1,2.1716378E0,8.8667E0,7.329717E1,1.1703667E1,3.008976E0,7.7568903E0,6.9114122E0,5.753619E0,1.7597593E1,1.1939938E0,1.955288E0,2.6724129E1,1.2769137E1,6.129014E2,2.0061625E1,3.7190315E1,8.554385E0,2.1443907E1,4.964264E0,3.742209E0,7.3721733E0,2.5005966E1,1.1659327E0,2.930126E1,2.709025E2,1.33022995E1,1.4055454E1,4.3432755E0,9.95659E0,9.532029E0,8.598383E1,2.7009237E1,1.6158566E2,1.2797198E1,1.1939938E0,1.0012712E1,2.4003904E1,3.304347E1,1.0040772E1,1.9272269E0,3.394507E1,4.2590923E0,2.415599E1,7.4282956E0,1.4384048E0,2.1155155E0,7.1181656E1,6.5348353E0,1.2220551E0,3.666165E0,2.0874543E0,1.084191E1,1.9272269E0,5.9449457E2,1.840687E1,9.335601E0,1.0726023E1,3.311951E1,4.0708036E0,4.2590923E0,1.7184814E1,2.8768096E0,2.0874543E0,1.8991656E0,1.8430433E0,1.3518649E1,1.1487317E1,2.199699E1,2.4890552E2,4.6438093E0,8.65849E0,8.029363E0,6.0260916E0,2.3879876E0,1.955288E0,6.3465466E0,3.6100428E0,2.862779E1,5.7356045E1,2.2609838E1,4.3993983E0,1.4399622E2,1.7589453E1,1.0192861E1,2.6043375E0,5.6413746E0,4.371337E0,3.8263927E0,2.0177511E1,2.6772966E1,6.2705026E0,4.719853E0,5.32092E0,3.1773432E1,2.1716378E0,1.8711045E0,2.3879876E0,1.0869971E1,1.328602E1,4.691792E0,1.8430433E0],"tree_param":{"num_deleted":"0","num_feature":"19","num_nodes":"173","size_leaf_vector":"1"}},{"base_weights":[-4.1057463E-3,-1.2138505E0,1.6779878E0,-1.4401017E0,1.2030196E0,3.6995837E-1,1.9399557E0,-1.4856812E0,-9.6216714E-1,1.7050073E-1,1.9648936E0,-1.4186066E-1,6.27377E-1,1.6046413E0,2.0436071E-1,-1.6238584E-1,-1.3957571E0,-1.0917017E0,1.0079881E0,1.1143159E0,-1.1714133E0,1.0888212E0,2.0090099E-1,-2.7036765E-1,1.6649096E-1,4.7833067E-1,1.4068984E0,1.5565969E0,2.130734E-1,-1.4781199E0,-1.2963481E0,-1.204168E0,-3.3519343E-1,-6.9386214E-2,1.6354465E0,7.9760635E-1,1.8519331E0,-1.5241257E0,-0E0,9.227428E-3,2.0008336E-1,-1.6408952E-1,-1.04247026E-1,5.692258E-1,-8.550698E-2,1.5070547E0,-2.931686E-3,1.7183819E0,1.3363315E0,-1.4993699E-1,-9.4622695E-1,-6.328181E-1,-1.3542464E0,6.6916965E-2,-1.2599652E0,2.2196214E-1,-1.5960108E-1,2.1702397E-1,-1.6493455E-2,1.4348985E0,2.205241E-1,9.442838E-2,2.0537995E-1,-1.6239528E-1,-3.0561537E-2,-1.5530458E-1,1.3159806E-1,-2.8097695E-2,3.1949154E-1,3.2666668E-1,9.6728206E-1,7.7256304E-1,-1.0434026E0,1.6925856E0,8.593014E-1,1.2847589E0,1.867401E0,8.902604E-1,1.4648145E0,-4.2377004E-1,-1.3980781E0,-1.2609056E0,5.9722716E-1,-1.267452E0,-1.518081E0,-4.078194E-2,1.2572695E-1,-1.014852E0,-1.502687E0,-3.173786E-1,2.0200288E-1,9.35031E-1,1.875556E-1,-1.6053161E-1,7.530895E-1,-4.016755E-2,4.8527968E-1,-8.008779E-2,6.2287813E-1,2.097427E-1,8.050668E-1,1.3701427E0,-1.5114713E-1,1.4308898E-1,-1.5938811E-1,1.4253085E0,2.2315238E-1,2.7155856E-2,1.86994E-1,1.5490295E0,9.464974E-1,1.9928552E0,1.627745E0,1.1313566E0,-4.2075142E-1,1.8567161E-1,1.202827E0,1.2628277E-1,-1.2593542E-1,-0E0,-1.6101862E-1,-1.341934E-1,-0E0,9.943226E-2,-1.4759544E-1,-1.2839931E-1,-5.9295442E-2,-1.5334623E-1,-2.5334614E-3,-9.1962665E-2,-1.7068781E-1,-1.6038954E-1,-9.576987E-2,-1.1055081E-1,1.9826196E-2,-1.9411676E-2,1.2939918E-1,1.1153474E-2,1.7688745E-1,1.5247385E-1,2.31372E-3,1.1034693E-2,-1.5413772E-1,5.4310393E-2,2.1646443E-1,4.653801E-2,1.0165896E-1,-0E0,1.7098458E-1,1.635625E-1,-0E0,1.3449402E-1,2.2653654E-1,-2.1576477E-2,1.6675769E-1,9.200413E-2,2.0634885E-1,2.0455566E-1,1.4739768E-1,7.0894495E-2,1.4760737E-1,-1.5569226E-1,4.001679E-2,-5.3031772E-2,1.3681357E-1],"categories":[],"categories_nodes":[],"categories_segments":[],"categories_sizes":[],"default_left":[0,0,0,0,0,0,0,0,0,0,0,0,0,0,0,0,0,0,0,0,0,0,0,0,0,0,0,0,0,0,0,0,0,0,0,0,0,0,0,0,0,0,0,0,0,0,0,0,0,0,0,0,0,0,0,0,0,0,0,0,0,0,0,0,0,0,0,0,0,0,0,0,0,0,0,0,0,0,0,0,0,0,0,0,0,0,0,0,0,0,0,0,0,0,0,0,0,0,0,0,0,0,0,0,0,0,0,0,0,0,0,0,0,0,0,0,0,0,0,0,0,0,0,0,0,0,0,0,0,0,0,0,0,0,0,0,0,0,0,0,0,0,0,0,0,0,0,0,0,0,0,0,0,0,0,0,0,0,0,0,0,0,0,0,0],"id":1,"left_children":[1,3,5,7,9,11,13,15,17,19,21,23,25,27,-1,-1,29,31,33,35,37,39,-1,41,-1,43,45,47,-1,49,51,53,55,-1,57,59,61,63,65,-1,-1,67,-1,69,71,73,-1,75,77,-1,79,81,83,85,87,89,-1,-1,-1,91,93,-1,-1,-1,-1,-1,-1,-1,95,97,99,101,103,105,107,109,111,113,115,117,119,121,123,125,127,-1,-1,129,131,133,-1,135,-1,-1,137,-1,139,141,143,-1,145,147,-1,-1,-1,149,-1,-1,-1,151,153,155,157,159,161,-1,163,-1,-1,-1,-1,-1,-1,-1,-1,-1,-1,-1,-1,-1,-1,-1,-1,-1,-1,-1,-1,-1,-1,-1,-1,-1,-1,-1,-1,-1,-1,-1,-1,-1,-1,-1,-1,-1,-1,-1,-1,-1,-1,-1,-1,-1,-1,-1,-1],"loss_changes":[5.2652163E3,8.232095E2,3.7058936E2,2.9594482E1,1.0111456E2,2.3877224E1,3.064624E1,1.5079346E1,3.082061E1,6.962392E1,2.3345032E0,1.3941531E1,1.3737545E1,4.6986694E0,0E0,0E0,5.770508E0,9.418091E0,8.137679E0,7.1354446E0,9.393364E0,3.2972603E0,0E0,4.5047164E0,0E0,5.248337E0,2.9101448E0,6.4593506E0,0E0,4.3099365E0,1.3033691E1,7.0925903E0,1.0622646E1,0E0,5.53047E0,8.215689E0,1.2533531E0,1.8777657E0,1.1097362E1,0E0,0E0,2.829265E0,0E0,8.283531E0,1.1620505E1,1.761383E0,0E0,6.71756E0,4.438507E0,0E0,3.6335678E0,2.1888386E1,4.0598145E0,2.4809234E0,5.197342E0,1.0271096E1,0E0,0E0,0E0,1.9159012E0,1.1903835E1,0E0,0E0,0E0,0E0,0E0,0E0,0E0,1.1763651E0,6.644054E0,5.5739174E0,1.0280607E1,9.391927E0,1.2985306E0,2.306253E0,2.2210884E0,1.8201599E0,6.1794357E0,6.119156E0,1.1233754E1,2.4971504E0,1.8434696E0,7.943151E0,2.0711365E0,2.35289E0,0E0,0E0,2.7012634E0,2.176834E0,3.3658576E0,0E0,2.304285E0,0E0,0E0,6.0220494E0,0E0,3.669608E0,6.553698E0,3.5199966E0,0E0,1.889452E0,2.8173742E0,0E0,0E0,0E0,3.0378761E0,0E0,0E0,0E0,1.6900597E0,1.1297898E1,3.604065E0,1.2396545E0,2.0485668E0,2.9639463E0,0E0,1.1400478E1,0E0,0E0,0E0,0E0,0E0,0E0,0E0,0E0,0E0,0E0,0E0,0E0,0E0,0E0,0E0,0E0,0E0,0E0,0E0,0E0,0E0,0E0,0E0,0E0,0E0,0E0,0E0,0E0,0E0,0E0,0E0,0E0,0E0,0E0,0E0,0E0,0E0,0E0,0E0,0E0,0E0,0E0,0E0,0E0,0E0,0E0,0E0,0E0],"parents":[2147483647,0,0,1,1,2,2,3,3,4,4,5,5,6,6,7,7,8,8,9,9,10,10,11,11,12,12,13,13,16,16,17,17,18,18,19,19,20,20,21,21,23,23,25,25,26,26,27,27,29,29,30,30,31,31,32,32,34,34,35,35,36,36,37,37,38,38,41,41,43,43,44,44,45,45,47,47,48,48,50,50,51,51,52,52,53,53,54,54,55,55,59,59,60,60,68,68,69,69,70,70,71,71,72,72,73,73,74,74,75,75,76,76,77,77,78,78,79,79,80,80,81,81,82,82,83,83,84,84,87,87,88,88,89,89,91,91,94,94,96,96,97,97,98,98,100,100,101,101,105,105,109,109,110,110,111,111,112,112,113,113,114,114,116,116],"right_children":[2,4,6,8,10,12,14,16,18,20,22,24,26,28,-1,-1,30,32,34,36,38,40,-1,42,-1,44,46,48,-1,50,52,54,56,-1,58,60,62,64,66,-1,-1,68,-1,70,72,74,-1,76,78,-1,80,82,84,86,88,90,-1,-1,-1,92,94,-1,-1,-1,-1,-1,-1,-1,96,98,100,102,104,106,108,110,112,114,116,118,120,122,124,126,128,-1,-1,130,132,134,-1,136,-1,-1,138,-1,140,142,144,-1,146,148,-1,-1,-1,150,-1,-1,-1,152,154,156,158,160,162,-1,164,-1,-1,-1,-1,-1,-1,-1,-1,-1,-1,-1,-1,-1,-1,-1,-1,-1,-1,-1,-1,-1,-1,-1,-1,-1,-1,-1,-1,-1,-1,-1,-1,-1,-1,-1,-1,-1,-1,-1,-1,-1,-1,-1,-1,-1,-1,-1,-1],"split_conditions":[1E0,1.42E2,2.2E1,5.3E1,3.15E2,5E0,1.91E2,1E0,2E0,2.9E1,6E1,3E0,1E0,3E0,2.0436071E-1,-1.6238584E-1,8E0,2.7E1,5E0,4.5E1,2.7E1,3.59E2,2.0090099E-1,1E0,1.6649096E-1,4E0,2E0,3E0,2.130734E-1,3E0,1E0,5E0,1.3E1,-6.9386214E-2,1.2E1,1.5E1,7E0,2E0,7E0,9.227428E-3,2.0008336E-1,1E0,-1.04247026E-1,3E0,2E0,1.7E1,-2.931686E-3,2E0,4E1,-1.4993699E-1,1E0,1.3E1,2E0,6E0,1E1,8E0,-1.5960108E-1,2.1702397E-1,-1.6493455E-2,1.2E1,5E0,9.442838E-2,2.0537995E-1,-1.6239528E-1,-3.0561537E-2,-1.5530458E-1,1.3159806E-1,-2.8097695E-2,2E0,9E0,7E0,1.9E1,2E0,1.2E1,4E0,7E0,2E0,3.4E1,9E0,8E0,3E0,3E0,2E0,1.3E1,1.2E1,-4.078194E-2,1.2572695E-1,2E1,1.1E2,6E0,2.0200288E-1,2.6E1,1.875556E-1,-1.6053161E-1,1E0,-4.016755E-2,3E0,2E0,2E0,2.097427E-1,1E0,1E1,-1.5114713E-1,1.4308898E-1,-1.5938811E-1,1.1E1,2.2315238E-1,2.7155856E-2,1.86994E-1,6E0,1.1E1,2.5E1,2.8E1,2.7E1,3.7E1,1.8567161E-1,1.5E1,1.2628277E-1,-1.2593542E-1,-0E0,-1.6101862E-1,-1.341934E-1,-0E0,9.943226E-2,-1.4759544E-1,-1.2839931E-1,-5.9295442E-2,-1.5334623E-1,-2.5334614E-3,-9.1962665E-2,-1.7068781E-1,-1.6038954E-1,-9.576987E-2,-1.1055081E-1,1.9826196E-2,-1.9411676E-2,1.2939918E-1,1.1153474E-2,1.7688745E-1,1.5247385E-1,2.31372E-3,1.1034693E-2,-1.5413772E-1,5.4310393E-2,2.1646443E-1,4.653801E-2,1.0165896E-1,-0E0,1.7098458E-1,1.635625E-1,-0E0,1.3449402E-1,2.2653654E-1,-2.1576477E-2,1.6675769E-1,9.200413E-2,2.0634885E-1,2.0455566E-1,1.4739768E-1,7.0894495E-2,1.4760737E-1,-1.5569226E-1,4.001679E-2,-5.3031772E-2,1.3681357E-1],"split_indices":[9,11,11,11,11,11,11,1,10,0,13,0,10,9,0,0,11,13,0,13,14,11,0,14,0,0,10,1,0,1,13,13,0,0,14,0,14,10,1,0,0,13,0,13,13,11,0,14,11,0,13,11,1,0,0,14,0,0,0,0,1,0,0,0,0,0,0,0,11,11,11,11,1,11,0,13,1,11,14,0,11,1,14,13,14,0,0,13,11,0,0,13,0,0,10,0,11,14,9,0,14,11,0,0,0,11,0,0,0,13,13,11,11,11,11,0,13,0,0,0,0,0,0,0,0,0,0,0,0,0,0,0,0,0,0,0,0,0,0,0,0,0,0,0,0,0,0,0,0,0,0,0,0,0,0,0,0,0,0,0,0,0,0,0,0],"split_type":[0,0,0,0,0,0,0,0,0,0,0,0,0,0,0,0,0,0,0,0,0,0,0,0,0,0,0,0,0,0,0,0,0,0,0,0,0,0,0,0,0,0,0,0,0,0,0,0,0,0,0,0,0,0,0,0,0,0,0,0,0,0,0,0,0,0,0,0,0,0,0,0,0,0,0,0,0,0,0,0,0,0,0,0,0,0,0,0,0,0,0,0,0,0,0,0,0,0,0,0,0,0,0,0,0,0,0,0,0,0,0,0,0,0,0,0,0,0,0,0,0,0,0,0,0,0,0,0,0,0,0,0,0,0,0,0,0,0,0,0,0,0,0,0,0,0,0,0,0,0,0,0,0,0,0,0,0,0,0,0,0,0,0,0,0],"sum_hessian":[2.587275E3,1.5049891E3,1.0822858E3,1.3762368E3,1.287523E2,1.8069286E2,9.0159283E2,1.256032E3,1.2020481E2,5.477411E1,7.3978195E1,6.0352295E1,1.2034056E2,2.1350676E2,6.880861E2,4.9405292E2,7.6197906E2,1.1287857E2,7.326244E0,3.2210686E1,2.2563421E1,3.778508E0,7.019969E1,5.6475822E1,3.8764741E0,1.012676E2,1.9072956E1,1.9617722E2,1.7329552E1,4.1540952E2,3.4656955E2,9.8102776E1,1.4775792E1,1.9277282E0,5.3985157E0,2.2775368E1,9.435318E0,1.7331352E1,5.2320704E0,1.9105903E0,1.8679175E0,4.9863056E1,6.6127667E0,8.7360756E1,1.3906851E1,1.7890064E1,1.1828914E0,1.1244916E2,8.372805E1,3.990951E2,1.6314432E1,2.8048311E1,3.1852124E2,4.049158E0,9.405362E1,1.024958E1,4.5262117E0,4.189152E0,1.2093639E0,1.0670086E1,1.2105283E1,1.9101021E0,7.525216E0,1.5912381E1,1.4189706E0,2.3848717E0,2.8471985E0,4.035697E1,9.506084E0,5.455218E1,3.280857E1,7.290801E0,6.61605E0,1.3661443E1,4.228622E0,2.9178219E1,8.3270935E1,1.9074816E1,6.465324E1,7.75859E0,8.555841E0,1.8619555E1,9.428756E0,2.091854E2,1.0933584E2,2.8816354E0,1.1675228E0,4.7259056E1,4.6794563E1,7.9051247E0,2.3444555E0,5.251771E0,5.4183145E0,2.645677E0,9.459605E0,1.6375203E0,7.868564E0,2.2875353E1,3.167683E1,3.8909657E0,2.8917606E1,5.8452764E0,1.4455249E0,1.1418889E0,5.4741607E0,9.500064E0,4.161379E0,2.8164918E0,1.41213E0,1.6013744E1,1.3164476E1,5.390445E1,2.936649E1,1.618784E1,2.8869767E0,2.5507185E1,3.9146053E1,2.5137882E0,5.244802E0,1.1671022E0,7.388739E0,1.745087E1,1.1686841E0,7.9972444E0,1.4315116E0,2.0394527E2,5.2401156E0,1.0815173E2,1.1841048E0,4.1874374E1,5.384679E0,3.91469E1,7.647663E0,3.1579313E0,4.7471933E0,1.2107077E0,4.0410633E0,5.926158E0,3.533447E0,2.2843199E0,5.5842443E0,2.0259197E1,2.6161554E0,3.0308681E1,1.3681486E0,1.1401153E1,1.7516453E1,1.1640073E0,4.6812687E0,8.325486E0,1.1745777E0,1.2795549E1,3.2181938E0,5.014048E0,8.150428E0,3.5038967E0,5.040055E1,7.394337E0,2.1972153E1,7.5418773E0,8.645962E0,1.2244577E0,1.6625191E0,3.3367589E0,3.580929E1],"tree_param":{"num_deleted":"0","num_feature":"19","num_nodes":"165","size_leaf_vector":"1"}},{"base_weights":[-5.2090324E-3,-1.4334449E0,1.1910754E0,-1.4764069E0,-3.001605E-1,-1.5667148E-1,1.6028856E0,-1.4912857E0,-5.8472073E-1,5.072665E-1,-1.036868E0,-8.047996E-1,4.5276716E-1,9.9638784E-1,1.8234735E0,-1.5131104E0,-1.0440463E0,-1.1071541E0,1.0037795E0,-1.1896783E0,9.4605607E-1,-1.5395938E-1,1.7904648E-1,-8.6020285E-1,1.7752513E-1,-7.074685E-3,6.696724E-1,-1.4428397E-1,1.4393113E0,1.442025E0,1.8491428E-1,-1.5147968E-1,-1.4984074E-2,-5.125706E-1,-1.3482233E0,-1.2938348E0,-2.4075264E-1,2.4905603E-1,1.942873E-1,-2.4482017E-2,-1.6282795E-1,1.095726E0,-4.8401404E-2,-7.17274E-1,-1.3832153E-1,-1.3046382E-1,1.4618827E0,7.282246E-1,-1.5366818E-1,-4.6873903E-1,8.826264E-1,1.3886817E0,1.9088946E-1,1.7129833E-1,9.017872E-1,-1.2753829E0,4.17109E-1,-1.4758384E-1,-9.2882043E-1,-6.4547676E-1,-1.6165823E-1,1.23492315E-1,-1.5063035E-1,1.1078694E-1,-4.213802E-2,7.2325724E-1,1.4899691E0,-9.007038E-1,-1.2987372E-1,-3.3903956E-2,-8.639272E-2,8.2570784E-2,2.0574705E-1,7.918856E-1,1.5383656E-1,3.380731E-1,-9.2316204E-1,1.5938957E0,4.1521603E-1,1.527458E0,1.193433E0,-3.0125287E-1,1.6105068E-1,-7.709579E-1,-1.617656E-1,9.522605E-1,-1.5918325E-1,2.9909784E-1,-1.5429254E-1,-1.5230675E-1,9.316773E-2,1.4715339E-1,-0E0,5.940627E-2,1.8580562E-1,-9.319241E-1,-2.3718877E-1,1.1163778E0,-4.949781E-1,6.504003E-2,-8.2141596E-1,5.6056744E-1,1.0181619E0,-1.0853127E0,7.96548E-1,-1.5395892E-1,5.829248E-1,1.0372508E0,-1.1413068E0,9.3618476E-1,1.9083877E-1,1.9236623E-1,9.644248E-2,1.1717726E0,1.6471708E0,1.0998383E0,1.9197764E-1,1.770504E-1,-9.547665E-1,-0E0,-1.5594147E-1,-1.4619032E-1,1.5037231E-1,1.237819E-1,-4.3150835E-2,6.5966725E-2,-1.4766584E-1,-8.637054E-2,-1.2087671E-1,-1.4827622E-1,1.48423E-1,-6.218731E-5,1.7535415E-1,3.5972226E-2,-8.577353E-2,-4.1002715E-3,1.2453951E-1,-4.261592E-2,-1.4741641E-1,2.4295384E-2,1.08194284E-1,1.4533904E-1,8.605167E-2,-2.5114302E-2,-1.5121563E-1,1.4670287E-1,-2.8950814E-2,7.2139345E-2,-1.3771382E-1,-0E0,1.5122531E-1,-2.4211854E-2,-1.2594412E-1,-1.4553772E-3,1.7438954E-1,-1.5621714E-1,4.7408007E-2,1.8113042E-1,8.863189E-2,1.7700809E-1,1.4168264E-1,1.3126913E-1,4.8750762E-2,-1.6008614E-1,-0E0],"categories":[],"categories_nodes":[],"categories_segments":[],"categories_sizes":[],"default_left":[0,0,0,0,0,0,0,0,0,0,0,0,0,0,0,0,0,0,0,0,0,0,0,0,0,0,0,0,0,0,0,0,0,0,0,0,0,0,0,0,0,0,0,0,0,0,0,0,0,0,0,0,0,0,0,0,0,0,0,0,0,0,0,0,0,0,0,0,0,0,0,0,0,0,0,0,0,0,0,0,0,0,0,0,0,0,0,0,0,0,0,0,0,0,0,0,0,0,0,0,0,0,0,0,0,0,0,0,0,0,0,0,0,0,0,0,0,0,0,0,0,0,0,0,0,0,0,0,0,0,0,0,0,0,0,0,0,0,0,0,0,0,0,0,0,0,0,0,0,0,0,0,0,0,0,0,0,0,0,0,0,0,0,0,0],"id":2,"left_children":[1,3,5,7,9,11,13,15,17,19,21,23,25,27,29,31,33,35,37,39,41,-1,-1,43,-1,45,47,49,51,53,-1,-1,-1,55,57,59,61,63,-1,-1,-1,65,-1,67,-1,69,71,73,-1,75,77,79,-1,-1,81,83,85,-1,87,89,-1,-1,-1,-1,-1,91,93,95,97,99,-1,-1,-1,101,103,105,107,109,111,113,115,117,-1,119,-1,121,-1,123,-1,-1,-1,-1,125,-1,-1,127,129,131,133,135,137,139,141,143,145,-1,147,149,151,153,-1,-1,155,157,159,161,-1,-1,163,-1,-1,-1,-1,-1,-1,-1,-1,-1,-1,-1,-1,-1,-1,-1,-1,-1,-1,-1,-1,-1,-1,-1,-1,-1,-1,-1,-1,-1,-1,-1,-1,-1,-1,-1,-1,-1,-1,-1,-1,-1,-1,-1,-1,-1,-1],"loss_changes":[4.3381553E3,5.612793E1,7.6702185E2,1.4497559E1,2.5375837E1,1.2781457E2,1.4113184E2,1.0289307E1,1.5535801E1,1.5181929E1,3.1963917E1,2.2480804E1,1.6689907E1,1.4293573E2,7.0009766E0,2.213379E0,8.07917E0,2.0914173E0,2.9940786E0,1.4976907E0,3.5835E0,0E0,0E0,1.1176704E1,0E0,9.559084E0,1.4679985E1,2.6346212E1,4.2466736E0,6.8473206E0,0E0,0E0,0E0,1.3646326E1,1.367672E0,2.0674572E0,5.2786613E0,1.6844336E0,0E0,0E0,0E0,1.8393478E0,0E0,1.2925968E1,0E0,3.4050512E0,1.0880136E0,3.936512E0,0E0,2.2171272E1,6.0315285E0,4.541565E0,0E0,0E0,1.4595699E1,1.4571972E0,9.334078E0,0E0,6.2480736E0,5.845496E0,0E0,0E0,0E0,0E0,0E0,4.252089E0,1.9360065E0,1.7685013E0,1.3210149E1,3.4990346E0,0E0,0E0,0E0,4.9857674E0,9.06766E0,9.967859E0,1.665067E1,1.0660801E0,5.3827324E0,4.086273E0,4.7460327E0,8.617281E0,0E0,2.7843459E0,0E0,9.4013E0,0E0,1.9970802E0,0E0,0E0,0E0,0E0,4.113354E0,0E0,0E0,1.3459167E0,9.688879E0,4.837352E0,7.0869246E0,5.000847E0,1.0413942E0,8.050469E0,3.066349E0,1.157598E0,5.665468E0,0E0,5.2749224E0,2.0201864E0,3.522232E0,2.2416883E0,0E0,0E0,6.0909414E0,4.59573E0,1.6866455E0,8.734367E0,0E0,0E0,3.164483E0,0E0,0E0,0E0,0E0,0E0,0E0,0E0,0E0,0E0,0E0,0E0,0E0,0E0,0E0,0E0,0E0,0E0,0E0,0E0,0E0,0E0,0E0,0E0,0E0,0E0,0E0,0E0,0E0,0E0,0E0,0E0,0E0,0E0,0E0,0E0,0E0,0E0,0E0,0E0,0E0,0E0,0E0,0E0,0E0,0E0,0E0],"parents":[2147483647,0,0,1,1,2,2,3,3,4,4,5,5,6,6,7,7,8,8,9,9,10,10,11,11,12,12,13,13,14,14,15,15,16,16,17,17,18,18,19,19,20,20,23,23,25,25,26,26,27,27,28,28,29,29,33,33,34,34,35,35,36,36,37,37,41,41,43,43,45,45,46,46,47,47,49,49,50,50,51,51,54,54,55,55,56,56,58,58,59,59,65,65,66,66,67,67,68,68,69,69,73,73,74,74,75,75,76,76,77,77,78,78,79,79,80,80,81,81,83,83,85,85,87,87,92,92,95,95,96,96,97,97,98,98,99,99,100,100,101,101,102,102,103,103,104,104,106,106,107,107,108,108,109,109,112,112,113,113,114,114,115,115,118,118],"right_children":[2,4,6,8,10,12,14,16,18,20,22,24,26,28,30,32,34,36,38,40,42,-1,-1,44,-1,46,48,50,52,54,-1,-1,-1,56,58,60,62,64,-1,-1,-1,66,-1,68,-1,70,72,74,-1,76,78,80,-1,-1,82,84,86,-1,88,90,-1,-1,-1,-1,-1,92,94,96,98,100,-1,-1,-1,102,104,106,108,110,112,114,116,118,-1,120,-1,122,-1,124,-1,-1,-1,-1,126,-1,-1,128,130,132,134,136,138,140,142,144,146,-1,148,150,152,154,-1,-1,156,158,160,162,-1,-1,164,-1,-1,-1,-1,-1,-1,-1,-1,-1,-1,-1,-1,-1,-1,-1,-1,-1,-1,-1,-1,-1,-1,-1,-1,-1,-1,-1,-1,-1,-1,-1,-1,-1,-1,-1,-1,-1,-1,-1,-1,-1,-1,-1,-1,-1,-1],"split_conditions":[1E0,2.8E1,2.2E1,1E0,2.7E1,1E0,3.6E1,6.8E1,1.8E1,1E0,7.9E1,7E0,5E0,1E0,3.8E1,1.4E1,8E0,1E1,3.7E1,7.6E1,6E0,-1.5395938E-1,1.7904648E-1,2E0,1.7752513E-1,3E0,5E0,1.16E2,3E0,2.5E1,1.8491428E-1,-1.5147968E-1,-1.4984074E-2,2E0,1.1E2,3E0,2E0,3E0,1.942873E-1,-2.4482017E-2,-1.6282795E-1,3.8E1,-4.8401404E-2,1E1,-1.3832153E-1,1E0,2E0,3E0,-1.5366818E-1,2E0,1.5E1,3E0,1.9088946E-1,1.7129833E-1,9E0,2E0,8.9E1,-1.4758384E-1,1.5E1,2E0,-1.6165823E-1,1.23492315E-1,-1.5063035E-1,1.1078694E-1,-4.213802E-2,8E0,2.3E1,3E0,1E0,1E0,-8.639272E-2,8.2570784E-2,2.0574705E-1,2E0,1.3E1,3E0,2E0,2.3E1,1.2E1,2E0,3E1,1.8E1,1.6105068E-1,5E0,-1.617656E-1,1.4E1,-1.5918325E-1,1.24E2,-1.5429254E-1,-1.5230675E-1,9.316773E-2,1.4715339E-1,3.3E1,5.940627E-2,1.8580562E-1,1E0,8E0,1.2E1,2E0,4E0,4E0,3E0,1E0,9E0,2E0,-1.5395892E-1,9E0,1E1,5E0,3.3E1,1.9083877E-1,1.9236623E-1,2.8E1,3E0,2E0,1.4E1,1.9197764E-1,1.770504E-1,5.7E1,-0E0,-1.5594147E-1,-1.4619032E-1,1.5037231E-1,1.237819E-1,-4.3150835E-2,6.5966725E-2,-1.4766584E-1,-8.637054E-2,-1.2087671E-1,-1.4827622E-1,1.48423E-1,-6.218731E-5,1.7535415E-1,3.5972226E-2,-8.577353E-2,-4.1002715E-3,1.2453951E-1,-4.261592E-2,-1.4741641E-1,2.4295384E-2,1.08194284E-1,1.4533904E-1,8.605167E-2,-2.5114302E-2,-1.5121563E-1,1.4670287E-1,-2.8950814E-2,7.2139345E-2,-1.3771382E-1,-0E0,1.5122531E-1,-2.4211854E-2,-1.2594412E-1,-1.4553772E-3,1.7438954E-1,-1.5621714E-1,4.7408007E-2,1.8113042E-1,8.863189E-2,1.7700809E-1,1.4168264E-1,1.3126913E-1,4.8750762E-2,-1.6008614E-1,-0E0],"split_indices":[7,13,11,9,0,9,13,11,11,1,13,0,11,9,16,14,0,11,11,11,1,0,0,1,0,0,16,11,9,0,0,0,0,1,11,11,0,0,0,0,0,13,0,11,0,14,1,14,0,1,0,1,0,0,1,14,11,0,0,11,0,0,0,0,0,0,16,0,16,16,0,0,0,0,11,13,16,13,14,14,16,14,0,0,0,13,0,11,0,0,0,0,13,0,0,14,11,11,13,11,11,13,13,11,1,0,0,0,13,16,0,0,13,16,1,16,0,0,13,0,0,0,0,0,0,0,0,0,0,0,0,0,0,0,0,0,0,0,0,0,0,0,0,0,0,0,0,0,0,0,0,0,0,0,0,0,0,0,0,0,0,0,0,0,0],"split_type":[0,0,0,0,0,0,0,0,0,0,0,0,0,0,0,0,0,0,0,0,0,0,0,0,0,0,0,0,0,0,0,0,0,0,0,0,0,0,0,0,0,0,0,0,0,0,0,0,0,0,0,0,0,0,0,0,0,0,0,0,0,0,0,0,0,0,0,0,0,0,0,0,0,0,0,0,0,0,0,0,0,0,0,0,0,0,0,0,0,0,0,0,0,0,0,0,0,0,0,0,0,0,0,0,0,0,0,0,0,0,0,0,0,0,0,0,0,0,0,0,0,0,0,0,0,0,0,0,0,0,0,0,0,0,0,0,0,0,0,0,0,0,0,0,0,0,0,0,0,0,0,0,0,0,0,0,0,0,0,0,0,0,0,0,0],"sum_hessian":[2.5388328E3,1.1572562E3,1.3815764E3,1.1148737E3,4.238266E1,3.2330444E2,1.058272E3,1.0963995E3,1.8474043E1,2.017089E1,2.221177E1,1.5674292E2,1.6656152E2,2.8251453E2,7.757575E2,1.0449457E3,5.1453934E1,1.3972091E1,4.501952E0,4.0621567E0,1.6108734E1,1.8927246E1,3.284523E0,1.5355103E2,3.1918893E0,5.326813E1,1.13293396E2,7.897358E1,2.0354094E2,4.9518642E1,7.262389E2,1.0435703E3,1.3753469E0,1.8946608E1,3.2507328E1,1.13597E1,2.6123908E0,2.6251767E0,1.8767755E0,1.4095169E0,2.6526399E0,1.4667004E1,1.4417301E0,1.20931274E2,3.261975E1,4.9287304E1,3.980829E0,1.1047396E2,2.8194373E0,6.012778E1,1.8845798E1,1.8428078E2,1.9260166E1,3.2710423E1,1.6808224E1,1.0445962E1,8.500646E0,2.4547684E1,7.959645E0,3.978082E0,7.3816185E0,1.1707082E0,1.4416826E0,1.1876873E0,1.4374894E0,7.8179502E0,6.849053E0,9.198362E1,2.8947659E1,4.376645E1,5.5208554E0,2.1214013E0,1.8594278E0,9.926066E1,1.12133E1,2.1593977E1,3.8533802E1,7.2929683E0,1.1552831E1,1.0701999E2,7.726079E1,6.2000804E0,1.0608143E1,4.4723086E0,5.9736533E0,6.793371E0,1.7072746E0,2.6164477E0,5.343197E0,2.598827E0,1.379255E0,3.7763877E0,4.0415626E0,2.149744E0,4.699309E0,8.766745E1,4.316171E0,6.4503374E0,2.249732E1,3.885004E1,4.916408E0,4.9473972E1,4.9786686E1,3.7530174E0,7.4602823E0,2.3829513E0,1.9211025E1,3.77499E0,3.4758812E1,2.5906603E0,4.7023077E0,1.8729262E0,9.679904E0,2.7431349E1,7.9588646E1,6.878626E1,8.474528E0,1.4090852E0,4.790995E0,2.3097563E0,2.1625524E0,1.1988181E0,5.594553E0,1.1746478E0,1.4417999E0,2.84235E0,1.1992126E0,7.095594E1,1.6711506E1,2.5459466E0,1.7702246E0,2.3222325E0,4.128105E0,6.621478E0,1.5875843E1,3.5658314E1,3.191726E0,3.260545E0,1.6558633E0,3.095505E1,1.8518923E1,1.2851062E1,3.6935623E1,1.4034349E0,2.3495827E0,4.647889E0,2.8123932E0,1.805009E1,1.1609344E0,1.1686103E0,2.6063797E0,4.1700034E0,3.058881E1,1.1782084E0,1.412452E0,1.6879262E0,7.991978E0,8.192341E0,1.9239008E1,5.11779E1,2.8410742E1,5.0837044E1,1.7949215E1,2.874536E0,1.9164591E0],"tree_param":{"num_deleted":"0","num_feature":"19","num_nodes":"165","size_leaf_vector":"1"}},{"base_weights":[-5.9805107E-3,-1.0646206E0,1.3777333E0,-1.248569E0,1.2983774E0,2.98466E-1,1.5981131E0,-1.4091513E0,-6.325842E-1,4.989834E-1,1.648318E-1,-1.4214015E-1,4.194149E-1,1.2867109E0,1.6977201E-1,-1.4325306E0,-8.6505276E-1,-7.82718E-1,3.1896308E-1,1.2957296E0,-6.441517E-1,-0E0,6.222851E-1,1.3246765E0,6.6824305E-1,-1.4504241E0,-1.3281798E0,-1.0537848E0,1.5066946E-1,-8.9935726E-1,-3.722998E-1,-9.979043E-2,6.775031E-1,-6.5266626E-4,1.4540788E0,7.188944E-1,-1.3103094E0,3.3159935E-1,-4.4339648E-1,6.745659E-1,-1.4477114E-1,1.1216516E0,1.5448025E-1,1.6462025E-1,-1.6965131E-1,-1.4574848E-1,-1.2011273E0,-1.173288E0,-1.4239657E0,-6.19294E-1,-1.4747359E-1,-1.0242723E0,-5.8985263E-1,6.353029E-1,-8.165342E-1,6.8071204E-1,-9.3609494E-1,8.6684614E-1,-8.404546E-2,1.0084575E0,1.682687E-1,-1.2973198E-1,1.7091565E-1,-1.4895698E-1,-4.4123746E-2,-2.0566216E-2,8.117244E-1,-8.3598755E-2,1.8634106E-1,5.682549E-1,1.1940259E0,1.050446E0,1.7649637E-1,-8.892739E-2,-1.5071426E-1,-1.2933705E0,1.2026659E0,-1.4406E-1,-5.4700226E-2,-9.9250156E-1,5.579972E-1,-7.765756E-1,-1.2472798E0,-3.4109E-2,-9.9301356E-1,-6.83348E-1,1.2015185E0,-2.4954179E-1,-1.0283511E0,-6.726512E-2,1.1400472E0,-1.3405454E0,1.3470046E-1,1.2126676E0,1.963064E-1,1.3719194E-1,-3.5785783E-2,1.0973893E0,-7.5166516E-2,-3.7349558E-1,7.406269E-2,5.363068E-1,1.6988458E-1,1.4311814E0,1.542799E-1,1.1472307E0,1.6912402E-1,-1.00687444E-1,-1.4371532E-1,2.5373372E-1,-8.91255E-3,-1.5469433E-1,-3.9815675E-2,-0E0,1.7381677E-1,-5.7555545E-2,-1.19267166E-1,-1.2692516E-1,-1.0182251E-2,1.1879891E-1,-5.1426828E-2,-1.2619226E-1,-3.3346187E-2,-1.3953485E-1,2.2272563E-2,1.7246816E-1,-2.322142E-2,-9.701466E-2,1.367872E-1,-1.3190578E-1,-3.3966918E-2,1.9439214E-1,3.884371E-2,-1.5668142E-1,-3.1355355E-2,-0E0,1.350701E-1,-7.1024455E-2,1.4557776E-1,1.23829864E-1,-1.4227651E-2,6.971368E-4,-1.4138062E-1,5.9361007E-2,-5.4648235E-3,1.5870255E-1,5.2577253E-2,-8.137626E-2,1.6694626E-1,-5.1521637E-2,1.1773876E-1,-5.770573E-2,1.332072E-1],"categories":[],"categories_nodes":[],"categories_segments":[],"categories_sizes":[],"default_left":[0,0,0,0,0,0,0,0,0,0,0,0,0,0,0,0,0,0,0,0,0,0,0,0,0,0,0,0,0,0,0,0,0,0,0,0,0,0,0,0,0,0,0,0,0,0,0,0,0,0,0,0,0,0,0,0,0,0,0,0,0,0,0,0,0,0,0,0,0,0,0,0,0,0,0,0,0,0,0,0,0,0,0,0,0,0,0,0,0,0,0,0,0,0,0,0,0,0,0,0,0,0,0,0,0,0,0,0,0,0,0,0,0,0,0,0,0,0,0,0,0,0,0,0,0,0,0,0,0,0,0,0,0,0,0,0,0,0,0,0,0,0,0,0,0,0,0,0,0,0,0,0,0],"id":3,"left_children":[1,3,5,7,9,11,13,15,17,19,-1,-1,21,23,-1,25,27,29,31,33,35,37,39,41,43,45,47,49,-1,51,53,55,57,-1,59,61,63,65,67,69,-1,71,-1,-1,-1,-1,73,75,77,79,-1,81,83,85,87,89,91,93,-1,95,-1,-1,-1,-1,-1,-1,97,-1,99,101,103,105,-1,-1,-1,107,109,-1,-1,111,113,115,117,119,121,123,125,127,129,-1,131,133,-1,135,137,-1,-1,139,-1,141,-1,143,-1,145,147,149,151,-1,-1,-1,-1,-1,-1,-1,-1,-1,-1,-1,-1,-1,-1,-1,-1,-1,-1,-1,-1,-1,-1,-1,-1,-1,-1,-1,-1,-1,-1,-1,-1,-1,-1,-1,-1,-1,-1,-1,-1,-1,-1,-1,-1,-1,-1],"loss_changes":[3.6131428E3,6.0759753E2,2.540459E2,1.2796521E2,2.7940002E1,3.771134E1,2.7018066E1,1.2727051E1,3.841983E1,2.8350117E1,0E0,0E0,1.4490311E1,4.779114E0,0E0,1.369873E0,1.9268806E1,1.0944107E1,5.5539184E0,3.9257927E0,1.1714658E1,8.152952E0,1.2412182E1,8.634888E0,2.9956182E1,1.0366211E0,1.7433472E0,6.967121E0,0E0,6.7518616E0,2.3210047E1,1.1070445E1,5.777379E0,0E0,1.2332039E0,8.639053E0,1.0868206E0,8.223882E0,5.966108E0,5.929981E0,0E0,4.3993073E0,0E0,0E0,0E0,0E0,1.9241829E0,1.6387054E1,1.028244E0,8.817446E0,0E0,6.7792206E0,1.1619175E1,1.19349985E1,4.169031E0,5.5305147E0,7.7751484E0,3.9504118E0,0E0,3.111689E0,0E0,0E0,0E0,0E0,0E0,0E0,7.6183167E0,0E0,2.896226E0,3.0502148E0,4.441002E0,8.040443E0,0E0,0E0,0E0,1.8440552E0,5.0039177E0,0E0,0E0,4.742017E0,3.0580711E0,4.8725967E0,1.5375977E0,1.3026822E1,5.1585217E0,3.2182927E0,8.550291E0,1.1805366E1,5.003042E0,0E0,3.6706457E0,1.4068451E0,0E0,1.9797897E0,7.320811E0,0E0,0E0,2.6244545E0,0E0,1.929488E0,0E0,3.1329365E0,0E0,1.8459988E0,5.6065617E0,4.459015E0,8.58892E0,0E0,0E0,0E0,0E0,0E0,0E0,0E0,0E0,0E0,0E0,0E0,0E0,0E0,0E0,0E0,0E0,0E0,0E0,0E0,0E0,0E0,0E0,0E0,0E0,0E0,0E0,0E0,0E0,0E0,0E0,0E0,0E0,0E0,0E0,0E0,0E0,0E0,0E0,0E0,0E0,0E0,0E0,0E0,0E0,0E0,0E0],"parents":[2147483647,0,0,1,1,2,2,3,3,4,4,5,5,6,6,7,7,8,8,9,9,12,12,13,13,15,15,16,16,17,17,18,18,19,19,20,20,21,21,22,22,23,23,24,24,25,25,26,26,27,27,29,29,30,30,31,31,32,32,34,34,35,35,36,36,37,37,38,38,39,39,41,41,46,46,47,47,48,48,49,49,51,51,52,52,53,53,54,54,55,55,56,56,57,57,59,59,66,66,68,68,69,69,70,70,71,71,75,75,76,76,79,79,80,80,81,81,82,82,83,83,84,84,85,85,86,86,87,87,88,88,90,90,91,91,93,93,94,94,97,97,99,99,101,101,103,103,104,104,105,105,106,106],"right_children":[2,4,6,8,10,12,14,16,18,20,-1,-1,22,24,-1,26,28,30,32,34,36,38,40,42,44,46,48,50,-1,52,54,56,58,-1,60,62,64,66,68,70,-1,72,-1,-1,-1,-1,74,76,78,80,-1,82,84,86,88,90,92,94,-1,96,-1,-1,-1,-1,-1,-1,98,-1,100,102,104,106,-1,-1,-1,108,110,-1,-1,112,114,116,118,120,122,124,126,128,130,-1,132,134,-1,136,138,-1,-1,140,-1,142,-1,144,-1,146,148,150,152,-1,-1,-1,-1,-1,-1,-1,-1,-1,-1,-1,-1,-1,-1,-1,-1,-1,-1,-1,-1,-1,-1,-1,-1,-1,-1,-1,-1,-1,-1,-1,-1,-1,-1,-1,-1,-1,-1,-1,-1,-1,-1,-1,-1,-1,-1],"split_conditions":[1E0,6.7E1,2.2E1,1E0,3.27E2,1E0,1.91E2,3.2E1,2.2E1,3E0,1.648318E-1,-1.4214015E-1,5E0,3E0,1.6977201E-1,2.6E1,2E0,1E0,1.04E2,1.6E1,9E0,1E0,5E0,2E1,1E0,1E1,1E0,1.3E1,1.5066946E-1,4E0,1E0,7.3E1,4.3E1,-6.5266626E-4,1E0,1E0,2.93E2,1E0,2E0,1E0,-1.4477114E-1,3E0,1.5448025E-1,1.6462025E-1,-1.6965131E-1,-1.4574848E-1,2.2E1,8E0,2E0,7E0,-1.4747359E-1,1E0,2E0,4E0,4E0,5.2E1,4.7E1,4.6E1,-8.404546E-2,3E1,1.682687E-1,-1.2973198E-1,1.7091565E-1,-1.4895698E-1,-4.4123746E-2,-2.0566216E-2,4E0,-8.3598755E-2,4E0,1E1,2E0,1.2E1,1.7649637E-1,-8.892739E-2,-1.5071426E-1,3.2E1,4E0,-1.4406E-1,-5.4700226E-2,8.5E1,1.8E1,1E0,2E0,5E0,1.1E1,4E0,4E0,2.8E1,2E0,-6.726512E-2,6.3E1,1E2,1.3470046E-1,4E0,1.72E2,1.3719194E-1,-3.5785783E-2,1E0,-7.5166516E-2,3E0,7.406269E-2,4E0,1.6988458E-1,6E0,6E0,1E0,9.3E1,-1.00687444E-1,-1.4371532E-1,2.5373372E-1,-8.91255E-3,-1.5469433E-1,-3.9815675E-2,-0E0,1.7381677E-1,-5.7555545E-2,-1.19267166E-1,-1.2692516E-1,-1.0182251E-2,1.1879891E-1,-5.1426828E-2,-1.2619226E-1,-3.3346187E-2,-1.3953485E-1,2.2272563E-2,1.7246816E-1,-2.322142E-2,-9.701466E-2,1.367872E-1,-1.3190578E-1,-3.3966918E-2,1.9439214E-1,3.884371E-2,-1.5668142E-1,-3.1355355E-2,-0E0,1.350701E-1,-7.1024455E-2,1.4557776E-1,1.23829864E-1,-1.4227651E-2,6.971368E-4,-1.4138062E-1,5.9361007E-2,-5.4648235E-3,1.5870255E-1,5.2577253E-2,-8.137626E-2,1.6694626E-1,-5.1521637E-2,1.1773876E-1,-5.770573E-2,1.332072E-1],"split_indices":[9,12,11,8,11,8,11,12,12,2,0,0,11,2,0,11,10,2,11,16,17,12,16,12,12,12,2,0,0,12,16,11,16,0,8,8,11,11,12,10,0,9,0,0,0,0,11,0,10,17,0,12,0,11,0,11,12,12,0,16,0,0,0,0,0,0,11,0,11,0,17,16,0,0,0,11,16,0,0,11,16,16,10,12,12,0,12,11,17,0,11,11,0,17,11,0,0,16,0,12,0,0,0,12,12,8,11,0,0,0,0,0,0,0,0,0,0,0,0,0,0,0,0,0,0,0,0,0,0,0,0,0,0,0,0,0,0,0,0,0,0,0,0,0,0,0,0,0,0,0,0,0,0],"split_type":[0,0,0,0,0,0,0,0,0,0,0,0,0,0,0,0,0,0,0,0,0,0,0,0,0,0,0,0,0,0,0,0,0,0,0,0,0,0,0,0,0,0,0,0,0,0,0,0,0,0,0,0,0,0,0,0,0,0,0,0,0,0,0,0,0,0,0,0,0,0,0,0,0,0,0,0,0,0,0,0,0,0,0,0,0,0,0,0,0,0,0,0,0,0,0,0,0,0,0,0,0,0,0,0,0,0,0,0,0,0,0,0,0,0,0,0,0,0,0,0,0,0,0,0,0,0,0,0,0,0,0,0,0,0,0,0,0,0,0,0,0,0,0,0,0,0,0,0,0,0,0,0,0],"sum_hessian":[2.4663745E3,1.3973767E3,1.0689978E3,1.2965369E3,1.0083986E2,1.8138554E2,8.8761224E2,1.0282017E3,2.683351E2,3.0863823E1,6.9976036E1,1.1792779E1,1.6959277E2,2.1569116E2,6.71921E2,9.855084E2,4.2693264E1,2.318733E2,3.6461807E1,1.8231146E1,1.2632677E1,5.5187782E1,1.1440498E2,2.029565E2,1.2734677E1,8.393357E2,1.4617274E2,3.9636887E1,3.0563774E0,1.8027661E2,5.1596687E1,1.6723274E1,1.9738535E1,1.9184287E0,1.6312717E1,4.0952425E0,8.537435E0,3.1481682E1,2.37061E1,1.1169958E2,2.7054121E0,1.06132744E2,9.6823746E1,9.060376E0,3.6743004E0,8.1535724E2,2.3978445E1,5.675886E1,8.941389E1,1.9743261E1,1.9893623E1,1.280443E2,5.2232323E1,1.5705562E1,3.5891125E1,8.5980015E0,8.125273E0,1.7646202E1,2.0923338E0,5.862882E0,1.0449835E1,1.305401E0,2.7898414E0,6.922991E0,1.6144435E0,1.4785521E1,1.6696161E1,1.4680208E1,9.025891E0,9.305677E1,1.8642801E1,9.593304E1,1.0199702E1,1.2231242E1,1.1747203E1,5.4111668E1,2.6471934E0,8.757447E1,1.8394182E0,1.506744E1,4.6758213E0,6.1088863E1,6.695543E1,2.2110395E1,3.0121927E1,4.658696E0,1.10468645E1,9.949141E0,2.5941984E1,2.111787E0,6.486214E0,6.9747763E0,1.1504959E0,1.14902725E1,6.1559296E0,4.688457E0,1.1744251E0,1.4196014E1,2.5001466E0,4.4169316E0,4.60896E0,9.072886E1,2.3279183E0,1.5071353E1,3.5714474E0,8.6310936E1,9.622104E0,1.858188E1,3.552979E1,1.2926388E0,1.3545548E0,7.6254334E0,7.442007E0,3.2714407E0,1.4043809E0,4.151244E1,1.9576424E1,6.5599014E1,1.3564122E0,6.136398E0,1.5973998E1,2.1225166E1,8.896761E0,2.640296E0,2.0184004E0,8.129793E0,2.9170718E0,6.953154E0,2.9959862E0,1.8075296E1,7.8666887E0,2.9931984E0,3.4930158E0,5.5926566E0,1.3821198E0,1.1626891E0,1.0327583E1,3.5586607E0,2.5972686E0,1.2819622E1,1.3763926E0,3.2364776E0,1.180454E0,8.286266E1,7.86619E0,1.2699682E1,2.3716712E0,2.1671565E0,1.4042912E0,1.4500492E0,8.4860886E1,5.8396225E0,3.7824807E0],"tree_param":{"num_deleted":"0","num_feature":"19","num_nodes":"153","size_leaf_vector":"1"}},{"base_weights":[-6.5977476E-3,-1.3160418E0,9.511765E-1,-1.3496097E0,-4.121328E-1,1.0031106E-1,1.4942584E0,-1.3596178E0,-6.764284E-1,3.5365385E-1,-1.1167375E0,-8.224324E-2,5.92631E-1,1.0311452E0,1.573235E0,-1.3706072E-1,-1.1665567E0,-1.4093822E-1,7.9478335E-1,-1.0495373E0,7.728452E-1,-1.4072768E-1,1.5153687E-1,-3.3987278E-1,3.575094E-1,1.1418513E0,3.5872683E-1,1.1832565E0,-5.1561657E-2,1.3781449E0,1.596762E-1,-1.21623315E-1,-2.7501732E-2,1.4812915E-1,-1.302711E-1,-1.7031677E-2,-1.4722839E-1,9.9353796E-1,-5.7947494E-2,-4.4030908E-1,4.4784966E-1,6.9207495E-1,-1.4221635E-1,2.576217E-1,1.5046704E-1,7.670202E-1,-7.8184046E-2,9.929352E-1,1.3819879E0,-1.2485507E0,7.6971334E-1,1.5560226E-1,9.562513E-1,7.073979E-1,1.5686905E-1,-4.622666E-1,9.7725965E-2,1.6588122E-1,1.2659472E-1,5.983953E-1,1.2126464E-1,-6.080957E-1,4.7114855E-1,-1.9632354E-2,4.7830936E-2,3.0606598E-1,1.1205256E0,-4.2334828E-1,3.8675174E-1,1.3395531E-1,7.5692546E-1,1.4914523E-1,1.0045891E0,-1.5026234E-1,-3.438864E-3,1.4593452E-1,1.1076943E-1,2.0801914E-1,1.3319199E0,1.00962356E-1,-5.790962E-2,-4.2879006E-1,-6.78677E-1,2.899807E-1,-6.991777E-2,6.348228E-1,-3.384649E-2,-9.7976065E-1,2.3537946E-1,8.3442634E-1,-5.476331E-1,5.716188E-1,6.925528E-2,1.2563791E0,1.52471475E-2,-1.1503729E0,-1.0472707E-1,-6.6179834E-2,4.8618397E-1,2.1506198E-1,1.2200353E-1,-6.298939E-2,1.2792523E-1,-6.907367E-2,1.04048185E-1,1.6233079E-1,-2.1496421E-1,1.5514725E-1,7.593097E-1,-4.6737976E-2,4.996657E-2,4.6129E-3,-9.656934E-2,-3.582549E-2,5.0149392E-2,5.4521598E-2,9.378154E-2,-4.9702894E-2,-1.184448E-1,5.919189E-2,-1.472538E-1,-3.3759687E-2,1.1948544E-1,-1.19181134E-1,1.2141215E-1,-3.2340836E-2,7.420433E-2,6.4198636E-2,-1.9122966E-2,9.746318E-2,1.8766351E-1,1.5733388E-1,-1.3583219E-1,-1.3366394E-1,-0E0,9.242234E-2,-4.705791E-2,6.5456055E-2,-3.3742275E-2,7.38706E-2,-1.9863231E-2,-9.720924E-2,1.5248792E-1,1.5305252E-1,-8.288138E-2],"categories":[],"categories_nodes":[],"categories_segments":[],"categories_sizes":[],"default_left":[0,0,0,0,0,0,0,0,0,0,0,0,0,0,0,0,0,0,0,0,0,0,0,0,0,0,0,0,0,0,0,0,0,0,0,0,0,0,0,0,0,0,0,0,0,0,0,0,0,0,0,0,0,0,0,0,0,0,0,0,0,0,0,0,0,0,0,0,0,0,0,0,0,0,0,0,0,0,0,0,0,0,0,0,0,0,0,0,0,0,0,0,0,0,0,0,0,0,0,0,0,0,0,0,0,0,0,0,0,0,0,0,0,0,0,0,0,0,0,0,0,0,0,0,0,0,0,0,0,0,0,0,0,0,0,0,0,0,0,0,0,0,0,0,0],"id":4,"left_children":[1,3,5,7,9,11,13,15,17,19,21,23,25,27,29,-1,31,-1,33,35,37,-1,-1,39,41,43,45,47,49,51,-1,-1,-1,-1,-1,-1,-1,53,-1,55,57,59,61,63,-1,65,67,69,71,73,75,-1,77,79,-1,81,-1,83,-1,85,-1,87,89,-1,-1,91,93,95,97,-1,99,-1,101,-1,-1,103,-1,105,107,-1,-1,109,111,113,-1,115,-1,117,119,121,123,125,127,129,131,133,135,-1,137,139,-1,-1,-1,-1,-1,-1,141,-1,143,-1,-1,-1,-1,-1,-1,-1,-1,-1,-1,-1,-1,-1,-1,-1,-1,-1,-1,-1,-1,-1,-1,-1,-1,-1,-1,-1,-1,-1,-1,-1,-1,-1,-1,-1,-1],"loss_changes":[2.9820933E3,3.0247314E1,6.3438416E2,6.2286377E0,1.9658623E1,4.8156372E1,3.0232544E1,1.6103516E0,1.58432255E1,1.0266936E1,1.4697889E1,4.4235737E1,1.842746E1,2.0307785E1,2.767212E0,0E0,2.1442642E0,0E0,7.1956477E0,1.2905841E0,4.1226997E0,0E0,0E0,1.9508968E1,2.4159428E1,1.3616779E1,1.8255465E1,3.6938171E0,1.5003197E1,5.4688873E0,0E0,0E0,0E0,0E0,0E0,0E0,0E0,1.5854692E0,0E0,6.799526E0,6.247474E0,3.9626656E0,1.6546192E1,1.3143501E0,0E0,8.428583E0,7.9164267E0,4.233967E0,1.7532883E0,1.7655964E0,1.7510252E0,0E0,6.4575405E0,3.252942E0,0E0,1.4210548E0,0E0,2.220516E0,0E0,2.5640316E0,0E0,1.0430245E1,9.288063E0,0E0,0E0,1.3897877E0,4.3348618E0,6.4437604E0,2.1930084E0,0E0,8.2254715E0,0E0,5.634948E0,0E0,0E0,2.6319366E0,0E0,5.026251E0,1.6144962E0,0E0,0E0,6.729534E0,5.982031E0,2.559112E0,0E0,1.728632E0,0E0,2.043682E0,6.136999E0,7.9255266E0,7.555251E0,1.7002866E0,1.9322174E0,4.1442566E0,7.5885115E0,1.9236135E0,7.511785E0,0E0,2.720397E0,3.4562018E0,0E0,0E0,0E0,0E0,0E0,0E0,8.355028E0,0E0,5.8929186E0,0E0,0E0,0E0,0E0,0E0,0E0,0E0,0E0,0E0,0E0,0E0,0E0,0E0,0E0,0E0,0E0,0E0,0E0,0E0,0E0,0E0,0E0,0E0,0E0,0E0,0E0,0E0,0E0,0E0,0E0,0E0,0E0,0E0,0E0,0E0,0E0],"parents":[2147483647,0,0,1,1,2,2,3,3,4,4,5,5,6,6,7,7,8,8,9,9,10,10,11,11,12,12,13,13,14,14,16,16,18,18,19,19,20,20,23,23,24,24,25,25,26,26,27,27,28,28,29,29,37,37,39,39,40,40,41,41,42,42,43,43,45,45,46,46,47,47,48,48,49,49,50,50,52,52,53,53,55,55,57,57,59,59,61,61,62,62,65,65,66,66,67,67,68,68,70,70,72,72,75,75,77,77,78,78,81,81,82,82,83,83,85,85,87,87,88,88,89,89,90,90,91,91,92,92,93,93,94,94,95,95,96,96,98,98,99,99,106,106,108,108],"right_children":[2,4,6,8,10,12,14,16,18,20,22,24,26,28,30,-1,32,-1,34,36,38,-1,-1,40,42,44,46,48,50,52,-1,-1,-1,-1,-1,-1,-1,54,-1,56,58,60,62,64,-1,66,68,70,72,74,76,-1,78,80,-1,82,-1,84,-1,86,-1,88,90,-1,-1,92,94,96,98,-1,100,-1,102,-1,-1,104,-1,106,108,-1,-1,110,112,114,-1,116,-1,118,120,122,124,126,128,130,132,134,136,-1,138,140,-1,-1,-1,-1,-1,-1,142,-1,144,-1,-1,-1,-1,-1,-1,-1,-1,-1,-1,-1,-1,-1,-1,-1,-1,-1,-1,-1,-1,-1,-1,-1,-1,-1,-1,-1,-1,-1,-1,-1,-1,-1,-1,-1,-1],"split_conditions":[1E0,2.8E1,1.6E1,2E0,2.7E1,1E0,4.2E1,1.4E1,1E0,1E0,7.9E1,3E0,1E0,3E0,6.4E1,-1.3706072E-1,1E0,-1.4093822E-1,7E0,3.2E1,3E0,-1.4072768E-1,1.5153687E-1,1E0,2E0,3E0,2E0,2E0,1E0,3E0,1.596762E-1,-1.21623315E-1,-2.7501732E-2,1.4812915E-1,-1.302711E-1,-1.7031677E-2,-1.4722839E-1,1.9E1,-5.7947494E-2,5E0,3E0,1E1,2E0,3E0,1.5046704E-1,5E0,2E0,2E0,2E0,7E0,2E0,1.5560226E-1,1E0,1.4E1,1.5686905E-1,2E0,9.7725965E-2,2E0,1.2659472E-1,9E0,1.2126464E-1,1E1,4E0,-1.9632354E-2,4.7830936E-2,3E0,2E0,5E0,4E0,1.3395531E-1,2.5E1,1.4914523E-1,2.3E1,-1.5026234E-1,-3.438864E-3,7E0,1.1076943E-1,2E0,2E0,1.00962356E-1,-5.790962E-2,3E0,1E0,1E0,-6.991777E-2,3E0,-3.384649E-2,3E0,4E0,4E0,1.5E1,2E0,2E0,1.1E1,9E0,7E0,5E0,-6.6179834E-2,1.1E1,1.9E1,1.2200353E-1,-6.298939E-2,1.2792523E-1,-6.907367E-2,1.04048185E-1,1.6233079E-1,4E0,1.5514725E-1,3.8E1,-4.6737976E-2,4.996657E-2,4.6129E-3,-9.656934E-2,-3.582549E-2,5.0149392E-2,5.4521598E-2,9.378154E-2,-4.9702894E-2,-1.184448E-1,5.919189E-2,-1.472538E-1,-3.3759687E-2,1.1948544E-1,-1.19181134E-1,1.2141215E-1,-3.2340836E-2,7.420433E-2,6.4198636E-2,-1.9122966E-2,9.746318E-2,1.8766351E-1,1.5733388E-1,-1.3583219E-1,-1.3366394E-1,-0E0,9.242234E-2,-4.705791E-2,6.5456055E-2,-3.3742275E-2,7.38706E-2,-1.9863231E-2,-9.720924E-2,1.5248792E-1,1.5305252E-1,-8.288138E-2],"split_indices":[8,13,13,10,0,2,13,13,2,1,13,13,13,2,13,0,10,0,0,13,2,0,0,10,1,1,1,8,10,2,0,0,0,0,0,0,0,0,0,0,0,13,8,0,0,13,8,1,2,1,10,0,10,0,0,1,0,10,0,13,0,13,1,0,0,0,2,13,0,0,13,0,13,0,0,1,0,8,10,0,0,0,13,13,0,0,0,0,1,13,13,13,13,13,13,0,0,0,0,13,0,0,0,0,0,0,8,0,0,0,0,0,0,0,0,0,0,0,0,0,0,0,0,0,0,0,0,0,0,0,0,0,0,0,0,0,0,0,0,0,0,0,0,0,0],"split_type":[0,0,0,0,0,0,0,0,0,0,0,0,0,0,0,0,0,0,0,0,0,0,0,0,0,0,0,0,0,0,0,0,0,0,0,0,0,0,0,0,0,0,0,0,0,0,0,0,0,0,0,0,0,0,0,0,0,0,0,0,0,0,0,0,0,0,0,0,0,0,0,0,0,0,0,0,0,0,0,0,0,0,0,0,0,0,0,0,0,0,0,0,0,0,0,0,0,0,0,0,0,0,0,0,0,0,0,0,0,0,0,0,0,0,0,0,0,0,0,0,0,0,0,0,0,0,0,0,0,0,0,0,0,0,0,0,0,0,0,0,0,0,0,0,0],"sum_hessian":[2.3775479E3,1.0044107E3,1.3731372E3,9.6829193E2,3.6118782E1,5.3509216E2,8.3804504E2,9.538604E2,1.4431495E1,1.7263813E1,1.885497E1,3.9026166E2,1.4483049E2,1.224834E2,7.1556165E2,9.0142236E2,5.243809E1,9.680746E0,4.750749E0,3.8816254E0,1.3382187E1,1.7056726E1,1.7982433E0,2.4624745E2,1.440142E2,4.301444E1,1.01816055E2,1.0746809E2,1.5015307E1,7.81049E1,6.374568E2,4.952972E1,2.9083703E0,3.6373134E0,1.1134355E0,1.3827156E0,2.4989097E0,1.1591055E1,1.7911317E0,2.1855258E2,2.7694868E1,8.635877E1,5.765543E1,1.2644658E1,3.036978E1,5.2710964E1,4.9105095E1,5.5458916E1,5.200917E1,6.138428E0,8.876879E0,5.4585045E1,2.351985E1,8.00527E0,3.5857847E0,2.1535475E2,3.1978211E0,2.0776482E1,6.9183855E0,7.3533134E1,1.2825638E1,3.286035E1,2.479508E1,3.9917352E0,8.652923E0,2.3082254E1,2.962871E1,2.8311163E1,2.079393E1,2.2104149E1,3.3354767E1,3.9881424E1,1.2127746E1,4.98844E0,1.1499885E0,3.2737982E0,5.6030807E0,8.00252E0,1.551733E1,6.5627813E0,1.442489E0,1.8716275E2,2.8192007E1,1.8329105E1,2.4473767E0,7.091477E1,2.6183658E0,2.2880703E1,9.979647E0,1.8363327E1,6.4317536E0,1.061511E1,1.2467144E1,2.6292824E1,3.3358865E0,8.451583E0,1.9859581E1,1.664965E0,1.9128965E1,1.5537467E1,1.78173E1,1.6737969E0,1.0453949E1,1.6456319E0,1.6281663E0,1.830469E0,6.1720505E0,1.0966805E1,4.5505247E0,1.7984515E2,7.317596E0,7.921999E0,2.0270008E1,4.3758984E0,1.3953207E1,5.519996E1,1.5714812E1,7.060559E0,1.5820145E1,8.358621E0,1.6210259E0,4.255235E0,1.4108091E1,4.7749324E0,1.6568215E0,1.5897267E0,9.025383E0,3.9717827E0,8.495361E0,1.836775E1,7.925074E0,1.5902569E0,1.7456297E0,7.310939E0,1.1406437E0,5.097375E0,1.4762206E1,1.5999917E1,3.1290486E0,6.929473E0,8.607994E0,4.371366E0,1.8006847E0,3.1078854E0,1.4426395E0],"tree_param":{"num_deleted":"0","num_feature":"19","num_nodes":"145","size_leaf_vector":"1"}},{"base_weights":[-6.743718E-3,-1.2346891E0,9.3622965E-1,-1.2897E0,-3.9212173E-1,1.1861281E-1,1.3970816E0,-1.3028419E0,-5.348948E-1,-5.3916514E-1,1.4891157E-1,-6.3970006E-1,6.2284E-1,1.0066224E0,1.4910673E0,-1.3061575E0,-6.055192E-1,-7.6580113E-1,1.7046122E-1,-1.519153E-1,-1.3561761E-1,-7.704716E-1,-1.8346778E-1,2.1582526E-1,8.3881336E-1,2.956585E-1,1.2585142E0,4.290499E-1,1.4965233E-1,-1.3121823E0,-1.0209559E0,5.4081794E-2,-1.3326727E-1,-1.1084579E0,1.6587427E-2,-5.053045E-1,4.5113635E-1,-8.8472235E-1,-4.7787416E-1,5.6736183E-1,-6.1435336E-1,-5.258751E-2,6.3705605E-1,-1.4506388E-1,8.5775226E-1,-1.0122855E-1,6.783676E-1,1.3610014E0,-1.8988201E-1,1.5149747E-1,-1.3154612E-1,-1.3139702E-1,-3.1324722E-2,-2.19347E-1,-1.3642772E-1,-1.2358611E-1,-0E0,-1.2265622E-1,-2.0230861E-1,-2.5113627E-2,8.924576E-1,-6.3889176E-1,-1.1128732E-1,6.771194E-2,-8.06661E-1,2.8551278E-1,1.8613353E-1,-7.460242E-1,8.394078E-2,2.4717125E-1,-2.74073E-1,9.6066266E-1,2.1047232E-1,7.6588327E-1,1.2902862E0,1.2112882E-1,-2.4047044E-1,1.1258042E0,-1.2131825E-2,8.5710627E-1,1.430959E-1,-8.89415E-1,1.5086307E-1,9.373918E-2,-6.249436E-1,5.011684E-1,-7.8333235E-1,6.237697E-1,-5.054185E-1,5.498844E-1,1.5698315E-1,-4.568548E-1,-1.12225175E-1,6.356413E-1,-6.233591E-1,-1.0899942E0,-4.4515795E-1,9.37928E-2,-1.3915078E-1,1.7432317E-2,-8.3340615E-1,3.8515106E-1,-1.3987571E-1,-9.025182E-2,6.1596546E-2,5.6621855E-1,1.5664966E0,-2.8329456E-2,9.057265E-1,8.143566E-1,-2.5029552E-1,1.3688083E0,1.0808512E-2,-6.105828E-1,3.117907E-1,1.6015436E-1,7.837554E-1,1.5218906E-1,-7.477365E-1,3.656664E-1,1.2085354E-1,-1.5232018E-1,-5.8632225E-2,-1.3532507E-1,2.7611805E-2,1.103487E-1,-1.28911855E-2,-1.3547379E-1,8.387648E-3,1.2615226E-1,-2.2079555E-2,-1.5218744E-1,6.1077345E-2,-9.002891E-3,1.4416303E-1,-3.348935E-2,-1.0684808E-1,-6.9665976E-2,1.1967927E-1,5.5253442E-2,-1.3759881E-1,-6.3270256E-2,-1.4661139E-1,1.6068086E-2,-9.840267E-2,-1.3837448E-1,-6.548473E-2,5.0991874E-2,-6.2783837E-4,-6.7594433E-3,1.1414813E-1,1.0128279E-1,-4.122976E-2,7.1247354E-2,1.8315287E-1,7.101968E-2,-4.4108216E-2,1.9017175E-2,1.718931E-1,5.679048E-2,1.037625E-1,1.3696584E-1,-8.1163585E-2,9.6195765E-2,1.5594205E-1,-1.7636275E-2,-1.5969388E-1,9.306004E-2,-4.9794327E-2,-6.951003E-2,1.23923115E-1,9.451243E-3,-1.4137177E-1,9.8754995E-2,-5.149891E-2,1.3590394E-1,-1.6028398E-1],"categories":[],"categories_nodes":[],"categories_segments":[],"categories_sizes":[],"default_left":[0,0,0,0,0,0,0,0,0,0,0,0,0,0,0,0,0,0,0,0,0,0,0,0,0,0,0,0,0,0,0,0,0,0,0,0,0,0,0,0,0,0,0,0,0,0,0,0,0,0,0,0,0,0,0,0,0,0,0,0,0,0,0,0,0,0,0,0,0,0,0,0,0,0,0,0,0,0,0,0,0,0,0,0,0,0,0,0,0,0,0,0,0,0,0,0,0,0,0,0,0,0,0,0,0,0,0,0,0,0,0,0,0,0,0,0,0,0,0,0,0,0,0,0,0,0,0,0,0,0,0,0,0,0,0,0,0,0,0,0,0,0,0,0,0,0,0,0,0,0,0,0,0,0,0,0,0,0,0,0,0,0,0,0,0,0,0,0,0,0,0,0,0,0,0,0,0],"id":5,"left_children":[1,3,5,7,9,11,13,15,17,19,-1,21,23,25,27,29,31,33,-1,35,-1,37,39,41,43,45,47,49,-1,51,53,-1,-1,55,-1,57,59,61,63,65,67,69,71,-1,73,75,77,79,81,-1,-1,-1,-1,83,-1,-1,-1,-1,85,87,89,91,-1,93,95,97,-1,99,-1,101,103,105,107,109,111,-1,113,115,117,119,-1,121,-1,-1,123,125,127,129,131,133,-1,135,-1,137,139,141,143,-1,-1,-1,145,147,-1,-1,149,151,153,155,157,159,161,163,-1,165,167,-1,169,-1,171,173,-1,-1,175,-1,-1,-1,-1,-1,-1,-1,-1,-1,-1,-1,-1,-1,-1,-1,-1,-1,-1,-1,-1,-1,-1,-1,-1,-1,-1,-1,-1,-1,-1,-1,-1,-1,-1,-1,-1,-1,-1,-1,-1,-1,-1,-1,-1,-1,-1,-1,-1,-1,-1,-1,-1,-1,-1],"loss_changes":[2.6433289E3,4.5743286E1,4.863501E2,8.978394E0,1.68675E1,1.7807457E2,2.9899902E1,1.8442383E0,8.427689E0,1.7776562E1,0E0,1.0983353E1,2.447158E1,2.8586136E1,3.5969238E0,1.1964111E0,4.0332766E0,4.8436584E0,0E0,8.271751E0,0E0,4.6455307E0,1.3537636E1,1.1062042E1,7.9826965E0,6.485774E0,1.7736832E1,7.1018276E0,0E0,1.3864746E0,5.2112885E0,0E0,0E0,1.5141277E0,0E0,5.1954827E0,3.0820417E0,5.554123E0,7.431692E0,5.2685685E0,5.153018E0,3.951375E0,5.1110544E0,0E0,6.896225E0,3.7172532E0,6.8056135E0,3.5532227E0,9.406103E0,0E0,0E0,0E0,0E0,2.8844655E0,0E0,0E0,0E0,0E0,7.219865E0,2.1506813E0,1.4427862E0,4.210205E0,0E0,6.081154E0,2.4300003E0,1.3922295E1,0E0,2.05441E0,0E0,5.650429E0,7.3428946E0,4.825735E0,2.8565962E0,7.460541E0,2.7531815E0,0E0,3.9074464E0,1.7894707E0,9.660733E0,2.2036963E0,0E0,2.8176837E0,0E0,0E0,3.1853576E0,3.1092062E0,4.945238E0,1.6748483E0,4.8050604E0,3.1353946E0,0E0,2.5693073E0,0E0,6.5454793E0,6.276873E0,2.1366005E0,3.8900898E0,0E0,0E0,0E0,1.9198408E0,1.1877854E0,0E0,0E0,3.2405016E0,5.89347E0,1.4948769E0,3.7817852E0,2.319163E0,7.659729E0,6.245747E0,1.8751183E0,0E0,4.6963053E0,3.8639581E0,0E0,5.540585E0,0E0,3.4411237E0,3.4218228E0,0E0,0E0,5.9896717E0,0E0,0E0,0E0,0E0,0E0,0E0,0E0,0E0,0E0,0E0,0E0,0E0,0E0,0E0,0E0,0E0,0E0,0E0,0E0,0E0,0E0,0E0,0E0,0E0,0E0,0E0,0E0,0E0,0E0,0E0,0E0,0E0,0E0,0E0,0E0,0E0,0E0,0E0,0E0,0E0,0E0,0E0,0E0,0E0,0E0,0E0,0E0,0E0,0E0,0E0,0E0,0E0,0E0,0E0],"parents":[2147483647,0,0,1,1,2,2,3,3,4,4,5,5,6,6,7,7,8,8,9,9,11,11,12,12,13,13,14,14,15,15,16,16,17,17,19,19,21,21,22,22,23,23,24,24,25,25,26,26,27,27,29,29,30,30,33,33,35,35,36,36,37,37,38,38,39,39,40,40,41,41,42,42,44,44,45,45,46,46,47,47,48,48,53,53,58,58,59,59,60,60,61,61,63,63,64,64,65,65,67,67,69,69,70,70,71,71,72,72,73,73,74,74,76,76,77,77,78,78,79,79,81,81,84,84,85,85,86,86,87,87,88,88,89,89,91,91,93,93,94,94,95,95,96,96,100,100,101,101,104,104,105,105,106,106,107,107,108,108,109,109,110,110,111,111,113,113,114,114,116,116,118,118,119,119,122,122],"right_children":[2,4,6,8,10,12,14,16,18,20,-1,22,24,26,28,30,32,34,-1,36,-1,38,40,42,44,46,48,50,-1,52,54,-1,-1,56,-1,58,60,62,64,66,68,70,72,-1,74,76,78,80,82,-1,-1,-1,-1,84,-1,-1,-1,-1,86,88,90,92,-1,94,96,98,-1,100,-1,102,104,106,108,110,112,-1,114,116,118,120,-1,122,-1,-1,124,126,128,130,132,134,-1,136,-1,138,140,142,144,-1,-1,-1,146,148,-1,-1,150,152,154,156,158,160,162,164,-1,166,168,-1,170,-1,172,174,-1,-1,176,-1,-1,-1,-1,-1,-1,-1,-1,-1,-1,-1,-1,-1,-1,-1,-1,-1,-1,-1,-1,-1,-1,-1,-1,-1,-1,-1,-1,-1,-1,-1,-1,-1,-1,-1,-1,-1,-1,-1,-1,-1,-1,-1,-1,-1,-1,-1,-1,-1,-1,-1,-1,-1,-1],"split_conditions":[1E0,3.2E1,2E1,1E0,7.9E1,1E0,3.7E1,2.8E1,1.4E1,2.7E1,1.4891157E-1,1E0,2E0,1E0,3.6E1,8E0,3.2E1,1E0,1.7046122E-1,3E1,-1.3561761E-1,4E0,1E0,2E0,1E0,1.5E1,3E0,1.7E1,1.4965233E-1,2E0,1E0,5.4081794E-2,-1.3326727E-1,9E0,1.6587427E-2,9E0,7E0,1E0,6E0,3E0,1.7E1,1E0,4E0,-1.4506388E-1,1.2E1,2E0,1.6E1,2E0,2.9E1,1.5149747E-1,-1.3154612E-1,-1.3139702E-1,-3.1324722E-2,4E0,-1.3642772E-1,-1.2358611E-1,-0E0,-1.2265622E-1,8E0,7E0,1E0,1E0,-1.1128732E-1,2E0,1E1,1E0,1.8613353E-1,3E0,8.394078E-2,2E0,2E0,2E0,1E0,1.2E1,2.5E1,1.2112882E-1,9E0,1.7E1,2E0,2.6E1,1.430959E-1,4.5E1,1.5086307E-1,9.373918E-2,1.4E1,1.2E1,4.7E1,5.1E1,5.5E1,4.5E1,1.5698315E-1,1E0,-1.12225175E-1,1E0,2E0,1E0,1.4E1,9.37928E-2,-1.3915078E-1,1.7432317E-2,4E0,1E0,-1.3987571E-1,-9.025182E-2,1.2E1,2E0,1E0,1E0,6E0,6E0,9E0,3E0,1.0808512E-2,9E0,3.4E1,1.6015436E-1,2E1,1.5218906E-1,2E0,8E0,1.2085354E-1,-1.5232018E-1,3.3E1,-1.3532507E-1,2.7611805E-2,1.103487E-1,-1.28911855E-2,-1.3547379E-1,8.387648E-3,1.2615226E-1,-2.2079555E-2,-1.5218744E-1,6.1077345E-2,-9.002891E-3,1.4416303E-1,-3.348935E-2,-1.0684808E-1,-6.9665976E-2,1.1967927E-1,5.5253442E-2,-1.3759881E-1,-6.3270256E-2,-1.4661139E-1,1.6068086E-2,-9.840267E-2,-1.3837448E-1,-6.548473E-2,5.0991874E-2,-6.2783837E-4,-6.7594433E-3,1.1414813E-1,1.0128279E-1,-4.122976E-2,7.1247354E-2,1.8315287E-1,7.101968E-2,-4.4108216E-2,1.9017175E-2,1.718931E-1,5.679048E-2,1.037625E-1,1.3696584E-1,-8.1163585E-2,9.6195765E-2,1.5594205E-1,-1.7636275E-2,-1.5969388E-1,9.306004E-2,-4.9794327E-2,-6.951003E-2,1.23923115E-1,9.451243E-3,-1.4137177E-1,9.8754995E-2,-5.149891E-2,1.3590394E-1,-1.6028398E-1],"split_indices":[7,12,12,9,13,9,16,13,12,0,0,2,0,9,13,14,13,8,0,13,0,12,16,13,8,16,2,0,0,8,2,0,0,12,0,16,14,12,12,13,12,12,12,0,0,0,14,14,14,0,0,0,0,16,0,0,0,0,0,0,8,16,0,0,12,12,0,0,0,14,12,12,14,16,14,0,14,16,2,12,0,13,0,0,13,16,12,12,12,13,0,14,0,13,16,14,12,0,0,0,12,13,0,0,12,16,16,16,13,12,12,8,0,16,12,0,16,0,8,13,0,0,0,0,0,0,0,0,0,0,0,0,0,0,0,0,0,0,0,0,0,0,0,0,0,0,0,0,0,0,0,0,0,0,0,0,0,0,0,0,0,0,0,0,0,0,0,0,0,0,0,0,0,0,0,0,0],"split_type":[0,0,0,0,0,0,0,0,0,0,0,0,0,0,0,0,0,0,0,0,0,0,0,0,0,0,0,0,0,0,0,0,0,0,0,0,0,0,0,0,0,0,0,0,0,0,0,0,0,0,0,0,0,0,0,0,0,0,0,0,0,0,0,0,0,0,0,0,0,0,0,0,0,0,0,0,0,0,0,0,0,0,0,0,0,0,0,0,0,0,0,0,0,0,0,0,0,0,0,0,0,0,0,0,0,0,0,0,0,0,0,0,0,0,0,0,0,0,0,0,0,0,0,0,0,0,0,0,0,0,0,0,0,0,0,0,0,0,0,0,0,0,0,0,0,0,0,0,0,0,0,0,0,0,0,0,0,0,0,0,0,0,0,0,0,0,0,0,0,0,0,0,0,0,0,0,0],"sum_hessian":[2.2825999E3,9.915165E2,1.2910834E3,9.30587E2,6.092955E1,4.6552267E2,8.2556067E2,9.144604E2,1.6126583E1,5.662784E1,4.301712E0,1.8582828E2,2.796944E2,1.6059813E2,6.649625E2,9.099032E2,4.557138E0,1.4719385E1,1.4071972E0,3.8581726E1,1.8046112E1,1.4420595E2,4.162234E1,9.719241E1,1.8250198E2,4.2174644E1,1.1842348E2,3.5331073E0,6.6142944E2,8.9038336E2,1.9519882E1,1.7253208E0,2.8318172E0,1.0826071E1,3.8933144E0,2.4441183E1,1.4140541E1,1.0331881E2,4.088713E1,1.5080468E1,2.6541874E1,5.9273087E1,3.7919327E1,1.3919736E0,1.8111002E2,2.0611658E1,2.1562988E1,1.106678E2,7.7556753E0,2.2210355E0,1.3120718E0,8.8866113E2,1.7221903E0,5.9897594E0,1.3530122E1,9.680821E0,1.1452497E0,7.0424185E0,1.7398766E1,6.737507E0,7.4030347E0,5.0126385E1,5.319243E1,1.529011E1,2.5597021E1,1.2546891E1,2.533577E0,2.4445274E1,2.0966005E0,2.4989359E1,3.4283726E1,2.1357727E1,1.65616E1,1.4980098E2,3.130904E1,1.8341904E0,1.8777468E1,1.3134043E1,8.428945E0,1.382716E1,9.684064E1,5.568711E0,2.1869648E0,1.4569514E0,4.5328083E0,7.798424E0,9.600341E0,2.7645621E0,3.9729447E0,5.1349216E0,2.2681131E0,3.670457E1,1.3421811E1,8.476642E0,6.8134685E0,1.4081951E1,1.151507E1,9.107486E0,3.4394054E0,2.0118322E0,2.2433441E1,2.318324E1,1.8061184E0,1.198127E1,2.2302456E1,1.3152785E1,8.204943E0,1.2291783E1,4.2698154E0,1.4309346E2,6.707515E0,2.9264887E1,2.044153E0,1.1344898E1,7.43257E0,5.217162E0,7.916881E0,2.6531858E0,5.7757583E0,5.9688706E0,7.8582892E0,3.043316E0,2.525395E0,2.5403218E0,1.9924865E0,4.0297766E0,3.7686472E0,5.822789E0,3.777552E0,1.6144694E0,1.1500926E0,2.10724E0,1.8657047E0,2.9766521E0,2.1582692E0,3.0867659E1,5.8369126E0,2.4522023E0,6.024439E0,2.6175601E0,4.195908E0,6.5962396E0,7.4857116E0,5.366375E0,6.1486945E0,5.19301E0,1.724043E1,1.7750492E1,5.4327483E0,1.9920433E1,2.3820236E0,9.098695E0,4.0540905E0,2.1199343E0,6.085008E0,4.294113E0,7.9976697E0,2.4023213E0,1.8674943E0,6.83968E1,7.469666E1,1.6432294E0,5.0642858E0,9.696838E0,1.9568048E1,8.029405E0,3.3154933E0,4.2745056E0,3.1580644E0,1.8000972E0,6.116784E0,2.5219579E0,3.2538004E0,3.5578635E0,2.411007E0,1.2891313E0,1.2362638E0],"tree_param":{"num_deleted":"0","num_feature":"19","num_nodes":"177","size_leaf_vector":"1"}},{"base_weights":[-6.944778E-3,-1.1858746E0,8.750604E-1,-1.2459071E0,-5.496236E-1,1.7997514E-1,1.3641483E0,-1.2498006E0,1.4895214E-1,-6.7625284E-1,1.1597462E-1,-1.10280566E-1,6.138648E-1,1.1069896E0,1.4320882E-1,-1.2674352E0,-8.900785E-1,-3.225901E-1,-1.2718539E-1,-1.8118334E-1,5.0363076E-1,6.9662267E-1,-3.6199254E-1,1.2860423E0,5.7014704E-1,-1.2901677E-1,-1.1774232E0,-9.35876E-2,-2.8254061E-3,-4.409225E-1,1.572518E-1,-3.429145E-1,5.1763978E-2,3.3722207E-1,1.4212064E-1,1.18723385E-1,5.7133555E-1,-7.2671103E-1,5.5248785E-1,4.1122135E-2,1.2983394E-1,-2.5245655E-1,1.0230011E0,-1.0732772E0,-1.2900339E-1,-1.1476221E-1,-2.6005876E-1,-4.092356E-1,5.903851E-1,6.948973E-1,-1.390227E-1,1.0138861E0,1.7504779E-1,3.6366826E-1,7.681531E-1,1.95025E-1,-1.1669599E0,1.0072358E0,-4.5346655E-2,-7.3592615E-1,1.4473878E-1,5.521852E-1,1.3333307E-1,-1.1291983E0,1.309912E-1,-6.20769E-2,-1.3434629E-1,-4.4866785E-1,1.3295206E-1,1.0170693E0,-1.4684603E-1,1.0836356E-1,1.0971732E0,2.2475516E-2,-8.885679E-1,-3.5994828E-2,1.772362E-1,-1.2669307E-1,2.7406672E-1,-1.4481266E-1,4.0140864E-1,1.0435045E-1,4.9659622E-1,1.02368414E-1,-6.1318625E-2,-1.5402298E-1,-1.5296212E-2,2.405906E-2,1.4997338E-1,-1.1908764E0,-7.223984E-2,8.861571E-1,-2.5732064E-1,-1.0227108E-1,-1.3521712E-1,-3.4431305E-2,6.387431E-2,-3.5590235E-2,-5.9274565E-2,1.4484917E-1,-9.888276E-3,-3.490326E-2,9.992751E-2,1.9668077E-1,9.205537E-2,-7.4473904E-3,5.8595058E-2,3.8001996E-2,-1.2990262E-1,3.9959088E-2,-7.011257E-2,5.5564273E-2,8.933806E-3,2.249509E-2,8.587811E-2,-8.178474E-3,-1.3866495E-1,1.0230305E-1,-1.59251E-1,5.6168824E-2,1.5277915E-1,-1.5624629E-1,1.3319677E-1],"categories":[],"categories_nodes":[],"categories_segments":[],"categories_sizes":[],"default_left":[0,0,0,0,0,0,0,0,0,0,0,0,0,0,0,0,0,0,0,0,0,0,0,0,0,0,0,0,0,0,0,0,0,0,0,0,0,0,0,0,0,0,0,0,0,0,0,0,0,0,0,0,0,0,0,0,0,0,0,0,0,0,0,0,0,0,0,0,0,0,0,0,0,0,0,0,0,0,0,0,0,0,0,0,0,0,0,0,0,0,0,0,0,0,0,0,0,0,0,0,0,0,0,0,0,0,0,0,0,0,0,0,0,0,0,0,0,0,0,0,0,0,0],"id":6,"left_children":[1,3,5,7,9,11,13,15,-1,17,-1,19,21,23,-1,25,27,29,-1,31,33,35,37,39,41,-1,43,-1,-1,45,-1,47,49,51,-1,-1,53,55,57,-1,-1,59,61,63,-1,-1,65,67,69,71,73,75,77,79,81,83,85,87,-1,89,-1,91,-1,93,-1,95,-1,97,-1,99,-1,101,103,105,107,-1,-1,-1,109,-1,111,-1,113,-1,-1,-1,-1,-1,-1,115,117,119,121,-1,-1,-1,-1,-1,-1,-1,-1,-1,-1,-1,-1,-1,-1,-1,-1,-1,-1,-1,-1,-1,-1,-1,-1,-1,-1,-1,-1,-1,-1],"loss_changes":[2.265423E3,3.5366577E1,4.234798E2,9.234375E0,1.750128E1,6.490434E1,1.2366089E1,5.067749E0,0E0,1.565358E1,0E0,1.340387E1,1.6739021E1,1.4505386E1,0E0,1.2596436E0,1.4937458E0,1.0599982E1,0E0,1.04573965E1,4.6345854E0,1.1467308E1,5.433345E0,1.0124054E0,1.4532682E1,0E0,1.5654602E0,0E0,0E0,5.5557804E0,0E0,1.0133083E1,1.3959933E1,2.8434672E0,0E0,0E0,6.0765305E0,4.8449354E0,2.1934953E0,0E0,0E0,1.1339551E1,3.402319E0,1.1725159E1,0E0,0E0,7.5545025E0,1.0455837E1,9.588083E0,6.0125866E0,1.0655805E1,5.5299478E0,3.0975864E0,5.0447474E0,5.6088943E0,2.6327374E0,2.822894E0,1.016834E0,0E0,3.1324873E0,0E0,2.860215E0,0E0,1.6449661E0,0E0,6.03487E0,0E0,1.8842354E0,0E0,4.5024443E0,0E0,4.503959E0,1.8857994E0,3.978337E0,8.257426E0,0E0,0E0,0E0,2.5526352E0,0E0,3.4475956E0,0E0,3.7610722E0,0E0,0E0,0E0,0E0,0E0,0E0,1.2150288E0,7.874108E0,1.2406883E0,6.427819E0,0E0,0E0,0E0,0E0,0E0,0E0,0E0,0E0,0E0,0E0,0E0,0E0,0E0,0E0,0E0,0E0,0E0,0E0,0E0,0E0,0E0,0E0,0E0,0E0,0E0,0E0,0E0,0E0,0E0,0E0],"parents":[2147483647,0,0,1,1,2,2,3,3,4,4,5,5,6,6,7,7,9,9,11,11,12,12,13,13,15,15,16,16,17,17,19,19,20,20,21,21,22,22,23,23,24,24,26,26,29,29,31,31,32,32,33,33,36,36,37,37,38,38,41,41,42,42,43,43,46,46,47,47,48,48,49,49,50,50,51,51,52,52,53,53,54,54,55,55,56,56,57,57,59,59,61,61,63,63,65,65,67,67,69,69,71,71,72,72,73,73,74,74,78,78,80,80,82,82,89,89,90,90,91,91,92,92],"right_children":[2,4,6,8,10,12,14,16,-1,18,-1,20,22,24,-1,26,28,30,-1,32,34,36,38,40,42,-1,44,-1,-1,46,-1,48,50,52,-1,-1,54,56,58,-1,-1,60,62,64,-1,-1,66,68,70,72,74,76,78,80,82,84,86,88,-1,90,-1,92,-1,94,-1,96,-1,98,-1,100,-1,102,104,106,108,-1,-1,-1,110,-1,112,-1,114,-1,-1,-1,-1,-1,-1,116,118,120,122,-1,-1,-1,-1,-1,-1,-1,-1,-1,-1,-1,-1,-1,-1,-1,-1,-1,-1,-1,-1,-1,-1,-1,-1,-1,-1,-1,-1,-1,-1],"split_conditions":[1E0,6.8E1,1.04E2,2.7E1,3.15E2,2.2E1,6.4E1,1E0,1.4895214E-1,3E0,1.1597462E-1,1E0,1.2E1,3E0,1.4320882E-1,1.8E1,3.7E1,2E0,-1.2718539E-1,9E0,2E0,2E0,9.3E1,8E0,1E0,-1.2901677E-1,1E0,-9.35876E-2,-2.8254061E-3,1.4E1,1.572518E-1,3E0,1E0,3E0,1.4212064E-1,1.18723385E-1,4.2E1,6.3E1,1.1E1,4.1122135E-2,1.2983394E-1,4E0,2E0,8E0,-1.2900339E-1,-1.1476221E-1,3E1,7E0,8E0,1.3E1,4E0,2E0,5E0,2E0,7E0,7E0,8.9E1,1E0,-4.5346655E-2,4.9E1,1.4473878E-1,4E0,1.3333307E-1,3.2E1,1.309912E-1,1.32E2,-1.3434629E-1,1E0,1.3295206E-1,1E0,-1.4684603E-1,1E0,1.4E1,1E0,2E0,-3.5994828E-2,1.772362E-1,-1.2669307E-1,1.9E1,-1.4481266E-1,7E0,1.0435045E-1,1E1,1.02368414E-1,-6.1318625E-2,-1.5402298E-1,-1.5296212E-2,2.405906E-2,1.4997338E-1,1.5E1,3.4E1,2.6E1,2.53E2,-1.0227108E-1,-1.3521712E-1,-3.4431305E-2,6.387431E-2,-3.5590235E-2,-5.9274565E-2,1.4484917E-1,-9.888276E-3,-3.490326E-2,9.992751E-2,1.9668077E-1,9.205537E-2,-7.4473904E-3,5.8595058E-2,3.8001996E-2,-1.2990262E-1,3.9959088E-2,-7.011257E-2,5.5564273E-2,8.933806E-3,2.249509E-2,8.587811E-2,-8.178474E-3,-1.3866495E-1,1.0230305E-1,-1.59251E-1,5.6168824E-2,1.5277915E-1,-1.5624629E-1,1.3319677E-1],"split_indices":[7,11,11,13,11,11,13,8,0,2,0,10,16,2,0,11,11,10,0,11,8,16,11,16,10,0,2,0,0,13,0,13,16,11,0,0,11,11,0,0,0,8,8,0,0,0,16,0,11,11,0,11,11,13,16,0,11,2,0,13,0,2,0,11,0,11,0,13,0,16,0,2,11,2,13,0,0,0,11,0,13,0,16,0,0,0,0,0,0,16,0,0,11,0,0,0,0,0,0,0,0,0,0,0,0,0,0,0,0,0,0,0,0,0,0,0,0,0,0,0,0,0,0],"split_type":[0,0,0,0,0,0,0,0,0,0,0,0,0,0,0,0,0,0,0,0,0,0,0,0,0,0,0,0,0,0,0,0,0,0,0,0,0,0,0,0,0,0,0,0,0,0,0,0,0,0,0,0,0,0,0,0,0,0,0,0,0,0,0,0,0,0,0,0,0,0,0,0,0,0,0,0,0,0,0,0,0,0,0,0,0,0,0,0,0,0,0,0,0,0,0,0,0,0,0,0,0,0,0,0,0,0,0,0,0,0,0,0,0,0,0,0,0,0,0,0,0,0,0],"sum_hessian":[2.178434E3,9.323243E2,1.2461099E3,8.517096E2,8.061469E1,5.1481E2,7.3129987E2,8.505898E2,1.1198175E0,7.516541E1,5.449278E0,3.0836777E2,2.0644221E2,1.5349794E2,5.7780194E2,8.1033453E2,4.0255257E1,4.736346E1,2.780195E1,2.7664987E2,3.1717888E1,1.9042432E2,1.601791E1,1.1486222E2,3.863572E1,6.449964E2,1.6533815E2,3.8105686E1,2.1495693E0,4.4701744E1,2.6617188E0,1.6350993E2,1.13139946E2,2.7056704E1,4.661185E0,3.8401665E1,1.5202264E2,1.154382E1,4.47409E0,1.7526603E0,1.1310956E2,1.36550045E1,2.4980715E1,8.690581E1,7.8432335E1,8.887532E0,3.581421E1,1.5281412E2,1.0695808E1,2.5943954E1,8.719599E1,5.0101795E0,2.2046524E1,7.435821E1,7.766444E1,3.676015E0,7.867806E0,3.1495824E0,1.3245076E0,1.0721213E1,2.9337916E0,1.0162648E1,1.4818067E1,8.5005745E1,1.9000657E0,3.0448133E1,5.3660774E0,1.4955418E2,3.2599478E0,8.941834E0,1.7539747E0,1.0707514E1,1.5236442E1,7.170904E1,1.5486956E1,1.7539442E0,3.2562354E0,1.2759476E0,2.0770576E1,1.3869798E0,7.297123E1,3.82388E1,3.9425636E1,1.8629754E0,1.8130395E0,5.6408105E0,2.2269952E0,1.3695598E0,1.7800226E0,6.224366E0,4.496847E0,7.275225E0,2.887423E0,5.821198E1,2.6793766E1,2.184444E1,8.603692E0,9.1610916E1,5.794326E1,6.491904E0,2.4499307E0,7.0411487E0,3.6663647E0,2.3054001E0,1.2931042E1,6.1104874E1,1.0604165E1,3.728183E0,1.1758773E1,1.8545073E1,2.225504E0,4.8568707E1,2.440252E1,2.2779104E1,1.6646534E1,1.0317692E0,5.192597E0,2.5945482E0,1.9022987E0,5.0598807E0,2.2153444E0,1.6209164E0,1.2665066E0],"tree_param":{"num_deleted":"0","num_feature":"19","num_nodes":"123","size_leaf_vector":"1"}},{"base_weights":[-6.966549E-3,-6.7000055E-1,1.2060283E0,-8.697973E-1,-1.4722745E-1,6.636786E-1,1.3588846E0,-9.785384E-1,-6.32679E-1,8.13578E-1,-2.2828513E-1,8.8078475E-1,-3.1101862E-1,2.9755506E-1,1.3667032E-1,-1.2620392E-1,-9.142879E-1,-2.404206E-1,-7.205244E-1,1.010402E0,-9.3947776E-2,-8.727043E-2,-8.8245773E-1,1.0465349E0,1.6669467E-1,-8.49987E-1,8.930225E-1,1.2986894E-1,-8.151204E-2,-9.575401E-1,-8.267676E-1,-6.739838E-1,2.1438174E-1,-6.7592126E-1,-1.2320613E-1,7.2072124E-1,1.296384E-1,-7.8694904E-1,4.606179E-2,2.5338307E-1,-9.391374E-1,4.1941604E-1,1.1562951E0,-3.031974E-1,9.069602E-1,1.3295834E-1,-1.1975952E-1,-5.621104E-2,1.2585276E-1,-9.817644E-2,-7.207851E-1,-7.602065E-1,-1.1198485E0,-7.508783E-1,1.0975273E-1,6.80876E-2,1.396987E-1,-8.778134E-1,-5.162337E-1,5.515302E-1,1.374419E-1,-1.3262554E-1,-7.1788996E-1,7.3022656E-2,-1.4085925E-1,-1.15004025E-1,1.2495998E-1,-7.343152E-1,-1.1860146E-1,5.4812953E-2,1.1190027E0,1.0514945E0,1.337218E-1,2.464158E-1,-9.919741E-2,5.0574407E-2,1.1489411E-1,1.2459599E-1,-1.3699536E-1,-1.03391044E-1,-3.891065E-1,-6.675497E-1,-8.54174E-1,-1.19246505E-1,-1.9569333E-1,-9.473026E-2,-2.2305559E-1,-1.3466705E-1,4.5651498E-1,-1.2547158E-1,-8.060055E-1,-5.344603E-1,1.3126098E-1,7.2706886E-2,-7.8065336E-2,-1.7848E-1,-7.7277577E-1,3.59758E-3,8.7481767E-1,-6.087163E-1,-1.3342747E-1,5.060207E-1,-3.2214525E-1,1.5484612E-1,2.7190542E-2,1.1288613E0,4.7841194E-1,-1.19237624E-1,6.190657E-1,1.2316964E-1,-1.13659255E-1,-1.875596E-2,-1.2173914E-1,-7.007829E-2,1.3229849E-2,-7.9324625E-2,-1.1680303E-1,8.624955E-2,-1.13362886E-1,1.8274615E-2,-6.1987665E-2,2.443934E-2,-6.590923E-2,8.895819E-2,-3.5137657E-2,-7.153018E-2,-1.14348434E-1,-4.4908863E-2,-8.982875E-2,-1.2512742E-1,2.652025E-2,-5.2847322E-2,-9.212785E-2,-1.7690225E-2,1.823577E-2,1.0587954E-1,-3.7275363E-2,-1.3085078E-1,-4.2026784E-2,-5.3763993E-2,8.972939E-2,-1.1404561E-1,5.110262E-2,8.618333E-2,1.2460058E-1,1.1007774E-1,-3.6877606E-2,3.0639937E-2,1.4175661E-1],"categories":[],"categories_nodes":[],"categories_segments":[],"categories_sizes":[],"default_left":[0,0,0,0,0,0,0,0,0,0,0,0,0,0,0,0,0,0,0,0,0,0,0,0,0,0,0,0,0,0,0,0,0,0,0,0,0,0,0,0,0,0,0,0,0,0,0,0,0,0,0,0,0,0,0,0,0,0,0,0,0,0,0,0,0,0,0,0,0,0,0,0,0,0,0,0,0,0,0,0,0,0,0,0,0,0,0,0,0,0,0,0,0,0,0,0,0,0,0,0,0,0,0,0,0,0,0,0,0,0,0,0,0,0,0,0,0,0,0,0,0,0,0,0,0,0,0,0,0,0,0,0,0,0,0,0,0,0,0,0,0,0,0,0,0,0,0,0,0],"id":7,"left_children":[1,3,5,7,9,11,13,15,17,19,21,23,25,27,-1,-1,29,31,33,35,-1,37,39,41,43,45,47,-1,-1,49,51,53,55,57,-1,59,-1,61,63,65,67,69,71,73,75,-1,-1,77,-1,-1,79,81,83,85,-1,87,-1,89,91,93,-1,-1,95,97,-1,-1,-1,99,-1,101,103,105,-1,107,-1,109,-1,-1,-1,-1,111,113,115,-1,117,-1,119,121,123,-1,125,127,-1,-1,-1,129,131,133,135,137,-1,139,141,-1,-1,143,145,-1,147,-1,-1,-1,-1,-1,-1,-1,-1,-1,-1,-1,-1,-1,-1,-1,-1,-1,-1,-1,-1,-1,-1,-1,-1,-1,-1,-1,-1,-1,-1,-1,-1,-1,-1,-1,-1,-1,-1,-1,-1],"loss_changes":[1.6693881E3,1.400747E2,6.0521606E1,2.4811157E1,2.8883743E1,3.428746E1,4.539673E0,1.1783081E1,1.0424973E1,1.0046141E1,3.150546E1,1.55199585E1,1.9172241E1,5.0607E0,0E0,0E0,1.7976074E0,1.1165285E1,5.421158E0,1.8596382E0,0E0,2.6398012E1,3.9956627E0,7.1756363E0,8.838113E0,1.5632756E1,3.2820377E0,0E0,0E0,1.8348999E0,3.2590408E0,3.9937992E0,4.592802E0,7.2302856E0,0E0,1.2048464E0,0E0,1.3869419E0,9.169639E0,4.1754627E0,2.6462746E0,4.02561E0,1.347374E0,5.9213495E0,1.9206934E0,0E0,0E0,4.5411534E0,0E0,0E0,3.385641E0,1.0806656E0,2.0538864E0,2.752017E0,0E0,1.9762827E0,0E0,2.430542E0,4.290394E0,2.5934076E0,0E0,0E0,1.0908966E0,1.287067E1,0E0,0E0,0E0,2.1436386E0,0E0,1.8873641E0,1.767252E0,2.3784714E0,0E0,4.6026516E0,0E0,3.474491E0,0E0,0E0,0E0,0E0,2.6745303E0,2.0753021E0,1.1006317E0,0E0,2.7308595E0,0E0,1.31581E0,3.2532785E0,3.1049318E0,0E0,2.348629E0,3.7942543E0,0E0,0E0,0E0,2.0552595E0,1.1336327E0,6.9237504E0,4.3396235E0,3.3153505E0,0E0,2.1740265E0,4.1267014E0,0E0,0E0,1.286644E0,3.9543648E0,0E0,1.5106001E0,0E0,0E0,0E0,0E0,0E0,0E0,0E0,0E0,0E0,0E0,0E0,0E0,0E0,0E0,0E0,0E0,0E0,0E0,0E0,0E0,0E0,0E0,0E0,0E0,0E0,0E0,0E0,0E0,0E0,0E0,0E0,0E0,0E0,0E0,0E0,0E0,0E0,0E0,0E0,0E0],"parents":[2147483647,0,0,1,1,2,2,3,3,4,4,5,5,6,6,7,7,8,8,9,9,10,10,11,11,12,12,13,13,16,16,17,17,18,18,19,19,21,21,22,22,23,23,24,24,25,25,26,26,29,29,30,30,31,31,32,32,33,33,35,35,37,37,38,38,39,39,40,40,41,41,42,42,43,43,44,44,47,47,50,50,51,51,52,52,53,53,55,55,57,57,58,58,59,59,62,62,63,63,67,67,69,69,70,70,71,71,73,73,75,75,80,80,81,81,82,82,84,84,86,86,87,87,88,88,90,90,91,91,95,95,96,96,97,97,98,98,99,99,101,101,102,102,105,105,106,106,108,108],"right_children":[2,4,6,8,10,12,14,16,18,20,22,24,26,28,-1,-1,30,32,34,36,-1,38,40,42,44,46,48,-1,-1,50,52,54,56,58,-1,60,-1,62,64,66,68,70,72,74,76,-1,-1,78,-1,-1,80,82,84,86,-1,88,-1,90,92,94,-1,-1,96,98,-1,-1,-1,100,-1,102,104,106,-1,108,-1,110,-1,-1,-1,-1,112,114,116,-1,118,-1,120,122,124,-1,126,128,-1,-1,-1,130,132,134,136,138,-1,140,142,-1,-1,144,146,-1,148,-1,-1,-1,-1,-1,-1,-1,-1,-1,-1,-1,-1,-1,-1,-1,-1,-1,-1,-1,-1,-1,-1,-1,-1,-1,-1,-1,-1,-1,-1,-1,-1,-1,-1,-1,-1,-1,-1,-1,-1],"split_conditions":[1.04E2,2.2E1,3.15E2,9E0,1E0,3.3E1,3.7E1,1E0,1E0,1E0,2E0,3E0,3.1E1,2.4E1,1.3667032E-1,-1.2620392E-1,5E0,1.3E1,5E0,3.6E1,-9.3947776E-2,1E0,3E0,7E0,2.09E2,1E0,6E0,1.2986894E-1,-8.151204E-2,3E0,1E0,5E0,1.6E1,1E0,-1.2320613E-1,1.8E1,1.296384E-1,2.4E1,1.9E1,3.1E1,1.2E1,2E1,1E1,1.6E1,3E1,1.3295834E-1,-1.1975952E-1,3.5E1,1.2585276E-1,-9.817644E-2,2E0,1E0,7E0,1E0,1.0975273E-1,1.8E1,1.396987E-1,1E0,7E0,1.6E1,1.374419E-1,-1.3262554E-1,2.5E1,8.5E1,-1.4085925E-1,-1.15004025E-1,1.2495998E-1,6E0,-1.1860146E-1,8E0,8E0,8E0,1.337218E-1,1E1,-9.919741E-2,1.3E1,1.1489411E-1,1.2459599E-1,-1.3699536E-1,-1.03391044E-1,1E0,3E0,2E0,-1.19246505E-1,1E0,-9.473026E-2,1E0,1E0,2E1,-1.2547158E-1,1E0,3E0,1.3126098E-1,7.2706886E-2,-7.8065336E-2,1E0,2E0,4E0,6E0,3E1,-1.3342747E-1,4E0,1.32E2,1.5484612E-1,2.7190542E-2,4E0,1.5E1,-1.19237624E-1,2.5E1,1.2316964E-1,-1.13659255E-1,-1.875596E-2,-1.2173914E-1,-7.007829E-2,1.3229849E-2,-7.9324625E-2,-1.1680303E-1,8.624955E-2,-1.13362886E-1,1.8274615E-2,-6.1987665E-2,2.443934E-2,-6.590923E-2,8.895819E-2,-3.5137657E-2,-7.153018E-2,-1.14348434E-1,-4.4908863E-2,-8.982875E-2,-1.2512742E-1,2.652025E-2,-5.2847322E-2,-9.212785E-2,-1.7690225E-2,1.823577E-2,1.0587954E-1,-3.7275363E-2,-1.3085078E-1,-4.2026784E-2,-5.3763993E-2,8.972939E-2,-1.1404561E-1,5.110262E-2,8.618333E-2,1.2460058E-1,1.1007774E-1,-3.6877606E-2,3.0639937E-2,1.4175661E-1],"split_indices":[11,11,11,11,16,0,16,0,16,17,2,2,14,0,0,0,11,11,0,11,0,14,16,14,11,14,17,0,0,0,2,0,0,14,0,0,0,11,16,11,0,16,17,14,16,0,0,0,0,0,11,14,0,2,0,11,0,0,14,0,0,0,11,11,0,0,0,17,0,0,17,17,0,14,0,17,0,0,0,0,16,0,16,0,16,0,14,14,11,0,2,14,0,0,0,17,0,14,17,11,0,0,11,0,0,17,0,0,0,0,0,0,0,0,0,0,0,0,0,0,0,0,0,0,0,0,0,0,0,0,0,0,0,0,0,0,0,0,0,0,0,0,0,0,0,0,0,0,0],"split_type":[0,0,0,0,0,0,0,0,0,0,0,0,0,0,0,0,0,0,0,0,0,0,0,0,0,0,0,0,0,0,0,0,0,0,0,0,0,0,0,0,0,0,0,0,0,0,0,0,0,0,0,0,0,0,0,0,0,0,0,0,0,0,0,0,0,0,0,0,0,0,0,0,0,0,0,0,0,0,0,0,0,0,0,0,0,0,0,0,0,0,0,0,0,0,0,0,0,0,0,0,0,0,0,0,0,0,0,0,0,0,0,0,0,0,0,0,0,0,0,0,0,0,0,0,0,0,0,0,0,0,0,0,0,0,0,0,0,0,0,0,0,0,0,0,0,0,0,0,0],"sum_hessian":[2.0755562E3,1.3420865E3,7.334695E2,9.7080176E2,3.7128482E2,1.6153052E2,5.7193896E2,6.6507007E2,3.0573166E2,2.871993E1,3.4256488E2,1.3219691E2,2.9333595E1,4.3046308E0,5.6763434E2,1.2224625E2,5.4282385E2,5.6216885E1,2.4951477E2,2.5910269E1,2.8096628E0,2.8203506E2,6.0529823E1,1.0714135E2,2.5055569E1,2.034083E1,8.992765E0,2.3043962E0,2.0002344E0,3.6185828E2,1.8096558E2,2.8868357E1,2.734853E1,2.2989671E2,1.9618061E1,1.3220489E1,1.268978E1,4.5184288E1,2.3685078E2,2.7765884E0,5.7753235E1,1.6166521E1,9.097483E1,1.5280226E1,9.775344E0,2.7194133E0,1.7621416E1,2.4475064E0,6.5452585E0,3.2760165E2,3.4256607E1,1.480441E2,3.2921474E1,2.7776737E1,1.0916188E0,2.4507185E1,2.841344E0,1.0105608E2,1.2884062E2,1.077026E1,2.450229E0,4.758103E0,4.0426186E1,2.3270157E2,4.1492147E0,1.1046245E0,1.6719638E0,3.2003757E1,2.5749475E1,1.0792551E1,5.37397E0,5.8387463E1,3.2587364E1,8.453637E0,6.8265886E0,2.2712827E0,7.5040607E0,1.1935301E0,1.2539762E0,1.7357155E1,1.6899452E1,7.5485825E1,7.255827E1,3.0395845E1,2.5256298E0,2.0047367E1,7.7293715E0,1.5975854E1,8.531332E0,1.5685701E1,8.5370384E1,1.2769346E2,1.1471606E0,9.622777E0,1.147483E0,3.9410686E0,3.6485115E1,2.1436546E2,1.8336107E1,2.6768106E1,5.2356505E0,5.017635E0,5.774916E0,3.432783E0,1.9411871E0,5.1203453E1,7.18401E0,1.6386254E0,6.815012E0,1.1788845E0,1.0923984E0,1.3787829E1,3.111623E0,7.260648E1,2.879339E0,6.1324867E1,1.1233409E1,1.1404209E0,1.385209E0,3.7235236E0,4.005848E0,9.193443E0,6.782411E0,5.628087E0,2.903245E0,6.776543E1,1.7604954E1,1.0382851E2,2.3864958E1,1.1657443E0,2.7753243E0,1.4220374E1,2.2264742E1,1.06385864E2,1.079796E2,1.6062656E1,2.2734509E0,5.4404254E0,2.1327682E1,1.2883029E0,3.729332E0,2.9553857E0,2.8195307E0,1.6128428E1,3.5075024E1,4.1923265E0,2.991683E0,5.086797E0,1.728215E0],"tree_param":{"num_deleted":"0","num_feature":"19","num_nodes":"149","size_leaf_vector":"1"}},{"base_weights":[-6.5012896E-3,-8.656582E-1,1.0375695E0,-1.0123831E0,9.676233E-1,4.4573516E-1,1.2452228E0,-1.0578249E0,-3.3922195E-1,1.9011664E-1,1.2191368E0,3.5495457E-1,9.695939E-1,1.0118924E0,1.3068827E0,-1.13215685E-1,-9.7243637E-1,-5.196852E-1,9.734488E-1,8.1337196E-1,-9.183739E-1,8.0480635E-1,1.3013944E-1,1.8412189E-1,6.299834E-1,1.086252E0,6.9542825E-2,1.0610709E0,3.171124E-1,5.867893E-1,1.3102579E-1,-5.045517E-1,-1.006951E0,-1.1595593E-1,-9.7750115E-1,1.4888406E-1,4.0047562E-1,-1.3654114E-1,1.0538518E-1,-1.24370195E-1,-2.3970841E-1,4.245189E-1,1.3406609E-1,8.589003E-2,6.620013E-1,1.2690596E-1,7.8420246E-1,1.1686946E0,-4.72886E-2,1.14416204E-1,-6.476654E-2,8.962533E-1,1.1275347E0,1.1919948E-1,-1.3696867E-1,-8.188173E-3,1.1916542E-1,8.886682E-1,-1.0570693E0,-1.0142059E0,3.955065E-2,-3.159365E-1,8.8013494E-1,-1.1393261E0,-1.1387196E-1,-7.522725E-2,1.15816966E-1,6.738374E-2,-8.375705E-2,4.7623362E-2,-1.0911315E-1,1.1394912E-1,-1.5699941E-1,2.3543093E-2,8.166649E-1,7.6968515E-1,-4.1957933E-2,5.403782E-1,-1.8669133E-1,8.7884784E-1,-2.5792617E-1,8.9855313E-1,1.4560522E-1,1.1116995E0,4.8792318E-1,1.1569581E0,5.559788E-1,-3.9564233E-2,1.1912787E0,-1.2034011E-1,3.4856077E-3,-1.1671599E0,-9.521418E-1,-6.457939E-1,-0E0,1.2506877E-1,-0E0,-1.2421312E-1,-0E0,1.4210428E-1,-8.444664E-2,1.1161783E-1,-8.676839E-1,5.193456E-1,1.656763E-1,1.1168861E-1,3.2686865E-1,-1.7100258E-2,6.7352515E-1,9.907713E-1,-9.162886E-2,-1.134155E0,1.6857634E-1,1.3024493E0,3.6941013E-1,1.2428058E0,4.8479512E-1,-1.7453824E-1,7.8729886E-1,6.506811E-1,1.1866504E0,-1.1292561E-1,1.0845976E-1,1.5774092E-1,3.0208215E-2,-1.1789276E-1,-1.0065663E-2,-8.0922924E-2,-1.001206E-1,1.07220285E-1,-8.3701804E-2,1.4313316E-1,-3.1372573E-2,7.3758923E-3,1.4940947E-1,-1.4210694E-1,-0E0,9.8328926E-2,-0E0,-3.5426542E-2,6.756618E-2,1.5894894E-1,4.7467593E-2,1.0395517E-1,5.2468805E-3,-6.281904E-2,4.724651E-2,-2.7007282E-2,-1.6808715E-1,1.9999655E-1,9.944494E-2,-0E0,1.671456E-1,1.3997631E-1,7.5651996E-2,1.3926238E-1,-2.9487817E-2,2.6529018E-2,1.2569182E-1,1.6425744E-1,-4.7654994E-2,1.613881E-1,1.13083504E-1],"categories":[],"categories_nodes":[],"categories_segments":[],"categories_sizes":[],"default_left":[0,0,0,0,0,0,0,0,0,0,0,0,0,0,0,0,0,0,0,0,0,0,0,0,0,0,0,0,0,0,0,0,0,0,0,0,0,0,0,0,0,0,0,0,0,0,0,0,0,0,0,0,0,0,0,0,0,0,0,0,0,0,0,0,0,0,0,0,0,0,0,0,0,0,0,0,0,0,0,0,0,0,0,0,0,0,0,0,0,0,0,0,0,0,0,0,0,0,0,0,0,0,0,0,0,0,0,0,0,0,0,0,0,0,0,0,0,0,0,0,0,0,0,0,0,0,0,0,0,0,0,0,0,0,0,0,0,0,0,0,0,0,0,0,0,0,0,0,0,0,0,0,0,0,0,0,0,0,0,0,0,0,0],"id":8,"left_children":[1,3,5,7,9,11,13,15,17,19,21,23,25,27,29,-1,31,33,35,37,39,41,-1,43,45,47,49,51,53,55,-1,57,59,61,63,-1,65,67,-1,-1,69,71,-1,73,75,77,79,81,-1,-1,-1,83,85,-1,-1,-1,-1,87,89,91,-1,93,95,97,99,-1,-1,-1,-1,-1,-1,-1,-1,101,103,105,-1,107,-1,109,111,113,-1,115,117,119,121,-1,123,-1,-1,125,127,129,131,-1,-1,-1,-1,-1,-1,133,135,137,-1,-1,139,-1,141,143,145,147,-1,149,151,153,155,-1,157,159,161,-1,-1,-1,-1,-1,-1,-1,-1,-1,-1,-1,-1,-1,-1,-1,-1,-1,-1,-1,-1,-1,-1,-1,-1,-1,-1,-1,-1,-1,-1,-1,-1,-1,-1,-1,-1,-1,-1,-1,-1,-1,-1],"loss_changes":[1.7816674E3,2.9320618E2,1.09960815E2,3.0689453E1,1.5626343E1,1.0920856E1,9.182007E0,5.67749E0,1.5187897E1,1.3848477E1,1.7600632E0,9.258427E0,3.4694023E0,4.594101E0,1.0073242E0,0E0,6.9218445E0,1.0318341E1,2.029468E0,3.0488281E0,1.4048901E0,1.9165344E0,0E0,5.7000775E0,5.794943E0,4.0046883E0,3.307679E0,1.1214905E0,1.4160379E1,1.2389016E0,0E0,2.3746922E1,4.2790527E0,5.995415E0,3.5424232E0,0E0,3.5180902E0,1.5537993E0,0E0,0E0,1.665894E0,9.300193E0,0E0,4.5810175E0,2.490776E0,1.4891211E1,5.804775E0,1.8661041E0,0E0,0E0,0E0,3.1551914E0,1.3094635E0,0E0,0E0,0E0,0E0,3.5164852E0,3.6495552E0,3.5549316E0,0E0,2.6367505E0,1.6843522E0,2.6283703E0,4.956978E0,0E0,0E0,0E0,0E0,0E0,0E0,0E0,0E0,7.360362E0,1.6753511E0,2.746935E0,0E0,1.493134E0,0E0,5.8857193E0,8.341181E0,3.046811E0,0E0,1.8080616E0,9.112516E0,1.0486755E0,4.4449277E0,0E0,2.2182207E0,0E0,0E0,1.328659E0,1.7826538E0,4.135875E0,5.899575E0,0E0,0E0,0E0,0E0,0E0,0E0,4.3485765E0,4.1209483E0,1.4423001E0,0E0,0E0,2.1080458E0,0E0,2.0618906E0,2.076271E0,1.712361E0,1.3732376E0,0E0,1.3298035E0,3.2386212E0,1.2311172E0,3.4004395E0,0E0,2.7737746E0,6.0473423E0,1.4980392E0,0E0,0E0,0E0,0E0,0E0,0E0,0E0,0E0,0E0,0E0,0E0,0E0,0E0,0E0,0E0,0E0,0E0,0E0,0E0,0E0,0E0,0E0,0E0,0E0,0E0,0E0,0E0,0E0,0E0,0E0,0E0,0E0,0E0,0E0,0E0,0E0,0E0,0E0,0E0,0E0,0E0,0E0],"parents":[2147483647,0,0,1,1,2,2,3,3,4,4,5,5,6,6,7,7,8,8,9,9,10,10,11,11,12,12,13,13,14,14,16,16,17,17,18,18,19,19,20,20,21,21,23,23,24,24,25,25,26,26,27,27,28,28,29,29,31,31,32,32,33,33,34,34,36,36,37,37,40,40,41,41,43,43,44,44,45,45,46,46,47,47,51,51,52,52,57,57,58,58,59,59,61,61,62,62,63,63,64,64,73,73,74,74,75,75,77,77,79,79,80,80,81,81,83,83,84,84,85,85,86,86,88,88,91,91,92,92,93,93,94,94,101,101,102,102,103,103,106,106,108,108,109,109,110,110,111,111,113,113,114,114,115,115,116,116,118,118,119,119,120,120],"right_children":[2,4,6,8,10,12,14,16,18,20,22,24,26,28,30,-1,32,34,36,38,40,42,-1,44,46,48,50,52,54,56,-1,58,60,62,64,-1,66,68,-1,-1,70,72,-1,74,76,78,80,82,-1,-1,-1,84,86,-1,-1,-1,-1,88,90,92,-1,94,96,98,100,-1,-1,-1,-1,-1,-1,-1,-1,102,104,106,-1,108,-1,110,112,114,-1,116,118,120,122,-1,124,-1,-1,126,128,130,132,-1,-1,-1,-1,-1,-1,134,136,138,-1,-1,140,-1,142,144,146,148,-1,150,152,154,156,-1,158,160,162,-1,-1,-1,-1,-1,-1,-1,-1,-1,-1,-1,-1,-1,-1,-1,-1,-1,-1,-1,-1,-1,-1,-1,-1,-1,-1,-1,-1,-1,-1,-1,-1,-1,-1,-1,-1,-1,-1,-1,-1,-1,-1],"split_conditions":[1E0,6.7E1,3.6E1,3E1,5.7E1,1E0,1.91E2,8E0,2E0,3E0,7.9E1,3E0,9E0,3E0,2.6E1,-1.13215685E-1,1E0,2E0,1.2E1,6E0,4.9E1,2.9E1,1.3013944E-1,1E0,1E0,2E0,3E0,1.1E1,1E0,4E1,1.3102579E-1,1E0,2.4E1,1.2E1,4.2E1,1.4888406E-1,2.4E1,1.51E2,1.0538518E-1,-1.24370195E-1,3.2E1,3.3E1,1.3406609E-1,1.1E1,3E1,7E0,2E0,4E0,-4.72886E-2,1.14416204E-1,-6.476654E-2,8E0,2.9E1,1.1919948E-1,-1.3696867E-1,-8.188173E-3,1.1916542E-1,1E1,1E1,4E0,3.955065E-2,8.5E1,1.7E1,1E0,1.3E1,-7.522725E-2,1.15816966E-1,6.738374E-2,-8.375705E-2,4.7623362E-2,-1.0911315E-1,1.1394912E-1,-1.5699941E-1,2E0,2E0,2E0,-4.1957933E-2,2E0,-1.8669133E-1,5E0,6E0,1E0,1.4560522E-1,5.8E1,2E0,9E0,2E0,-3.9564233E-2,2.8E1,-1.2034011E-1,3.4856077E-3,1.5E1,6E0,5E0,8.9E1,1.2506877E-1,-0E0,-1.2421312E-1,-0E0,1.4210428E-1,-8.444664E-2,2E0,1E0,1.9E1,1.656763E-1,1.1168861E-1,1.1E1,-1.7100258E-2,8E0,7E0,5E0,1E0,1.6857634E-1,2E0,4E0,4E0,4E0,-1.7453824E-1,1.9E1,1E1,5.3E1,-1.1292561E-1,1.0845976E-1,1.5774092E-1,3.0208215E-2,-1.1789276E-1,-1.0065663E-2,-8.0922924E-2,-1.001206E-1,1.07220285E-1,-8.3701804E-2,1.4313316E-1,-3.1372573E-2,7.3758923E-3,1.4940947E-1,-1.4210694E-1,-0E0,9.8328926E-2,-0E0,-3.5426542E-2,6.756618E-2,1.5894894E-1,4.7467593E-2,1.0395517E-1,5.2468805E-3,-6.281904E-2,4.724651E-2,-2.7007282E-2,-1.6808715E-1,1.9999655E-1,9.944494E-2,-0E0,1.671456E-1,1.3997631E-1,7.5651996E-2,1.3926238E-1,-2.9487817E-2,2.6529018E-2,1.2569182E-1,1.6425744E-1,-4.7654994E-2,1.613881E-1,1.13083504E-1],"split_indices":[9,12,11,12,13,10,11,11,10,2,13,13,12,2,12,0,13,2,14,14,13,14,0,2,14,10,14,13,12,0,0,12,14,0,13,0,0,11,0,0,0,0,0,12,11,13,9,12,0,0,0,13,14,0,0,0,0,11,12,12,0,11,0,10,0,0,0,0,0,0,0,0,0,14,14,12,0,12,0,14,14,12,0,11,14,12,9,0,11,0,0,14,12,13,11,0,0,0,0,0,0,9,12,11,0,0,11,0,11,0,12,2,0,0,13,14,0,0,12,14,11,0,0,0,0,0,0,0,0,0,0,0,0,0,0,0,0,0,0,0,0,0,0,0,0,0,0,0,0,0,0,0,0,0,0,0,0,0,0,0,0,0,0],"split_type":[0,0,0,0,0,0,0,0,0,0,0,0,0,0,0,0,0,0,0,0,0,0,0,0,0,0,0,0,0,0,0,0,0,0,0,0,0,0,0,0,0,0,0,0,0,0,0,0,0,0,0,0,0,0,0,0,0,0,0,0,0,0,0,0,0,0,0,0,0,0,0,0,0,0,0,0,0,0,0,0,0,0,0,0,0,0,0,0,0,0,0,0,0,0,0,0,0,0,0,0,0,0,0,0,0,0,0,0,0,0,0,0,0,0,0,0,0,0,0,0,0,0,0,0,0,0,0,0,0,0,0,0,0,0,0,0,0,0,0,0,0,0,0,0,0,0,0,0,0,0,0,0,0,0,0,0,0,0,0,0,0,0,0],"sum_hessian":[1.9860247E3,1.0895533E3,8.964713E2,1.0089059E3,8.064747E1,2.3305003E2,6.6342126E2,9.449139E2,6.3992023E1,1.9851984E1,6.0795486E1,1.9893486E2,3.411518E1,1.3937354E2,5.240477E2,5.038804E2,4.4103345E2,5.6377895E1,7.6141257E0,1.27820425E1,7.0699415E0,1.0450495E1,5.034499E1,1.23039856E2,7.5895E1,3.0084106E1,4.031075E0,1.2997676E2,9.396781E0,2.6646218E0,5.213831E2,3.0605124E1,4.1042834E2,3.0141281E1,2.6236614E1,3.832449E0,3.7816765E0,2.5069172E0,1.02751255E1,4.623159E0,2.4467826E0,6.326512E0,4.1239834E0,1.02331955E2,2.0707905E1,1.800187E1,5.7893127E1,2.865794E1,1.4261671E0,1.6454847E0,2.3855903E0,3.820029E1,9.177647E1,6.2458825E0,3.1508982E0,1.2281039E0,1.4365178E0,8.622054E0,2.198307E1,4.0841455E2,2.0137658E0,2.5242197E1,4.899085E0,2.1971865E1,4.2647514E0,1.4477779E0,2.3338988E0,1.0984075E0,1.4085097E0,1.2892759E0,1.1575067E0,4.7255516E0,1.6009603E0,9.450887E1,7.8230767E0,1.8943186E1,1.7647194E0,1.5011816E1,2.990053E0,5.3175404E1,4.7177253E0,1.5163555E1,1.3494385E1,2.4733215E1,1.3467073E1,8.701939E1,4.7570806E0,1.5752647E0,7.046789E0,1.9456963E1,2.5261075E0,1.1690822E2,2.9150635E2,1.2287738E1,1.2954458E1,3.452462E0,1.4466232E0,2.0173033E1,1.7988313E0,1.3007047E0,2.9640465E0,8.619082E1,8.318053E0,5.9855742E0,1.8375025E0,1.0406035E1,8.53715E0,2.2438483E0,1.2767968E1,4.7767414E1,5.407987E0,3.3159637E0,1.4017615E0,8.409462E0,6.7540927E0,2.0242151E1,4.4910636E0,1.4952984E0,1.1971776E1,5.1343265E0,8.1885056E1,1.0635836E0,3.6934967E0,4.780859E0,2.2659302E0,1.1552918E2,1.3790336E0,7.54692E1,2.1603716E2,1.1321968E0,1.1155541E1,2.2611217E0,1.06933365E1,8.4066345E1,2.1244745E0,5.0790114E0,3.2390423E0,3.089404E0,2.8961704E0,2.7935488E0,5.743602E0,2.0629787E0,1.0704989E1,4.5295242E1,2.4721718E0,2.8566642E0,2.5513232E0,1.4137884E0,1.9021752E0,2.308186E0,6.1012764E0,5.360067E0,1.394026E0,1.5005406E1,5.2367454E0,2.0979338E0,2.3931298E0,5.844599E0,6.127177E0,2.753986E0,2.3803408E0,8.932137E0,7.295292E1],"tree_param":{"num_deleted":"0","num_feature":"19","num_nodes":"163","size_leaf_vector":"1"}},{"base_weights":[-6.1701606E-3,-8.2912385E-1,9.8075104E-1,-9.697107E-1,9.2659897E-1,4.0435988E-1,1.1942921E0,-1.0149838E0,-3.1622386E-1,1.7678557E-1,1.1751792E0,4.5326557E-2,5.18363E-1,9.6848583E-1,1.2703621E-1,-1.1908565E0,-9.1746235E-1,-1.0747378E0,-2.095838E-1,7.4586093E-1,-6.9079536E-1,-0E0,1.2017965E-1,-1.9248009E-2,1.4032803E-1,5.4583436E-1,-5.1361346E-1,1.2467396E-1,9.0359336E-1,-1.20176E0,1.1828102E-1,-1.0067064E0,-7.639403E-1,-0E0,-1.3084655E-1,6.61459E-1,-3.1019232E-1,-1.613208E-1,1.124228E-1,-1.3357328E-1,-2.5102386E-1,2.1780819E-1,-3.3591878E-1,4.1423413E-1,8.352434E-1,-1.2566416E-1,8.089851E-2,6.167109E-1,1.0091058E0,-1.2066529E-1,-1.5775996E-3,-1.0388728E0,-6.4879316E-1,-6.763067E-1,-9.1431075E-1,-2.631848E-2,1.012023E-1,-5.180956E-1,5.311464E-2,-9.036567E-2,5.9826262E-2,1.9942702E-1,-1.0961918E-1,-1.47410035E-2,5.823027E-1,-5.845821E-1,4.327704E-1,4.5869717E-1,-1.3770033E-1,1.0883629E0,5.481026E-1,7.758796E-1,-1.1199019E-1,1.0271169E-1,-9.05637E-3,-9.820782E-1,-1.13339E-1,3.5613903E-1,-1.1044308E-1,-2.4402508E-1,-7.6850754E-1,-1.1610539E-1,-4.4820938E-1,7.244543E-2,-6.138605E-1,8.388953E-1,-6.732591E-1,9.26613E-2,-5.680362E-2,1.1393715E0,-4.2419764E-1,-6.860215E-2,-0E0,1.2240467E-1,-1.3036652E-1,4.3819284E-1,1.603881E-1,1.5034015E-2,1.1816161E0,-4.2087924E-1,7.045691E-1,1.6299279E-1,6.591457E-1,-1.0179528E-1,2.944374E-2,-3.3099707E-2,8.54809E-2,-2.8945038E-3,-9.419597E-2,-7.011092E-2,-1.17642105E-1,1.2492456E-1,-5.9664298E-2,-1.3460556E-1,-3.723827E-2,1.3050784E-1,2.1440921E-2,8.693927E-3,-1.03690825E-1,7.016284E-2,1.6563265E-1,5.963086E-2,-9.208032E-2,5.4750707E-2,1.3419076E-2,6.679609E-2,1.3213956E-1,-1.834446E-1,6.82311E-2,4.258303E-2,9.046837E-2,7.5880386E-2,-8.180719E-3],"categories":[],"categories_nodes":[],"categories_segments":[],"categories_sizes":[],"default_left":[0,0,0,0,0,0,0,0,0,0,0,0,0,0,0,0,0,0,0,0,0,0,0,0,0,0,0,0,0,0,0,0,0,0,0,0,0,0,0,0,0,0,0,0,0,0,0,0,0,0,0,0,0,0,0,0,0,0,0,0,0,0,0,0,0,0,0,0,0,0,0,0,0,0,0,0,0,0,0,0,0,0,0,0,0,0,0,0,0,0,0,0,0,0,0,0,0,0,0,0,0,0,0,0,0,0,0,0,0,0,0,0,0,0,0,0,0,0,0,0,0,0,0,0,0,0,0,0,0,0,0,0,0],"id":9,"left_children":[1,3,5,7,9,11,13,15,17,19,21,23,25,27,-1,29,31,33,35,37,39,-1,-1,41,-1,43,45,-1,47,49,-1,51,53,-1,-1,55,57,59,-1,-1,61,63,65,67,69,-1,-1,71,73,-1,-1,75,77,79,81,-1,-1,83,85,-1,-1,87,-1,-1,89,91,93,95,-1,97,99,101,-1,-1,-1,103,-1,105,-1,107,109,-1,111,-1,113,115,117,-1,-1,119,121,-1,-1,-1,-1,123,-1,-1,125,127,129,-1,131,-1,-1,-1,-1,-1,-1,-1,-1,-1,-1,-1,-1,-1,-1,-1,-1,-1,-1,-1,-1,-1,-1,-1,-1,-1,-1,-1,-1,-1,-1],"loss_changes":[1.5300679E3,2.5367413E2,1.05219666E2,2.797876E1,1.4039841E1,9.430271E0,1.0385681E1,1.4935242E1,4.857808E0,9.526953E0,1.8879166E0,5.068584E0,5.013363E0,2.5289154E0,0E0,8.337433E0,7.5964355E0,1.9186096E0,4.764043E0,4.1306853E0,1.9576824E0,0E0,0E0,4.0480714E0,0E0,6.365509E0,4.58243E0,0E0,3.6781616E0,1.7050476E0,0E0,3.927124E0,2.5656433E0,0E0,0E0,1.9087005E0,3.7544503E0,2.0318968E0,0E0,0E0,1.9093131E0,4.122008E0,4.4743934E0,9.385735E0,3.644535E0,0E0,0E0,9.7776165E0,1.9619141E0,0E0,0E0,1.4559937E0,1.4007465E1,5.236965E0,8.660591E0,0E0,0E0,3.7679186E0,1.0215576E1,0E0,0E0,1.8117864E0,0E0,0E0,8.787618E0,1.0327187E0,7.8857665E0,2.4369488E0,0E0,2.298069E0,3.8967605E0,2.8879375E0,0E0,0E0,0E0,9.646164E0,0E0,3.3265388E0,0E0,3.4975994E0,2.768837E0,0E0,6.8147025E0,0E0,4.952777E0,2.337294E0,2.6537666E0,0E0,0E0,1.9205265E0,2.8831549E0,0E0,0E0,0E0,0E0,3.7017612E0,0E0,0E0,1.5331879E0,5.688709E0,1.0514231E0,0E0,2.19487E0,0E0,0E0,0E0,0E0,0E0,0E0,0E0,0E0,0E0,0E0,0E0,0E0,0E0,0E0,0E0,0E0,0E0,0E0,0E0,0E0,0E0,0E0,0E0,0E0,0E0,0E0,0E0,0E0,0E0,0E0],"parents":[2147483647,0,0,1,1,2,2,3,3,4,4,5,5,6,6,7,7,8,8,9,9,10,10,11,11,12,12,13,13,15,15,16,16,17,17,18,18,19,19,20,20,23,23,25,25,26,26,28,28,29,29,31,31,32,32,35,35,36,36,37,37,40,40,41,41,42,42,43,43,44,44,47,47,48,48,51,51,52,52,53,53,54,54,57,57,58,58,61,61,64,64,65,65,66,66,67,67,69,69,70,70,71,71,75,75,77,77,79,79,80,80,82,82,84,84,85,85,86,86,89,89,90,90,95,95,98,98,99,99,100,100,102,102],"right_children":[2,4,6,8,10,12,14,16,18,20,22,24,26,28,-1,30,32,34,36,38,40,-1,-1,42,-1,44,46,-1,48,50,-1,52,54,-1,-1,56,58,60,-1,-1,62,64,66,68,70,-1,-1,72,74,-1,-1,76,78,80,82,-1,-1,84,86,-1,-1,88,-1,-1,90,92,94,96,-1,98,100,102,-1,-1,-1,104,-1,106,-1,108,110,-1,112,-1,114,116,118,-1,-1,120,122,-1,-1,-1,-1,124,-1,-1,126,128,130,-1,132,-1,-1,-1,-1,-1,-1,-1,-1,-1,-1,-1,-1,-1,-1,-1,-1,-1,-1,-1,-1,-1,-1,-1,-1,-1,-1,-1,-1,-1,-1],"split_conditions":[1E0,6.7E1,3.6E1,3E1,5.7E1,5E0,3.8E1,1E0,1E0,1.2E1,7E0,2E0,3.4E1,4E0,1.2703621E-1,1E1,4E0,3.3E1,1E0,5E0,4.4E1,-0E0,1.2017965E-1,1E0,1.4032803E-1,2.2E1,2E1,1.2467396E-1,1.5E1,2.8E1,1.1828102E-1,3E0,2E0,-0E0,-1.3084655E-1,1.3E1,3E1,2E0,1.124228E-1,-1.3357328E-1,1.2E1,1E0,4E0,5E0,1E0,-1.2566416E-1,8.089851E-2,4E0,2.7E1,-1.2066529E-1,-1.5775996E-3,1E0,1E0,5E0,3E0,-2.631848E-2,1.012023E-1,5.8E1,2.7E1,-9.036567E-2,5.9826262E-2,1.7E1,-1.0961918E-1,-1.47410035E-2,3E0,1E0,1E0,3E0,-1.3770033E-1,2.3E1,5E0,8E0,-1.1199019E-1,1.0271169E-1,-9.05637E-3,1.1E1,-1.13339E-1,3E0,-1.1044308E-1,1.5E1,3E0,-1.1610539E-1,4E0,7.244543E-2,8.5E1,4.5E1,8E0,9.26613E-2,-5.680362E-2,2E0,1E0,-6.860215E-2,-0E0,1.2240467E-1,-1.3036652E-1,1E0,1.603881E-1,1.5034015E-2,2E0,4E0,2.7E1,1.6299279E-1,1.2E1,-1.0179528E-1,2.944374E-2,-3.3099707E-2,8.54809E-2,-2.8945038E-3,-9.419597E-2,-7.011092E-2,-1.17642105E-1,1.2492456E-1,-5.9664298E-2,-1.3460556E-1,-3.723827E-2,1.3050784E-1,2.1440921E-2,8.693927E-3,-1.03690825E-1,7.016284E-2,1.6563265E-1,5.963086E-2,-9.208032E-2,5.4750707E-2,1.3419076E-2,6.679609E-2,1.3213956E-1,-1.834446E-1,6.82311E-2,4.258303E-2,9.046837E-2,7.5880386E-2,-8.180719E-3],"split_indices":[9,12,11,12,13,11,16,1,1,17,17,1,11,16,0,17,12,12,17,17,13,0,0,12,0,11,12,0,13,13,0,1,1,0,0,13,13,1,0,0,1,11,11,16,17,0,0,1,17,0,0,16,13,12,17,0,0,11,16,0,0,17,0,0,11,16,16,17,0,11,12,12,0,0,0,11,0,11,0,11,17,0,13,0,11,12,17,0,0,11,13,0,0,0,0,17,0,0,12,1,11,0,16,0,0,0,0,0,0,0,0,0,0,0,0,0,0,0,0,0,0,0,0,0,0,0,0,0,0,0,0,0,0],"split_type":[0,0,0,0,0,0,0,0,0,0,0,0,0,0,0,0,0,0,0,0,0,0,0,0,0,0,0,0,0,0,0,0,0,0,0,0,0,0,0,0,0,0,0,0,0,0,0,0,0,0,0,0,0,0,0,0,0,0,0,0,0,0,0,0,0,0,0,0,0,0,0,0,0,0,0,0,0,0,0,0,0,0,0,0,0,0,0,0,0,0,0,0,0,0,0,0,0,0,0,0,0,0,0,0,0,0,0,0,0,0,0,0,0,0,0,0,0,0,0,0,0,0,0,0,0,0,0,0,0,0,0,0,0],"sum_hessian":[1.8836969E3,1.0272401E3,8.564567E2,9.5117773E2,7.6062386E1,2.3172931E2,6.247274E2,8.8935547E2,6.1822254E1,1.9080795E1,5.6981594E1,5.6092506E1,1.7563681E2,1.5810303E2,4.6662442E2,3.164733E2,5.728822E2,7.392811E0,5.4429443E1,1.160076E1,7.4800344E0,1.1933408E0,5.5788254E1,5.3570038E1,2.5224657E0,1.7122284E2,4.413969E0,2.9263077E1,1.2883995E2,3.1511728E2,1.3560061E0,3.6151987E2,2.1136235E2,1.3171328E0,6.075678E0,5.4751954E0,4.895425E1,3.3534708E0,8.24729E0,2.8578267E0,4.6222076E0,3.0473415E1,2.3096622E1,1.1810619E2,5.3116646E1,2.8778214E0,1.5361478E0,3.5083138E1,9.375682E1,3.1373688E2,1.380426E0,3.312775E2,3.0242346E1,1.3430583E2,7.705652E1,1.433605E0,4.04159E0,3.128435E1,1.76699E1,1.7529793E0,1.6004914E0,2.9878507E0,1.6343569E0,1.5114306E1,1.535911E1,1.7567692E1,5.5289307E0,1.15372574E2,2.7336202E0,2.7897354E1,2.5219292E1,3.2241005E1,2.842134E0,9.234192E1,1.4149019E0,2.0830542E2,1.2297209E2,9.372711E0,2.0869635E1,2.3864912E1,1.1044092E2,5.0146492E1,2.6910027E1,2.1168957E0,2.9167454E1,8.546547E0,9.123353E0,1.5904405E0,1.3974103E0,9.942421E0,5.416689E0,1.4923429E1,2.6442637E0,3.8579836E0,1.6709472E0,1.135648E2,1.8077736E0,2.6432066E0,2.5254148E1,3.3937883E0,2.1825502E1,3.6180098E0,2.8622993E1,2.0270723E2,5.5981956E0,3.8713386E0,5.501373E0,1.8432165E1,5.432748E0,9.5224304E1,1.521661E1,2.0501072E0,2.4859919E1,7.0175877E0,2.2149866E1,4.739421E0,3.8071263E0,2.8877325E0,6.2356205E0,5.6160607E0,4.32636E0,1.7005913E0,3.7160976E0,8.322824E1,3.033656E1,5.678896E0,1.9575253E1,1.4983046E0,1.8954837E0,9.4605055E0,1.2364997E1,2.5346449E1,3.2765446E0],"tree_param":{"num_deleted":"0","num_feature":"19","num_nodes":"133","size_leaf_vector":"1"}},{"base_weights":[-6.105007E-3,-1.0577606E0,7.2965556E-1,-1.1186918E0,-5.2889764E-1,2.679829E-1,1.2010741E0,-1.1407334E0,-7.133825E-2,-6.1171013E-1,1.2317987E-1,5.0159484E-2,4.642748E-1,9.617271E-1,1.24045014E-1,-1.1459998E-1,3.0866402E-1,-3.6714718E-1,-1.152905E-1,-7.4927695E-2,8.8361895E-1,5.0096375E-1,-3.173766E-1,1.1308596E0,5.806822E-1,1.8461351E-1,-1.0340863E-1,-1.1124549E0,-1.6751093E-1,-1.5283474E-1,5.74717E-1,-1.4921843E-1,9.9865085E-1,4.0418404E-1,8.373973E-1,-1.0116678E-1,7.778734E-2,2.7288854E-2,1.1611559E-1,9.177088E-1,-1.9358185E-1,-1.2763233E-1,-0E0,3.062786E-1,-5.4006404E-1,-1.4280279E-1,-1.2568866E-1,4.8832458E-1,1.652283E-1,1.08273864E-1,-0E0,5.095614E-1,7.786212E-2,6.424505E-1,1.07363306E-1,-0E0,1.0297198E0,-7.9075325E-1,8.328843E-2,-1.2067796E-1,5.7787555E-1,-7.426154E-1,2.4856049E-1,-1.77192E-1,1.31764E-1,6.41015E-1,-3.3699468E-1,5.452963E-1,-2.7618283E-1,-6.874961E-3,1.8003727E-1,1.3373646E-1,5.1065534E-1,1.2013941E-1,3.079223E-1,7.977588E-3,-1.5269911E-1,2.3761434E-2,1.265937E-1,-3.0014554E-2,-1.24204196E-1,-7.2204046E-2,7.923808E-2,-1.0992569E-1,-1.683118E-2,3.244793E-2,-2.1398563E-2,3.834909E-2,1.9297145E-1,-1.424963E-1,4.3176554E-2,4.501527E-2,1.01821005E-1,2.8296817E-2,-1.2350928E-1,-6.4207636E-2,1.5022141E-2,-8.119797E-2,6.544054E-2,-5.775813E-2,1.1318087E-1],"categories":[],"categories_nodes":[],"categories_segments":[],"categories_sizes":[],"default_left":[0,0,0,0,0,0,0,0,0,0,0,0,0,0,0,0,0,0,0,0,0,0,0,0,0,0,0,0,0,0,0,0,0,0,0,0,0,0,0,0,0,0,0,0,0,0,0,0,0,0,0,0,0,0,0,0,0,0,0,0,0,0,0,0,0,0,0,0,0,0,0,0,0,0,0,0,0,0,0,0,0,0,0,0,0,0,0,0,0,0,0,0,0,0,0,0,0,0,0,0,0],"id":10,"left_children":[1,3,5,7,9,11,13,15,-1,17,-1,19,21,23,-1,-1,25,27,-1,29,31,33,35,37,39,-1,-1,41,43,45,47,-1,49,51,53,-1,-1,-1,-1,55,57,-1,-1,59,61,63,-1,65,-1,-1,-1,67,69,71,-1,-1,73,75,-1,-1,77,79,81,83,85,87,89,91,93,95,-1,-1,97,-1,99,-1,-1,-1,-1,-1,-1,-1,-1,-1,-1,-1,-1,-1,-1,-1,-1,-1,-1,-1,-1,-1,-1,-1,-1,-1,-1],"loss_changes":[1.381476E3,2.34599E1,2.2842749E2,5.618469E0,1.1136711E1,2.2646465E1,4.557129E0,4.885132E0,0E0,9.465305E0,0E0,2.636061E1,8.035553E0,4.545471E0,0E0,0E0,4.9596305E0,7.373359E0,0E0,1.1056151E1,9.117889E0,8.524345E0,9.567617E0,1.1533203E0,6.143906E0,0E0,0E0,1.971961E0,7.1156974E0,2.0114264E0,1.8786206E0,0E0,2.7128944E0,7.072933E0,2.4879456E0,0E0,0E0,0E0,0E0,1.7423544E0,4.369813E0,0E0,0E0,7.2359333E0,3.677154E0,1.8415074E0,0E0,2.8043847E0,0E0,0E0,0E0,4.4392815E0,7.6249757E0,2.763857E0,0E0,0E0,1.617096E0,3.0770302E0,0E0,0E0,3.3402705E0,3.8090897E0,2.4877732E0,1.2716274E0,1.4413068E0,5.8568306E0,2.982151E0,6.554306E0,3.7532E0,4.9140725E0,0E0,0E0,5.355723E0,0E0,2.3424866E0,0E0,0E0,0E0,0E0,0E0,0E0,0E0,0E0,0E0,0E0,0E0,0E0,0E0,0E0,0E0,0E0,0E0,0E0,0E0,0E0,0E0,0E0,0E0,0E0,0E0,0E0],"parents":[2147483647,0,0,1,1,2,2,3,3,4,4,5,5,6,6,7,7,9,9,11,11,12,12,13,13,16,16,17,17,19,19,20,20,21,21,22,22,23,23,24,24,27,27,28,28,29,29,30,30,32,32,33,33,34,34,39,39,40,40,43,43,44,44,45,45,47,47,51,51,52,52,53,53,56,56,57,57,60,60,61,61,62,62,63,63,64,64,65,65,66,66,67,67,68,68,69,69,72,72,74,74],"right_children":[2,4,6,8,10,12,14,16,-1,18,-1,20,22,24,-1,-1,26,28,-1,30,32,34,36,38,40,-1,-1,42,44,46,48,-1,50,52,54,-1,-1,-1,-1,56,58,-1,-1,60,62,64,-1,66,-1,-1,-1,68,70,72,-1,-1,74,76,-1,-1,78,80,82,84,86,88,90,92,94,96,-1,-1,98,-1,100,-1,-1,-1,-1,-1,-1,-1,-1,-1,-1,-1,-1,-1,-1,-1,-1,-1,-1,-1,-1,-1,-1,-1,-1,-1,-1],"split_conditions":[1E0,1.4E1,3.6E1,1E0,7.9E1,3E0,6.4E1,1E1,-7.133825E-2,3E0,1.2317987E-1,5E0,3E0,2.9E1,1.24045014E-1,-1.1459998E-1,1E0,6E0,-1.152905E-1,1E0,1E0,1.8E1,2E0,4E0,1.6E1,1.8461351E-1,-1.0340863E-1,9E0,8E0,5E0,5E0,-1.4921843E-1,1E0,6E0,2E0,-1.0116678E-1,7.778734E-2,2.7288854E-2,1.1611559E-1,3.9E1,3E0,-1.2763233E-1,-0E0,4E0,4.2E1,1E0,-1.2568866E-1,2E0,1.652283E-1,1.08273864E-1,-0E0,4E0,7E0,4E0,1.07363306E-1,-0E0,5.6E1,2E1,8.328843E-2,-1.2067796E-1,2.6E1,1.5E1,1.1E1,1E0,1E0,1E0,2E0,1E1,4E0,4E0,1.8003727E-1,1.3373646E-1,5E0,1.2013941E-1,6E1,7.977588E-3,-1.5269911E-1,2.3761434E-2,1.265937E-1,-3.0014554E-2,-1.24204196E-1,-7.2204046E-2,7.923808E-2,-1.0992569E-1,-1.683118E-2,3.244793E-2,-2.1398563E-2,3.834909E-2,1.9297145E-1,-1.424963E-1,4.3176554E-2,4.501527E-2,1.01821005E-1,2.8296817E-2,-1.2350928E-1,-6.4207636E-2,1.5022141E-2,-8.119797E-2,6.544054E-2,-5.775813E-2,1.1318087E-1],"split_indices":[7,13,13,8,13,13,13,17,0,2,0,0,2,0,0,0,2,16,0,10,8,13,10,17,17,0,0,0,0,16,16,0,16,0,7,0,0,0,0,13,7,0,0,0,13,2,0,17,0,0,0,17,17,0,0,0,16,17,0,0,13,0,17,8,17,17,0,13,0,16,0,0,0,0,13,0,0,0,0,0,0,0,0,0,0,0,0,0,0,0,0,0,0,0,0,0,0,0,0,0,0],"split_type":[0,0,0,0,0,0,0,0,0,0,0,0,0,0,0,0,0,0,0,0,0,0,0,0,0,0,0,0,0,0,0,0,0,0,0,0,0,0,0,0,0,0,0,0,0,0,0,0,0,0,0,0,0,0,0,0,0,0,0,0,0,0,0,0,0,0,0,0,0,0,0,0,0,0,0,0,0,0,0,0,0,0,0,0,0,0,0,0,0,0,0,0,0,0,0,0,0,0,0,0,0],"sum_hessian":[1.7851486E3,7.348651E2,1.0502834E3,6.586771E2,7.6188E1,5.308131E2,5.1947034E2,6.2429834E2,3.4378765E1,7.2882126E1,3.3058796E0,2.51908E2,2.7890512E2,7.4105064E1,4.4536526E2,6.2212775E2,2.1706014E0,5.0440815E1,2.2441307E1,2.1900964E2,3.2898357E1,2.6655737E2,1.2347745E1,5.100605E1,2.3099018E1,1.0291699E0,1.1414315E0,1.0454096E1,3.998672E1,1.9576358E2,2.3246063E1,1.4238781E0,3.1474478E1,2.0741035E2,5.914703E1,7.617722E0,4.7300234E0,1.8863833E0,4.9119667E1,1.6170742E1,6.9282756E0,9.128505E0,1.3255908E0,1.7491503E1,2.2495216E1,1.9420248E2,1.5611072E0,2.1741117E1,1.5049456E0,2.9074753E1,2.3997254E0,1.5650761E2,5.090275E1,3.2841106E1,2.6305925E1,1.7040464E0,1.4466696E1,4.456174E0,2.4721012E0,2.553502E0,1.4938002E1,1.8003748E1,4.491468E0,1.7294142E2,2.1261063E1,1.8467909E1,3.273208E0,1.4985042E2,6.6571884E0,4.855565E1,2.3470976E0,4.9687862E0,2.7872318E1,1.1521422E1,2.9452739E0,2.020486E0,2.435688E0,1.0182437E1,4.755564E0,9.737277E0,8.26647E0,1.5350614E0,2.9564066E0,1.4251307E0,1.7151628E2,1.3841442E1,7.4196196E0,1.5564893E1,2.9030166E0,1.3737559E0,1.899452E0,1.2509059E2,2.475983E1,4.1837835E0,2.473405E0,9.692591E0,3.8863056E1,2.6185646E0,2.5253754E1,1.3754623E0,1.5698116E0],"tree_param":{"num_deleted":"0","num_feature":"19","num_nodes":"101","size_leaf_vector":"1"}},{"base_weights":[-6.019028E-3,-1.0264568E0,6.862557E-1,-1.0813978E0,-2.9728314E-1,1.3314037E-1,1.0825133E0,-1.0982372E0,-3.2244244E-1,-4.040352E-1,1.19375646E-1,-4.1597918E-1,4.668613E-1,7.839064E-1,1.2079566E-1,-1.1299253E0,-9.5763767E-1,-7.703851E-1,5.705544E-1,-2.3684373E-1,-1.1621632E-1,-2.6138732E-1,-7.404916E-1,3.6534163E-1,8.42342E-1,2.6064602E-1,9.6287125E-1,-1.133244E-1,1.6395798E-2,-1.1202714E0,-8.610746E-1,-1.0398164E-1,7.093473E-2,1.4131998E-2,1.2731747E-1,-1.0215676E0,-4.9832128E-2,-4.4320664E-1,1.1947005E-1,-1.21064536E-1,-9.606678E-1,-1.4013211E-1,3.783253E-1,8.834109E-1,-1.0442563E-1,6.1063994E-2,1.0357608E-1,9.861978E-1,4.10136E-1,-1.15477405E-1,-0E0,-6.8658286E-1,-1.0129017E0,-3.3001635E-2,-1.2800927E-1,-1.606732E-1,1.1394208E-1,-2.050536E-1,-6.821286E-1,9.090098E-2,-1.3300376E-1,-1.0202773E0,7.588402E-1,-1.1182458E0,-4.57533E-1,3.1656313E-1,6.859832E-1,1.268171E-1,7.2650844E-1,5.551702E-1,-1.411079E-1,9.3773246E-1,1.2125379E-1,1.1557215E-1,-1.4791118E-1,-5.224685E-1,-1.042148E0,-1.2259554E-1,-7.319209E-1,-5.227102E-1,3.5933942E-1,7.3145176E-3,-6.554733E-1,-8.14169E-1,-1.8540198E-1,-4.5248318E-1,7.146815E-1,-1.3171601E-1,-3.3381727E-2,1.2058981E-1,-3.3737864E-2,-8.626221E-1,-1.3291867E-1,-1.3140959E-1,-1.16368346E-1,1.5493426E-1,4.6140534E-1,8.350561E-1,1.0500156E-3,-2.0301515E-1,1.0815934E0,3.0481866E-1,1.1882929E-1,-9.695246E-1,7.3646866E-2,9.7315185E-2,-2.8745422E-1,-1.3192336E-1,1.097397E-1,-6.2807925E-2,5.8448184E-2,-1.1934576E-1,-2.6329814E-2,-3.5992246E-2,-1.035764E-1,-7.183474E-2,-4.4438853E-3,1.5289597E-2,1.10702574E-1,-1.10009745E-1,9.2463925E-2,-8.5436426E-2,1.299824E-3,-1.1988602E-1,3.451794E-2,-1.16150025E-2,-7.2697885E-2,1.2399622E-1,2.5341202E-2,-1.0765546E-1,-2.3132978E-2,